{"learner":{"attributes":{"scikit_learn":"{\"_estimator_type\": \"classifier\"}"},"feature_names":["temperature","vibration","oil_pressure","hydraulic_pressure","suspension_pressure","battery_voltage","temperature_roll_mean","temperature_roll_std","temperature_roll_min","temperature_roll_max","temperature_rate_of_change","vibration_roll_mean","vibration_roll_std","vibration_roll_min","vibration_roll_max","vibration_rate_of_change","oil_pressure_roll_mean","oil_pressure_roll_std","oil_pressure_roll_min","oil_pressure_roll_max","oil_pressure_rate_of_change","hydraulic_pressure_roll_mean","hydraulic_pressure_roll_std","hydraulic_pressure_roll_min","hydraulic_pressure_roll_max","hydraulic_pressure_rate_of_change","suspension_pressure_roll_mean","suspension_pressure_roll_std","suspension_pressure_roll_min","suspension_pressure_roll_max","suspension_pressure_rate_of_change","battery_voltage_roll_mean","battery_voltage_roll_std","battery_voltage_roll_min","battery_voltage_roll_max","battery_voltage_rate_of_change"],"feature_types":["float","float","float","float","float","float","float","float","float","float","float","float","float","float","float","float","float","float","float","float","float","float","float","float","float","float","float","float","float","float","float","float","float","float","float","float"],"gradient_booster":{"model":{"cats":{"enc":[],"feature_segments":[],"sorted_idx":[]},"gbtree_model_param":{"num_parallel_tree":"1","num_trees":"200"},"iteration_indptr":[0,1,2,3,4,5,6,7,8,9,10,11,12,13,14,15,16,17,18,19,20,21,22,23,24,25,26,27,28,29,30,31,32,33,34,35,36,37,38,39,40,41,42,43,44,45,46,47,48,49,50,51,52,53,54,55,56,57,58,59,60,61,62,63,64,65,66,67,68,69,70,71,72,73,74,75,76,77,78,79,80,81,82,83,84,85,86,87,88,89,90,91,92,93,94,95,96,97,98,99,100,101,102,103,104,105,106,107,108,109,110,111,112,113,114,115,116,117,118,119,120,121,122,123,124,125,126,127,128,129,130,131,132,133,134,135,136,137,138,139,140,141,142,143,144,145,146,147,148,149,150,151,152,153,154,155,156,157,158,159,160,161,162,163,164,165,166,167,168,169,170,171,172,173,174,175,176,177,178,179,180,181,182,183,184,185,186,187,188,189,190,191,192,193,194,195,196,197,198,199,200],"tree_info":[0,0,0,0,0,0,0,0,0,0,0,0,0,0,0,0,0,0,0,0,0,0,0,0,0,0,0,0,0,0,0,0,0,0,0,0,0,0,0,0,0,0,0,0,0,0,0,0,0,0,0,0,0,0,0,0,0,0,0,0,0,0,0,0,0,0,0,0,0,0,0,0,0,0,0,0,0,0,0,0,0,0,0,0,0,0,0,0,0,0,0,0,0,0,0,0,0,0,0,0,0,0,0,0,0,0,0,0,0,0,0,0,0,0,0,0,0,0,0,0,0,0,0,0,0,0,0,0,0,0,0,0,0,0,0,0,0,0,0,0,0,0,0,0,0,0,0,0,0,0,0,0,0,0,0,0,0,0,0,0,0,0,0,0,0,0,0,0,0,0,0,0,0,0,0,0,0,0,0,0,0,0,0,0,0,0,0,0,0,0,0,0,0,0,0,0,0,0,0,0],"trees":[{"base_weights":[-2.1512744E-3,-1.8782188E0,1.9743407E0,2.3327619E-1,-1.8962507E0,1.9957005E0,-1.724138E-1,-9.6418107E-1,1.6411375E-1,-1.9054009E0,3.0800825E-1,6.312964E-3,1.9982779E-1,-1.6363637E-1,1.11001395E-1,-1.9166075E-1,-1.0014693E-1,-1.20000005E-1,1.09301046E-1],"categories":[],"categories_nodes":[],"categories_segments":[],"categories_sizes":[],"default_left":[0,0,0,0,0,0,0,0,0,0,0,0,0,0,0,0,0,0,0],"id":0,"left_children":[1,3,5,7,9,11,-1,13,-1,15,17,-1,-1,-1,-1,-1,-1,-1,-1],"loss_changes":[8.902685E3,4.734082E1,9.580371E1,2.0666872E1,2.5222168E1,5.6660156E0,0E0,1.1223623E1,0E0,1.0403809E1,8.30804E0,0E0,0E0,0E0,0E0,0E0,0E0,0E0,0E0],"parents":[2147483647,0,0,1,1,2,2,3,3,4,4,5,5,7,7,9,9,10,10],"right_children":[2,4,6,8,10,12,-1,14,-1,16,18,-1,-1,-1,-1,-1,-1,-1,-1],"split_conditions":[3.3399932E-2,-7E-2,-3E-2,3.34E-1,1.73E0,2.4E-1,-1.724138E-1,5.7E-2,1.6411375E-1,6.5E-2,2.2632327E-2,6.312964E-3,1.9982779E-1,-1.6363637E-1,1.11001395E-1,-1.9166075E-1,-1.0014693E-1,-1.20000005E-1,1.09301046E-1],"split_indices":[27,20,20,1,10,10,0,15,0,15,27,0,0,0,0,0,0,0,0],"split_type":[0,0,0,0,0,0,0,0,0,0,0,0,0,0,0,0,0,0,0],"sum_hessian":[2.3989185E3,1.2307511E3,1.1681675E3,1.0320389E1,1.2204307E3,1.1619175E3,6.25E0,5.747226E0,4.5731626E0,1.2155205E3,4.9101944E0,1.5814841E0,1.160336E3,4.5E0,1.2472261E0,1.1995288E3,1.5991678E1,1.5E0,3.4101944E0],"tree_param":{"num_deleted":"0","num_feature":"36","num_nodes":"19","size_leaf_vector":"1"}},{"base_weights":[-6.7275614E-3,1.8022302E0,-1.7069025E0,1.8151352E0,-7.788345E-1,2.783951E-1,-1.7244889E0,-3.8902957E-2,1.818169E-1,-1.4436607E-1,6.530327E-2,-1.4310895E-1,1.1023085E0,-1.7318345E0,4.1947624E-1,-5.772952E-2,1.5973124E-1,-1.7366357E-1,2.0345038E-2,-1.0978811E-1,1.3831703E-1],"categories":[],"categories_nodes":[],"categories_segments":[],"categories_sizes":[],"default_left":[0,0,0,0,0,0,0,0,0,0,0,0,0,0,0,0,0,0,0,0,0],"id":1,"left_children":[1,3,5,7,9,11,13,-1,-1,-1,-1,-1,15,17,19,-1,-1,-1,-1,-1,-1],"loss_changes":[7.3400215E3,3.9928467E1,4.3434082E1,8.402588E0,7.085002E0,1.80052E1,1.9934326E1,0E0,0E0,0E0,0E0,0E0,7.9352303E0,1.1648682E1,8.785065E0,0E0,0E0,0E0,0E0,0E0,0E0],"parents":[2147483647,0,0,1,1,2,2,3,3,4,4,5,5,6,6,12,12,13,13,14,14],"right_children":[2,4,6,8,10,12,14,-1,-1,-1,-1,-1,16,18,20,-1,-1,-1,-1,-1,-1],"split_conditions":[-7E-2,-2E-2,-7E-2,1.9E-1,4.6530277E-1,4.0331405E-1,6.6654664E-1,-3.8902957E-2,1.818169E-1,-1.4436607E-1,6.530327E-2,-1.4310895E-1,2.4855135E-2,1.73E0,2.1628171E-2,-5.772952E-2,1.5973124E-1,-1.7366357E-1,2.0345038E-2,-1.0978811E-1,1.3831703E-1],"split_indices":[30,20,20,10,7,7,7,0,0,0,0,0,17,10,17,0,0,0,0,0,0],"split_type":[0,0,0,0,0,0,0,0,0,0,0,0,0,0,0,0,0,0,0,0,0],"sum_hessian":[2.384576E3,1.155298E3,1.2292778E3,1.1498456E3,5.452327E0,1.06635275E1,1.2186144E3,1.4055738E0,1.1484401E3,3.7178612E0,1.7344655E0,3.2283309E0,7.4351964E0,1.214645E3,3.9693396E0,1.6546247E0,5.780572E0,1.2117415E3,2.903522E0,1.4876928E0,2.4816468E0],"tree_param":{"num_deleted":"0","num_feature":"36","num_nodes":"21","size_leaf_vector":"1"}},{"base_weights":[-3.1901659E-3,1.6760815E0,-1.573153E0,-1.1309586E-1,1.6814138E-1,5.5861306E-1,-1.5983489E0,-1.1120435E0,1.3058738E0,-1.6118994E0,-7.8863025E-1,-1.3245937E-1,-2.0416414E-2,2.205972E-3,1.5242082E-1,-1.6158319E-1,6.4249854E-3,1.3422976E-1,-1.2815456E-1],"categories":[],"categories_nodes":[],"categories_segments":[],"categories_sizes":[],"default_left":[0,0,0,0,0,0,0,0,0,0,0,0,0,0,0,0,0,0,0],"id":2,"left_children":[1,3,5,-1,-1,7,9,11,13,15,17,-1,-1,-1,-1,-1,-1,-1,-1],"loss_changes":[6.1097427E3,1.8661865E1,6.522388E1,0E0,0E0,1.9843494E1,1.1719238E1,7.1234894E-1,2.948433E0,7.7731934E0,2.4245731E1,0E0,0E0,0E0,0E0,0E0,0E0,0E0,0E0],"parents":[2147483647,0,0,1,1,2,2,5,5,6,6,7,7,8,8,9,9,10,10],"right_children":[2,4,6,-1,-1,8,10,12,14,16,18,-1,-1,-1,-1,-1,-1,-1,-1],"split_conditions":[-8E-2,3E-2,-7E-2,-1.1309586E-1,1.6814138E-1,3.3E-2,1.22E0,6.757E1,6.436E1,3.99E-1,-4E-2,-1.3245937E-1,-2.0416414E-2,2.205972E-3,1.5242082E-1,-1.6158319E-1,6.4249854E-3,1.3422976E-1,-1.2815456E-1],"split_indices":[30,10,20,0,0,15,10,9,0,1,30,0,0,0,0,0,0,0,0],"split_type":[0,0,0,0,0,0,0,0,0,0,0,0,0,0,0,0,0,0,0],"sum_hessian":[2.3154614E3,1.1187504E3,1.196711E3,1.7209233E0,1.1170295E3,1.3731713E1,1.1829794E3,4.0929384E0,9.638775E0,1.162534E3,2.0445377E1,2.9445672E0,1.1483711E0,1.5610113E0,8.077764E0,1.1598489E3,2.6851878E0,3.517153E0,1.6928225E1],"tree_param":{"num_deleted":"0","num_feature":"36","num_nodes":"19","size_leaf_vector":"1"}},{"base_weights":[1.2358954E-3,1.5670059E0,-1.4793403E0,-3.8092658E-1,1.5741919E0,-1.4916252E0,2.1945758E-1,8.772981E-2,-1.1698332E-1,3.0387595E-1,1.5764835E-1,-1.5355402E0,-1.2845033E0,-1.24874055E-1,1.3578637E-1,6.9256224E-2,-2.1335859E-2,-1.5388717E-1,-5.193531E-2,-1.420425E-1,-4.5480505E-2],"categories":[],"categories_nodes":[],"categories_segments":[],"categories_sizes":[],"default_left":[0,0,0,0,0,0,0,0,0,0,0,0,0,0,0,0,0,0,0,0,0],"id":3,"left_children":[1,3,5,7,9,11,13,-1,-1,15,-1,17,19,-1,-1,-1,-1,-1,-1,-1,-1],"loss_changes":[5.204063E3,1.5871338E1,2.4406494E1,5.805974E0,2.6862793E0,8.448486E0,1.6998293E1,0E0,0E0,7.903918E-1,0E0,2.3830566E0,2.2645294E1,0E0,0E0,0E0,0E0,0E0,0E0,0E0,0E0],"parents":[2147483647,0,0,1,1,2,2,3,3,4,4,5,5,6,6,9,9,11,11,12,12],"right_children":[2,4,6,8,10,12,14,-1,-1,16,-1,18,20,-1,-1,-1,-1,-1,-1,-1,-1],"split_conditions":[-7E-2,1.946621E-2,6.3464427E-1,2.2327E1,2.4698177E-2,2.7E-2,2.3528706E-2,8.772981E-2,-1.1698332E-1,2.134609E-2,1.5764835E-1,2.317E1,2.5033312E-2,-1.24874055E-1,1.3578637E-1,6.9256224E-2,-2.1335859E-2,-1.5388717E-1,-5.193531E-2,-1.420425E-1,-4.5480505E-2],"split_indices":[30,12,7,31,27,15,12,0,0,12,0,34,17,0,0,0,0,0,0,0,0],"split_type":[0,0,0,0,0,0,0,0,0,0,0,0,0,0,0,0,0,0,0,0,0],"sum_hessian":[2.2428318E3,1.0900261E3,1.1528057E3,3.8152084E0,1.0862109E3,1.1446501E3,8.155571E0,1.4270954E0,2.388113E0,2.196486E0,1.0840144E3,9.3911914E2,2.0553098E2,3.5195282E0,4.6360426E0,1.0605462E0,1.1359398E0,9.3553784E2,3.5813E0,1.7598848E2,2.9542484E1],"tree_param":{"num_deleted":"0","num_feature":"36","num_nodes":"21","size_leaf_vector":"1"}},{"base_weights":[1.4171922E-2,-1.3976617E0,1.4748493E0,8.6299725E-2,-1.4123592E0,1.4904797E0,-1.3055585E-1,-6.569461E-1,1.1590024E0,-1.4334406E0,-9.770495E-1,-1.8182665E-2,1.4924479E-1,1.0194192E-1,-1.1408063E-1,1.2817934E-1,3.2605793E-2,-1.4349796E-1,4.4770264E-3,-1.16869584E-1,1.4284542E-1],"categories":[],"categories_nodes":[],"categories_segments":[],"categories_sizes":[],"default_left":[0,0,0,0,0,0,0,0,0,0,0,0,0,0,0,0,0,0,0,0,0],"id":4,"left_children":[1,3,5,7,9,11,-1,13,15,17,19,-1,-1,-1,-1,-1,-1,-1,-1,-1,-1],"loss_changes":[4.4356777E3,2.397705E1,4.7888916E1,1.00648365E1,8.5390625E0,3.7329102E0,0E0,7.2717314E0,1.0753727E-1,2.4094238E0,2.6180962E1,0E0,0E0,0E0,0E0,0E0,0E0,0E0,0E0,0E0,0E0],"parents":[2147483647,0,0,1,1,2,2,3,3,4,4,5,5,7,7,8,8,9,9,10,10],"right_children":[2,4,6,8,10,12,-1,14,16,18,20,-1,-1,-1,-1,-1,-1,-1,-1,-1,-1],"split_conditions":[3.3399932E-2,-7E-2,-3E-2,3.34E-1,2.7668675E-2,3.5549027E-1,-1.3055585E-1,2.17E-1,0E0,3.61E0,2.9059326E-2,-1.8182665E-2,1.4924479E-1,1.0194192E-1,-1.1408063E-1,1.2817934E-1,3.2605793E-2,-1.4349796E-1,4.4770264E-3,-1.16869584E-1,1.4284542E-1],"split_indices":[27,20,20,1,17,7,0,13,35,19,27,0,0,0,0,0,0,0,0,0,0],"split_type":[0,0,0,0,0,0,0,0,0,0,0,0,0,0,0,0,0,0,0,0,0],"sum_hessian":[2.14891E3,1.0927467E3,1.0561631E3,1.06689415E1,1.0820779E3,1.0507203E3,5.442803E0,6.5312195E0,4.1377215E0,1.0299081E3,5.2169678E1,1.127768E0,1.0495925E3,1.2149836E0,5.316236E0,3.1364784E0,1.0012431E0,1.0288662E3,1.0418872E0,4.879624E1,3.3734362E0],"tree_param":{"num_deleted":"0","num_feature":"36","num_nodes":"21","size_leaf_vector":"1"}},{"base_weights":[-5.2952794E-3,1.4113885E0,-1.3269731E0,-3.5362136E-1,1.422154E0,-1.3397739E0,3.1739676E-1,9.710788E-2,-1.0077755E0,-1.632758E-2,1.4241694E-1,-1.3438045E0,4.802432E-2,-8.266548E-1,1.2889145E-1,-1.1630907E-1,-2.0636117E-2,-5.3965148E-2,-1.3511577E-1,-1.0889629E-1,5.039749E-3],"categories":[],"categories_nodes":[],"categories_segments":[],"categories_sizes":[],"default_left":[0,0,0,0,0,0,0,0,0,0,0,0,0,0,0,0,0,0,0,0,0],"id":5,"left_children":[1,3,5,7,9,11,13,-1,15,-1,-1,17,-1,19,-1,-1,-1,-1,-1,-1,-1],"loss_changes":[3.7760938E3,1.8998047E1,2.2386597E1,6.7861595E0,3.324585E0,8.241333E0,1.0921707E1,0E0,3.7949467E-1,0E0,0E0,5.381836E0,0E0,1.1319041E0,0E0,0E0,0E0,0E0,0E0,0E0,0E0],"parents":[2147483647,0,0,1,1,2,2,3,3,4,4,5,5,6,6,8,8,11,11,13,13],"right_children":[2,4,6,8,10,12,14,-1,16,-1,-1,18,-1,20,-1,-1,-1,-1,-1,-1,-1],"split_conditions":[-7E-2,4.210054E-1,6.3464427E-1,2.011E2,1.490712E-2,3.61E0,2.7406406E-2,9.710788E-2,2.3687784E-2,-1.632758E-2,1.4241694E-1,-6E-2,4.802432E-2,6.586E1,1.2889145E-1,-1.1630907E-1,-2.0636117E-2,-5.3965148E-2,-1.3511577E-1,-1.0889629E-1,5.039749E-3],"split_indices":[30,7,7,3,17,19,17,0,17,0,0,30,0,0,0,0,0,0,0,0,0],"split_type":[0,0,0,0,0,0,0,0,0,0,0,0,0,0,0,0,0,0,0,0,0],"sum_hessian":[2.0147133E3,9.7237415E2,1.0423391E3,5.701835E0,9.666723E2,1.0344714E3,7.867762E0,1.7247123E0,3.9771228E0,1.1257291E0,9.655466E2,1.0324467E3,2.0247788E0,3.6815307E0,4.1862316E0,2.9534438E0,1.0236791E0,1.00293E1,1.0224173E3,2.647963E0,1.0335677E0],"tree_param":{"num_deleted":"0","num_feature":"36","num_nodes":"21","size_leaf_vector":"1"}},{"base_weights":[1.0333099E-2,-1.2442186E0,1.3533581E0,3.0383414E-1,-1.259187E0,1.3666475E0,-1.1723589E-1,-7.610131E-1,1.0925153E0,-1.2714176E0,6.5485135E-2,9.626972E-3,1.3680762E-1,2.0500442E-2,-1.10122085E-1,1.2725745E-1,1.7790686E-2,-1.2755118E-1,2.3120567E-2,-1.1705416E-1,1.1929114E-1],"categories":[],"categories_nodes":[],"categories_segments":[],"categories_sizes":[],"default_left":[0,0,0,0,0,0,0,0,0,0,0,0,0,0,0,0,0,0,0,0,0],"id":6,"left_children":[1,3,5,7,9,11,-1,13,15,17,19,-1,-1,-1,-1,-1,-1,-1,-1,-1,-1],"loss_changes":[3.2175134E3,2.3261108E1,3.2558838E1,9.448839E0,1.5929565E1,1.5341797E0,0E0,1.8543615E0,8.1200886E-1,6.2575684E0,1.51907215E1,0E0,0E0,0E0,0E0,0E0,0E0,0E0,0E0,0E0,0E0],"parents":[2147483647,0,0,1,1,2,2,3,3,4,4,5,5,7,7,8,8,9,9,10,10],"right_children":[2,4,6,8,10,12,-1,14,16,18,20,-1,-1,-1,-1,-1,-1,-1,-1,-1,-1],"split_conditions":[3.3399932E-2,-7E-2,-3E-2,4.0331405E-1,1.45E0,2.1E-2,-1.1723589E-1,5.91E0,3.4E0,8.4E-2,2.2632327E-2,9.626972E-3,1.3680762E-1,2.0500442E-2,-1.10122085E-1,1.2725745E-1,1.7790686E-2,-1.2755118E-1,2.3120567E-2,-1.1705416E-1,1.1929114E-1],"split_indices":[27,20,20,7,10,15,0,4,2,15,27,0,0,0,0,0,0,0,0,0,0],"split_type":[0,0,0,0,0,0,0,0,0,0,0,0,0,0,0,0,0,0,0,0,0],"sum_hessian":[1.9076239E3,9.863368E2,9.212871E2,9.260972E0,9.770758E2,9.169215E2,4.365582E0,3.9554954E0,5.305477E0,9.6817694E2,8.898875E0,1.1068363E0,9.158147E2,1.1337197E0,2.8217757E0,4.105784E0,1.1996928E0,9.656968E2,2.4801595E0,4.226744E0,4.672131E0],"tree_param":{"num_deleted":"0","num_feature":"36","num_nodes":"21","size_leaf_vector":"1"}},{"base_weights":[1.2348868E-2,1.3171241E0,-1.1908475E0,-8.580195E-2,1.3214199E-1,-1.2080773E0,5.986102E-1,-1.716598E-1,-1.2254134E0,-9.468621E-2,1.1826371E0,-7.749603E-2,1.2482984E-1,-1.2302344E-1,1.0503488E-2,1.343311E-1,1.0594792E-2],"categories":[],"categories_nodes":[],"categories_segments":[],"categories_sizes":[],"default_left":[0,0,0,0,0,0,0,0,0,0,0,0,0,0,0,0,0],"id":7,"left_children":[1,3,5,-1,-1,7,9,11,13,-1,15,-1,-1,-1,-1,-1,-1],"loss_changes":[2.828733E3,9.210815E0,2.962561E1,0E0,0E0,1.6478027E1,9.792447E0,1.50539465E1,5.987671E0,0E0,1.1409616E0,0E0,0E0,0E0,0E0,0E0,0E0],"parents":[2147483647,0,0,1,1,2,2,5,5,6,6,7,7,8,8,10,10],"right_children":[2,4,6,-1,-1,8,10,12,14,-1,16,-1,-1,-1,-1,-1,-1],"split_conditions":[-8E-2,1.812181E-2,6.3464427E-1,-8.580195E-2,1.3214199E-1,-6E-2,2.0869968E-2,2.5298221E-2,2.317E1,-9.468621E-2,2.2538E1,-7.749603E-2,1.2482984E-1,-1.2302344E-1,1.0503488E-2,1.343311E-1,1.0594792E-2],"split_indices":[30,12,7,0,0,20,12,27,34,0,31,0,0,0,0,0,0],"split_type":[0,0,0,0,0,0,0,0,0,0,0,0,0,0,0,0,0],"sum_hessian":[1.7998553E3,8.63433E2,9.364223E2,1.3101299E0,8.6212286E2,9.278138E2,8.608551E0,1.544356E1,9.1237024E2,2.1905572E0,6.4179935E0,1.1157351E1,4.2862086E0,9.091512E2,3.2190323E0,5.3691287E0,1.0488648E0],"tree_param":{"num_deleted":"0","num_feature":"36","num_nodes":"17","size_leaf_vector":"1"}},{"base_weights":[2.3169282E-3,1.2661004E0,-1.1582751E0,-8.804429E-1,1.2779485E0,7.169057E-3,-1.1798826E0,-1.0991507E-1,-1.0448064E-3,-1.2142975E-2,1.280507E-1,1.1568068E0,-9.486335E-1,-1.1878669E0,6.3210505E-1,1.4436321E-1,-3.0710474E-2,-1.19336896E-1,3.3798333E-2,-1.19543746E-1,1.24546E-2,1.0672859E-1,-3.0889053E-2],"categories":[],"categories_nodes":[],"categories_segments":[],"categories_sizes":[],"default_left":[0,0,0,0,0,0,0,0,0,0,0,0,0,0,0,0,0,0,0,0,0,0,0],"id":8,"left_children":[1,3,5,7,9,11,13,-1,-1,-1,-1,15,17,19,21,-1,-1,-1,-1,-1,-1,-1,-1],"loss_changes":[2.4626638E3,2.1567017E1,2.2048828E1,9.406984E-1,3.0187988E0,1.9695684E1,1.3182983E1,0E0,0E0,0E0,0E0,3.8588066E0,3.4864483E0,8.652832E0,2.1407104E0,0E0,0E0,0E0,0E0,0E0,0E0,0E0,0E0],"parents":[2147483647,0,0,1,1,2,2,3,3,4,4,5,5,6,6,11,11,12,12,13,13,14,14],"right_children":[2,4,6,8,10,12,14,-1,-1,-1,-1,16,18,20,22,-1,-1,-1,-1,-1,-1,-1,-1],"split_conditions":[-7E-2,1.9E-1,-6E-2,2.258E1,-1E-3,-3E-2,6.6654664E-1,-1.0991507E-1,-1.0448064E-3,-1.2142975E-2,1.280507E-1,1E-2,4.566983E-1,1.59E0,-3E-2,1.4436321E-1,-3.0710474E-2,-1.19336896E-1,3.3798333E-2,-1.19543746E-1,1.24546E-2,1.0672859E-1,-3.0889053E-2],"split_indices":[30,10,20,34,15,30,7,0,0,0,0,35,7,10,20,0,0,0,0,0,0,0,0],"split_type":[0,0,0,0,0,0,0,0,0,0,0,0,0,0,0,0,0,0,0,0,0,0,0],"sum_hessian":[1.6770085E3,8.0277057E2,8.74238E2,4.004253E0,7.987663E2,1.5925597E1,8.583124E2,2.9893596E0,1.0148933E0,1.372878E0,7.9739343E2,7.1342425E0,8.791354E0,8.5488983E2,3.42252E0,5.9770145E0,1.1572279E0,7.447243E0,1.3441111E0,8.500754E2,4.81443E0,2.248466E0,1.1740538E0],"tree_param":{"num_deleted":"0","num_feature":"36","num_nodes":"23","size_leaf_vector":"1"}},{"base_weights":[1.0804157E-2,1.2358043E0,-1.1177278E0,-5.263294E-1,1.2452428E0,-1.1640737E0,-5.152108E-1,-1.0417034E-1,6.7664005E-2,2.0648412E-1,1.2482573E-1,-1.1680385E0,4.063979E-2,5.3286326E-1,-9.624905E-1,-8.265301E-2,1.2172985E-1,-1.1718744E-1,-1.1359407E-2,1.2212068E-1,-6.721426E-2,-1.1838841E-1,-3.613087E-2],"categories":[],"categories_nodes":[],"categories_segments":[],"categories_sizes":[],"default_left":[0,0,0,0,0,0,0,0,0,0,0,0,0,0,0,0,0,0,0,0,0,0,0],"id":9,"left_children":[1,3,5,7,9,11,13,-1,-1,15,-1,17,-1,19,21,-1,-1,-1,-1,-1,-1,-1,-1],"loss_changes":[2.1614658E3,1.3124512E1,2.2124878E1,3.6169991E0,2.078125E0,5.174988E0,2.8602692E1,0E0,0E0,4.511241E0,0E0,2.9135742E0,0E0,1.622116E1,5.209484E0,0E0,0E0,0E0,0E0,0E0,0E0,0E0,0E0],"parents":[2147483647,0,0,1,1,2,2,3,3,4,4,5,5,6,6,9,9,11,11,13,13,14,14],"right_children":[2,4,6,8,10,12,14,-1,-1,16,-1,18,-1,20,22,-1,-1,-1,-1,-1,-1,-1,-1],"split_conditions":[-7E-2,1.9E-1,8.8E-1,6.71E1,4.210054E-1,3.61E0,-2E-2,-1.0417034E-1,6.7664005E-2,3.397E0,1.2482573E-1,2.317E1,4.063979E-2,-1E-2,4.7026706E-1,-8.265301E-2,1.2172985E-1,-1.1718744E-1,-1.1359407E-2,1.2212068E-1,-6.721426E-2,-1.1838841E-1,-3.613087E-2],"split_indices":[30,10,10,0,7,19,30,0,0,16,0,34,0,20,7,0,0,0,0,0,0,0,0],"split_type":[0,0,0,0,0,0,0,0,0,0,0,0,0,0,0,0,0,0,0,0,0,0,0],"sum_hessian":[1.5615027E3,7.4870374E2,8.127989E2,3.6971607E0,7.450066E2,7.5387805E2,5.892082E1,2.68214E0,1.0150206E0,2.3567863E0,7.426498E2,7.522352E2,1.6428212E0,1.7566746E1,4.1354073E1,1.2557597E0,1.1010264E0,7.493977E2,2.8375623E0,1.1171647E1,6.3950996E0,2.9515366E1,1.1838706E1],"tree_param":{"num_deleted":"0","num_feature":"36","num_nodes":"23","size_leaf_vector":"1"}},{"base_weights":[-3.3421032E-3,-1.0795463E0,1.2000513E0,3.0923116E-1,-1.0935333E0,1.2160764E0,-1.0383028E-1,-7.6478444E-2,9.0066004E-1,-1.0999833E0,3.293136E-1,-3.6856632E-3,1.218034E-1,1.1416658E-1,3.5704111E-3,-1.1049894E-1,4.3754615E-2,-4.1787993E-2,9.004765E-2],"categories":[],"categories_nodes":[],"categories_segments":[],"categories_sizes":[],"default_left":[0,0,0,0,0,0,0,0,0,0,0,0,0,0,0,0,0,0,0],"id":10,"left_children":[1,3,5,7,9,11,-1,-1,13,15,17,-1,-1,-1,-1,-1,-1,-1,-1],"loss_changes":[1.8838558E3,1.525415E1,2.5895264E1,6.047447E0,7.3412476E0,1.7184448E0,0E0,0E0,1.1890426E0,6.3119507E0,2.1692927E0,0E0,0E0,0E0,0E0,0E0,0E0,0E0,0E0],"parents":[2147483647,0,0,1,1,2,2,3,3,4,4,5,5,8,8,9,9,10,10],"right_children":[2,4,6,8,10,12,-1,-1,14,16,18,-1,-1,-1,-1,-1,-1,-1,-1],"split_conditions":[3.3399932E-2,-7E-2,-3E-2,4.0331405E-1,6.6654664E-1,3.5549027E-1,-1.0383028E-1,-7.6478444E-2,3.4E0,3.99E-1,2.6666667E-2,-3.6856632E-3,1.218034E-1,1.1416658E-1,3.5704111E-3,-1.1049894E-1,4.3754615E-2,-4.1787993E-2,9.004765E-2],"split_indices":[27,20,20,7,7,7,0,0,2,1,27,0,0,0,0,0,0,0,0],"split_type":[0,0,0,0,0,0,0,0,0,0,0,0,0,0,0,0,0,0,0],"sum_hessian":[1.4526057E3,7.668809E2,6.8572473E2,7.4360905E0,7.594448E2,6.813038E2,4.420951E0,2.536598E0,4.8994923E0,7.5624347E2,3.2013385E0,1.0350473E0,6.8026874E2,3.58162E0,1.3178723E0,7.5406964E2,2.173861E0,1.5032114E0,1.698127E0],"tree_param":{"num_deleted":"0","num_feature":"36","num_nodes":"19","size_leaf_vector":"1"}},{"base_weights":[-3.4456532E-3,1.1893629E0,-1.0366229E0,-4.532109E-2,1.19313814E-1,-1.0852476E0,-4.1113672E-1,-1.0914563E0,4.2883316E-1,-8.846E-1,8.88372E-1,-1.09581426E-1,4.5837656E-2,1.4784753E-1,-7.511511E-2,-9.8965995E-2,6.2059563E-2,-9.13791E-2,1.3573919E-1],"categories":[],"categories_nodes":[],"categories_segments":[],"categories_sizes":[],"default_left":[0,0,0,0,0,0,0,0,0,0,0,0,0,0,0,0,0,0,0],"id":11,"left_children":[1,3,5,-1,-1,7,9,11,13,15,17,-1,-1,-1,-1,-1,-1,-1,-1],"loss_changes":[1.6734106E3,4.4489136E0,2.1683655E1,0E0,0E0,6.808838E0,3.4068447E1,5.041321E0,5.4115987E0,6.9632874E0,1.3872259E1,0E0,0E0,0E0,0E0,0E0,0E0,0E0,0E0],"parents":[2147483647,0,0,1,1,2,2,5,5,6,6,7,7,8,8,9,9,10,10],"right_children":[2,4,6,-1,-1,8,10,12,14,16,18,-1,-1,-1,-1,-1,-1,-1,-1],"split_conditions":[-8E-2,1.8611824E-2,8.8E-1,-4.532109E-2,1.19313814E-1,3.99E-1,2.5407786E-2,3.61E0,6.454E1,6.81E1,2E-2,-1.09581426E-1,4.5837656E-2,1.4784753E-1,-7.511511E-2,-9.8965995E-2,6.2059563E-2,-9.13791E-2,1.3573919E-1],"split_indices":[30,12,10,0,0,1,17,19,8,9,27,0,0,0,0,0,0,0,0],"split_type":[0,0,0,0,0,0,0,0,0,0,0,0,0,0,0,0,0,0,0],"sum_hessian":[1.3558656E3,6.292463E2,7.266193E2,1.1699117E0,6.2807635E2,6.73525E2,5.3094322E1,6.710524E2,2.4726105E0,3.914977E1,1.3944553E1,6.6946295E2,1.589458E0,1.1747036E0,1.2979069E0,3.691563E1,2.2341402E0,2.6838446E0,1.1260709E1],"tree_param":{"num_deleted":"0","num_feature":"36","num_nodes":"19","size_leaf_vector":"1"}},{"base_weights":[6.9315615E-3,1.1586181E0,-1.0083133E0,-6.176389E-1,1.1682127E0,-1.0736077E0,-6.0606074E-1,-8.496206E-2,4.659773E-4,-2.2885134E-3,1.17184E-1,-1.0785688E0,4.2416867E-2,-8.9100385E-1,4.0674165E-1,-1.12450056E-1,-8.678623E-2,1.3665515E-1,-9.495794E-2,-5.5954225E-2,1.4198343E-1],"categories":[],"categories_nodes":[],"categories_segments":[],"categories_sizes":[],"default_left":[0,0,0,0,0,0,0,0,0,0,0,0,0,0,0,0,0,0,0,0,0],"id":12,"left_children":[1,3,5,7,9,11,13,-1,-1,-1,-1,15,-1,17,19,-1,-1,-1,-1,-1,-1],"loss_changes":[1.4802756E3,1.08302E1,1.7022095E1,5.584291E-1,2.5771484E0,4.7495117E0,2.8143383E1,0E0,0E0,0E0,0E0,4.5983887E0,0E0,1.1273781E1,2.2157839E1,0E0,0E0,0E0,0E0,0E0,0E0],"parents":[2147483647,0,0,1,1,2,2,3,3,4,4,5,5,6,6,11,11,13,13,14,14],"right_children":[2,4,6,8,10,12,14,-1,-1,-1,-1,16,-1,18,20,-1,-1,-1,-1,-1,-1],"split_conditions":[-7E-2,8E-2,2.5033312E-2,2.2538E1,1.95789E-2,3.61E0,3.1E-2,-8.496206E-2,4.659773E-4,-2.2885134E-3,1.17184E-1,5.2E-1,4.2416867E-2,5.54E0,2.2730302E-2,-1.12450056E-1,-8.678623E-2,1.3665515E-1,-9.495794E-2,-5.5954225E-2,1.4198343E-1],"split_indices":[30,10,17,31,17,19,15,0,0,0,0,10,0,4,27,0,0,0,0,0,0],"split_type":[0,0,0,0,0,0,0,0,0,0,0,0,0,0,0,0,0,0,0,0,0],"sum_hessian":[1.264012E3,5.921453E2,6.7186664E2,2.8408349E0,5.8930444E2,5.766025E2,9.526414E1,1.8033024E0,1.0375324E0,1.7730343E0,5.8753143E2,5.7497784E2,1.6246208E0,7.4441055E1,2.0823084E1,4.6851074E2,1.0646713E2,1.3179069E0,7.3123146E1,1.0886894E1,9.93619E0],"tree_param":{"num_deleted":"0","num_feature":"36","num_nodes":"21","size_leaf_vector":"1"}},{"base_weights":[-5.145202E-3,1.1279343E0,-1.0080659E0,-3.7385562E-1,1.1524546E0,-1.0834279E0,-6.9164085E-1,-1.0038265E-1,9.376997E-1,-3.710097E-2,1.1560525E0,-5.2045066E-2,-1.0884124E0,-8.78393E-1,3.754849E-1,1.19153254E-1,2.6786093E-2,3.2018196E-2,1.1574624E-1,-7.3176086E-2,7.85077E-2,9.928511E-3,-1.0915678E-1,-2.8385693E-2,-1.011103E-1,-8.2774565E-2,1.1784325E-1],"categories":[],"categories_nodes":[],"categories_segments":[],"categories_sizes":[],"default_left":[0,0,0,0,0,0,0,0,0,0,0,0,0,0,0,0,0,0,0,0,0,0,0,0,0,0,0],"id":13,"left_children":[1,3,5,7,9,11,13,-1,15,-1,17,19,21,23,25,-1,-1,-1,-1,-1,-1,-1,-1,-1,-1,-1,-1],"loss_changes":[1.321616E3,2.0539368E1,1.396228E1,8.813419E0,3.3753662E0,2.4958496E0,2.4530258E1,0E0,2.943747E-1,0E0,2.6159668E-1,2.5308266E0,1.9598999E0,7.890877E0,1.9126095E1,0E0,0E0,0E0,0E0,0E0,0E0,0E0,0E0,0E0,0E0,0E0,0E0],"parents":[2147483647,0,0,1,1,2,2,3,3,4,4,5,5,6,6,8,8,10,10,11,11,12,12,13,13,14,14],"right_children":[2,4,6,8,10,12,14,-1,16,-1,18,20,22,24,26,-1,-1,-1,-1,-1,-1,-1,-1,-1,-1,-1,-1],"split_conditions":[-6E-2,2.8E-2,2.7E-2,7.2E-1,2.9946062E-1,-7E-2,4.8992175E-1,-1.0038265E-1,1.01E0,-3.710097E-2,1.9119507E-2,4.0954718E-1,2.66E0,-2E-2,2.7E-1,1.19153254E-1,2.6786093E-2,3.2018196E-2,1.1574624E-1,-7.3176086E-2,7.85077E-2,9.928511E-3,-1.0915678E-1,-2.8385693E-2,-1.011103E-1,-8.2774565E-2,1.1784325E-1],"split_indices":[30,15,15,10,7,20,7,0,10,0,17,7,2,35,10,0,0,0,0,0,0,0,0,0,0,0,0],"split_type":[0,0,0,0,0,0,0,0,0,0,0,0,0,0,0,0,0,0,0,0,0,0,0,0,0,0,0],"sum_hessian":[1.1609956E3,5.450662E2,6.1592944E2,8.527639E0,5.365386E2,4.9549493E2,1.2043448E2,5.919158E0,2.6084816E0,1.0235349E0,5.35515E2,2.4381733E0,4.9305676E2,1.0264753E2,1.778695E1,1.3268443E0,1.2816373E0,1.2858664E0,5.342292E2,1.4150555E0,1.0231178E0,1.2257013E0,4.918311E2,1.9304232E1,8.33433E1,7.1066413E0,1.0680307E1],"tree_param":{"num_deleted":"0","num_feature":"36","num_nodes":"27","size_leaf_vector":"1"}},{"base_weights":[1.4212816E-2,-9.3906105E-1,1.1201489E0,-1.0171555E0,-6.120457E-1,1.1336749E0,-8.869685E-2,-1.023637E0,6.05455E-2,-7.1333474E-1,8.7057894E-1,1.9310443E-2,1.1351945E-1,-2.0987801E-2,-1.0323E-1,-9.148031E-2,-2.4791455E-2,1.305071E-1,-6.892553E-2],"categories":[],"categories_nodes":[],"categories_segments":[],"categories_sizes":[],"default_left":[0,0,0,0,0,0,0,0,0,0,0,0,0,0,0,0,0,0,0],"id":14,"left_children":[1,3,5,7,9,11,-1,13,-1,15,17,-1,-1,-1,-1,-1,-1,-1,-1],"loss_changes":[1.1450898E3,1.4275024E1,1.4655945E1,5.5562744E0,1.7885674E1,4.953003E-1,0E0,3.0816956E0,0E0,9.915337E0,6.187349E0,0E0,0E0,0E0,0E0,0E0,0E0,0E0,0E0],"parents":[2147483647,0,0,1,1,2,2,3,3,4,4,5,5,7,7,9,9,10,10],"right_children":[2,4,6,8,10,12,-1,14,-1,16,18,-1,-1,-1,-1,-1,-1,-1,-1],"split_conditions":[3.3399932E-2,2.7E-2,-3E-2,2.317E1,1.15E0,2.6E-1,-8.869685E-2,6.066E1,6.05455E-2,6.652E1,0E0,1.9310443E-2,1.1351945E-1,-2.0987801E-2,-1.0323E-1,-9.148031E-2,-2.4791455E-2,1.305071E-1,-6.892553E-2],"split_indices":[27,15,20,34,10,10,0,8,0,0,35,0,0,0,0,0,0,0,0],"split_type":[0,0,0,0,0,0,0,0,0,0,0,0,0,0,0,0,0,0,0],"sum_hessian":[1.0841572E3,5.8234735E2,5.018099E2,4.6838266E2,1.139647E2,4.988831E2,2.9268177E0,4.668868E2,1.4958483E0,1.0716251E2,6.8021913E0,1.011339E0,4.9787177E2,5.183669E0,4.6170316E2,7.4114655E1,3.3047855E1,5.4479823E0,1.3542091E0],"tree_param":{"num_deleted":"0","num_feature":"36","num_nodes":"19","size_leaf_vector":"1"}},{"base_weights":[9.452513E-3,1.1054547E0,-9.1286445E-1,-5.4668987E-1,1.1160394E0,-9.6084315E-1,-1.9632772E-1,-1.7870922E-3,-7.54193E-2,5.2090373E-2,1.1220058E-1,-7.955049E-1,-1.0309763E0,-8.996725E-1,1.095047E0,7.375297E-2,-5.1044233E-2,-8.9829355E-2,-3.628016E-2,-1.0394875E-1,-4.09933E-3,3.0342115E-2,-1.0743219E-1,-1.2981908E-2,1.4357549E-1],"categories":[],"categories_nodes":[],"categories_segments":[],"categories_sizes":[],"default_left":[0,0,0,0,0,0,0,0,0,0,0,0,0,0,0,0,0,0,0,0,0,0,0,0,0],"id":15,"left_children":[1,3,5,7,9,11,13,-1,-1,15,-1,17,19,21,23,-1,-1,-1,-1,-1,-1,-1,-1,-1,-1],"loss_changes":[1.0060053E3,8.562927E0,1.839038E1,3.778479E-1,2.8121338E0,5.0502014E0,3.2931458E1,0E0,0E0,1.7531629E0,0E0,6.5751877E0,2.9240723E0,5.2258263E0,5.550168E0,0E0,0E0,0E0,0E0,0E0,0E0,0E0,0E0,0E0,0E0],"parents":[2147483647,0,0,1,1,2,2,3,3,4,4,5,5,6,6,9,9,11,11,12,12,13,13,14,14],"right_children":[2,4,6,8,10,12,14,-1,-1,16,-1,18,20,22,24,-1,-1,-1,-1,-1,-1,-1,-1,-1,-1],"split_conditions":[-7E-2,7E-2,4.9E-2,1.8407727E0,4.210054E-1,-1E-2,6E-1,-1.7870922E-3,-7.54193E-2,2.011E2,1.1220058E-1,5E-1,6.984E1,-3E-2,4.0331405E-1,7.375297E-2,-5.1044233E-2,-8.9829355E-2,-3.628016E-2,-1.0394875E-1,-4.09933E-3,3.0342115E-2,-1.0743219E-1,-1.2981908E-2,1.4357549E-1],"split_indices":[30,10,15,22,7,30,10,0,0,3,0,10,9,35,7,0,0,0,0,0,0,0,0,0,0],"split_type":[0,0,0,0,0,0,0,0,0,0,0,0,0,0,0,0,0,0,0,0,0,0,0,0,0],"sum_hessian":[9.931977E2,4.537736E2,5.3942413E2,2.5662093E0,4.512074E2,5.052519E2,3.417221E1,1.029265E0,1.5369443E0,2.5704374E0,4.4863693E2,1.5416122E2,3.5109067E2,2.2319345E1,1.1852867E1,1.0184186E0,1.5520186E0,1.2370026E2,3.0460974E1,3.480484E2,3.042268E0,2.7358434E0,1.9583502E1,2.7141833E0,9.138683E0],"tree_param":{"num_deleted":"0","num_feature":"36","num_nodes":"25","size_leaf_vector":"1"}},{"base_weights":[-7.541856E-3,1.075382E0,-9.337107E-1,1.1112986E-1,-4.9025476E-1,-9.7667426E-1,-3.5385078E-1,-9.0879023E-1,1.12633206E-1,-1.0183792E0,-7.132958E-1,7.717385E-1,-8.755363E-1,1.5373297E-2,-1.0704706E-1,-1.0255543E-1,-2.4465851E-2,1.22367255E-1,-7.759966E-2,1.7509921E-1,-6.37161E-2,4.2479478E-2,-9.532915E-2],"categories":[],"categories_nodes":[],"categories_segments":[],"categories_sizes":[],"default_left":[0,0,0,0,0,0,0,0,0,0,0,0,0,0,0,0,0,0,0,0,0,0,0],"id":16,"left_children":[1,3,5,-1,7,9,11,13,-1,15,17,19,21,-1,-1,-1,-1,-1,-1,-1,-1,-1,-1],"loss_changes":[9.278873E2,2.4526947E1,1.2077393E1,0E0,7.9642987E0,4.3668213E0,2.1795319E1,1.6594763E0,0E0,1.958435E0,9.053204E0,1.7564007E1,2.9371395E0,0E0,0E0,0E0,0E0,0E0,0E0,0E0,0E0,0E0,0E0],"parents":[2147483647,0,0,1,1,2,2,4,4,5,5,6,6,7,7,9,9,10,10,11,11,12,12],"right_children":[2,4,6,-1,8,10,12,14,-1,16,18,20,22,-1,-1,-1,-1,-1,-1,-1,-1,-1,-1],"split_conditions":[-6E-2,-4E-2,3.56E-1,1.1112986E-1,5.036103E-1,2.4855135E-2,-2E-2,2.714E-1,1.12633206E-1,6.984E1,5.54E0,-1E-2,2.66E-1,1.5373297E-2,-1.0704706E-1,-1.0255543E-1,-2.4465851E-2,1.22367255E-1,-7.759966E-2,1.7509921E-1,-6.37161E-2,4.2479478E-2,-9.532915E-2],"split_indices":[30,20,1,0,7,17,20,11,0,9,4,30,13,0,0,0,0,0,0,0,0,0,0],"split_type":[0,0,0,0,0,0,0,0,0,0,0,0,0,0,0,0,0,0,0,0,0,0,0],"sum_hessian":[9.231383E2,4.2548196E2,4.9765634E2,4.1622375E2,9.258217E0,4.6268988E2,3.4966454E1,7.7019978E0,1.5562187E0,3.969654E2,6.5724495E1,1.0921942E1,2.4044512E1,1.0236934E0,6.678304E0,3.9299548E2,3.9699051E0,1.4802451E0,6.4244255E1,6.3001933E0,4.621749E0,1.1048255E0,2.2939686E1],"tree_param":{"num_deleted":"0","num_feature":"36","num_nodes":"23","size_leaf_vector":"1"}},{"base_weights":[4.686168E-3,1.071308E0,-9.0891796E-1,1.0930457E0,-5.993443E-1,-9.738661E-1,-6.037201E-1,-2.5405663E-1,1.1025524E0,-9.2823096E-2,4.3257635E-2,-1.038445E0,-8.0590934E-1,1.7225796E-2,-8.710975E-1,4.5547817E-2,-7.2207384E-2,2.1154413E-2,1.10452E-1,-1.0433801E-1,-6.3189627E-3,-8.688172E-2,2.9940162E-2,6.769285E-2,-5.4074634E-2,4.623689E-2,-9.547543E-2],"categories":[],"categories_nodes":[],"categories_segments":[],"categories_sizes":[],"default_left":[0,0,0,0,0,0,0,0,0,0,0,0,0,0,0,0,0,0,0,0,0,0,0,0,0,0,0],"id":17,"left_children":[1,3,5,7,9,11,13,15,17,-1,-1,19,21,23,25,-1,-1,-1,-1,-1,-1,-1,-1,-1,-1,-1,-1],"loss_changes":[8.271934E2,1.4877655E1,8.475342E0,5.2357483E0,2.327923E0,3.2345276E0,1.3771971E1,1.4992616E0,4.402771E-1,0E0,0E0,1.2223816E0,7.8192215E0,9.907341E0,6.9047585E0,0E0,0E0,0E0,0E0,0E0,0E0,0E0,0E0,0E0,0E0,0E0,0E0],"parents":[2147483647,0,0,1,1,2,2,3,3,4,4,5,5,6,6,7,7,8,8,11,11,12,12,13,13,14,14],"right_children":[2,4,6,8,10,12,14,16,18,-1,-1,20,22,24,26,-1,-1,-1,-1,-1,-1,-1,-1,-1,-1,-1,-1],"split_conditions":[-6E-2,0E0,2.4404006E-2,2.4E-1,2.9514592E-2,2.9E-1,-2E-2,1.5725422E0,3.5549027E-1,-9.2823096E-2,4.3257635E-2,1.59E0,6.741E1,-1E-2,2.22E-1,4.5547817E-2,-7.2207384E-2,2.1154413E-2,1.10452E-1,-1.0433801E-1,-6.3189627E-3,-8.688172E-2,2.9940162E-2,6.769285E-2,-5.4074634E-2,4.623689E-2,-9.547543E-2],"split_indices":[30,20,17,10,27,13,20,22,7,0,0,10,0,30,13,0,0,0,0,0,0,0,0,0,0,0,0],"split_type":[0,0,0,0,0,0,0,0,0,0,0,0,0,0,0,0,0,0,0,0,0,0,0,0,0,0,0],"sum_hessian":[8.468655E2,3.9063324E2,4.5623224E2,3.8595712E2,4.6761284E0,3.7437238E2,8.185986E1,2.5244281E0,3.8343268E2,3.6221757E0,1.0539527E0,2.6665967E2,1.07712715E2,2.4920689E1,5.6939175E1,1.0139806E0,1.5104476E0,1.0839332E0,3.8234875E2,2.6524756E2,1.412103E0,1.0211489E2,5.5978236E0,1.1321653E1,1.3599035E1,3.0940375E0,5.384514E1],"tree_param":{"num_deleted":"0","num_feature":"36","num_nodes":"27","size_leaf_vector":"1"}},{"base_weights":[-2.6399645E-3,1.0783297E0,-8.3751893E-1,-1.8795764E-2,1.0843493E0,-5.488023E-1,-9.7094053E-1,1.0861452E-1,2.7119432E-2,-7.0856464E-1,3.9278018E-1,-9.811245E-1,7.744796E-2,-7.5399846E-2,1.0961809E-1,-1.5716776E-2,1.1968694E-1,-9.9519074E-2,-1.16121005E-2],"categories":[],"categories_nodes":[],"categories_segments":[],"categories_sizes":[],"default_left":[0,0,0,0,0,0,0,0,0,0,0,0,0,0,0,0,0,0,0],"id":18,"left_children":[1,3,5,-1,7,9,11,-1,-1,13,15,17,-1,-1,-1,-1,-1,-1,-1],"loss_changes":[7.133449E2,2.8293762E0,1.6646667E1,0E0,2.0626831E-1,2.1828289E1,6.158661E0,0E0,0E0,1.0898323E1,9.66209E0,3.5638428E0,0E0,0E0,0E0,0E0,0E0,0E0,0E0],"parents":[2147483647,0,0,1,1,2,2,4,4,5,5,6,6,9,9,10,10,11,11],"right_children":[2,4,6,-1,8,10,12,-1,-1,14,16,18,-1,-1,-1,-1,-1,-1,-1],"split_conditions":[-8E-2,2.2974623E-2,-1E-2,-1.8795764E-2,2E-2,2.626785E-2,2.317E1,1.0861452E-1,2.7119432E-2,3.82E-1,3.5E-2,6.5E-2,7.744796E-2,-7.5399846E-2,1.0961809E-1,-1.5716776E-2,1.1968694E-1,-9.9519074E-2,-1.16121005E-2],"split_indices":[30,12,30,0,35,17,34,0,0,1,15,15,0,0,0,0,0,0,0],"split_type":[0,0,0,0,0,0,0,0,0,0,0,0,0,0,0,0,0,0,0],"sum_hessian":[7.8842773E2,3.4345E2,4.449777E2,1.4819555E0,3.4196808E2,1.4225641E2,3.0272128E2,3.4087952E2,1.0885682E0,1.2183211E2,2.0424303E1,3.0140057E2,1.3206961E0,1.1940826E2,2.4238465E0,1.2606657E1,7.817645E0,2.964297E2,4.970881E0],"tree_param":{"num_deleted":"0","num_feature":"36","num_nodes":"19","size_leaf_vector":"1"}},{"base_weights":[1.463777E-2,1.049655E0,-8.0772954E-1,-6.1864483E-1,1.0735375E0,-9.022229E-1,-3.21748E-1,-8.650248E-2,2.0324172E-2,1.0822444E0,-7.4897446E-2,-9.1110915E-1,9.79605E-2,9.7155094E-1,-5.547071E-1,1.0839619E-1,2.8795233E-2,-6.711484E-2,5.784641E-2,-9.33749E-2,-3.7664007E-2,1.448699E-1,-2.6453942E-2,-6.79789E-2,5.2551378E-2],"categories":[],"categories_nodes":[],"categories_segments":[],"categories_sizes":[],"default_left":[0,0,0,0,0,0,0,0,0,0,0,0,0,0,0,0,0,0,0,0,0,0,0,0,0],"id":19,"left_children":[1,3,5,7,9,11,13,-1,-1,15,17,19,-1,21,23,-1,-1,-1,-1,-1,-1,-1,-1,-1,-1],"loss_changes":[6.1692645E2,1.3449982E1,1.825772E1,1.2213923E0,3.24823E0,6.537964E0,2.0816683E1,0E0,0E0,1.1682129E-1,1.6810497E0,3.720398E0,0E0,6.6565304E0,8.149076E0,0E0,0E0,0E0,0E0,0E0,0E0,0E0,0E0,0E0,0E0],"parents":[2147483647,0,0,1,1,2,2,3,3,4,4,5,5,6,6,9,9,10,10,11,11,13,13,14,14],"right_children":[2,4,6,8,10,12,14,-1,-1,16,18,20,-1,22,24,-1,-1,-1,-1,-1,-1,-1,-1,-1,-1],"split_conditions":[-6E-2,2.4855135E-2,6.2E-1,3.34E-1,1E-2,3.61E0,-4E-2,-8.650248E-2,2.0324172E-2,3.45E0,3.6E-2,3.65E-1,9.79605E-2,-1E-2,4.9E-2,1.0839619E-1,2.8795233E-2,-6.711484E-2,5.784641E-2,-9.33749E-2,-3.7664007E-2,1.448699E-1,-2.6453942E-2,-6.79789E-2,5.2551378E-2],"split_indices":[20,17,10,1,35,19,30,0,0,2,15,1,0,20,15,0,0,0,0,0,0,0,0,0,0],"split_type":[0,0,0,0,0,0,0,0,0,0,0,0,0,0,0,0,0,0,0,0,0,0,0,0,0],"sum_hessian":[7.228069E2,3.199044E2,4.0290247E2,4.1634674E0,3.157409E2,3.3659842E2,6.630407E1,3.1628435E0,1.0006237E0,3.1342233E2,2.31859E0,3.3552982E2,1.0685775E0,9.636343E0,5.666773E1,3.1238217E2,1.0401546E0,1.198044E0,1.1205459E0,3.2117783E2,1.4352007E1,6.8284616E0,2.807881E0,5.1119186E1,5.548544E0],"tree_param":{"num_deleted":"0","num_feature":"36","num_nodes":"25","size_leaf_vector":"1"}},{"base_weights":[8.45126E-3,1.035484E0,-8.1400675E-1,-1.1617116E-1,1.0739028E-1,-8.595619E-1,-1.2452195E-1,-8.961664E-2,7.1465856E-1,-6.387548E-1,-9.531061E-1,-7.640705E-1,9.118671E-1,5.3252853E-3,1.0710466E-1,-7.862779E-2,-5.2977796E-3,-9.656626E-2,5.9765298E-2,7.024212E-2,-1.0218602E-1,-2.7674196E-2,1.2887116E-1],"categories":[],"categories_nodes":[],"categories_segments":[],"categories_sizes":[],"default_left":[0,0,0,0,0,0,0,0,0,0,0,0,0,0,0,0,0,0,0,0,0,0,0],"id":20,"left_children":[1,3,5,7,-1,9,11,-1,13,15,17,19,21,-1,-1,-1,-1,-1,-1,-1,-1,-1,-1],"loss_changes":[5.6164777E2,1.3207153E1,1.149054E1,7.4110365E0,0E0,6.541687E0,1.6639818E1,0E0,1.2665982E0,9.122616E0,5.272522E0,6.5467033E0,4.6722813E0,0E0,0E0,0E0,0E0,0E0,0E0,0E0,0E0,0E0,0E0],"parents":[2147483647,0,0,1,1,2,2,3,3,5,5,6,6,8,8,9,9,10,10,11,11,12,12],"right_children":[2,4,6,8,-1,10,12,-1,14,16,18,20,22,-1,-1,-1,-1,-1,-1,-1,-1,-1,-1],"split_conditions":[-6E-2,7.2E-1,4.9E-2,2.7E-2,1.0739028E-1,-1E-2,6.1E-1,-8.961664E-2,6.693E1,5.4E-1,2.317E1,-3E-2,4.0331405E-1,5.3252853E-3,1.0710466E-1,-7.862779E-2,-5.2977796E-3,-9.656626E-2,5.9765298E-2,7.024212E-2,-1.0218602E-1,-2.7674196E-2,1.2887116E-1],"split_indices":[30,10,15,15,0,30,10,0,0,10,34,35,7,0,0,0,0,0,0,0,0,0,0],"split_type":[0,0,0,0,0,0,0,0,0,0,0,0,0,0,0,0,0,0,0,0,0,0,0],"sum_hessian":[6.6291693E2,2.946802E2,3.682367E2,9.447734E0,2.8523248E2,3.4518332E2,2.3053381E1,4.8323817E0,4.615352E0,1.0504869E2,2.4013463E2,1.441855E1,8.63483E0,2.0185792E0,2.596773E0,8.3641884E1,2.1406803E1,2.3858015E2,1.554482E0,1.8977888E0,1.2520761E1,2.1425679E0,6.4922624E0],"tree_param":{"num_deleted":"0","num_feature":"36","num_nodes":"23","size_leaf_vector":"1"}},{"base_weights":[-8.001468E-3,1.0231487E0,-8.031197E-1,-3.928446E-1,1.0650386E-1,-8.4444636E-1,-3.4798644E-2,-6.748269E-1,7.665524E-2,-9.04668E-1,-4.7681513E-1,-9.164075E-1,9.365132E-1,4.2788178E-2,-9.734331E-2,-9.145819E-2,3.6064473E-3,5.5863243E-2,-6.2424213E-2,-1.3724476E-2,-9.8525904E-2,-5.2720148E-2,2.0164831E-1],"categories":[],"categories_nodes":[],"categories_segments":[],"categories_sizes":[],"default_left":[0,0,0,0,0,0,0,0,0,0,0,0,0,0,0,0,0,0,0,0,0,0,0],"id":21,"left_children":[1,3,5,7,-1,9,11,13,-1,15,17,19,21,-1,-1,-1,-1,-1,-1,-1,-1,-1,-1],"loss_changes":[5.082017E2,1.6425995E1,1.1082962E1,3.2912345E0,0E0,6.920349E0,1.7048178E1,2.8389084E0,0E0,2.6836395E0,7.8063745E0,4.2357922E-1,1.606485E1,0E0,0E0,0E0,0E0,0E0,0E0,0E0,0E0,0E0,0E0],"parents":[2147483647,0,0,1,1,2,2,3,3,5,5,6,6,7,7,9,9,10,10,11,11,12,12],"right_children":[2,4,6,8,-1,10,12,14,-1,16,18,20,22,-1,-1,-1,-1,-1,-1,-1,-1,-1,-1],"split_conditions":[-6E-2,2.5033312E-2,3.65E-1,3.73E-1,1.0650386E-1,2.5033312E-2,2.2263E1,2.44E-1,7.665524E-2,3.2357209E0,-3E-2,1.4459138E0,1.4E-1,4.2788178E-2,-9.734331E-2,-9.145819E-2,3.6064473E-3,5.5863243E-2,-6.2424213E-2,-1.3724476E-2,-9.8525904E-2,-5.2720148E-2,2.0164831E-1],"split_indices":[30,17,1,1,0,17,31,13,0,22,35,22,10,0,0,0,0,0,0,0,0,0,0],"split_type":[0,0,0,0,0,0,0,0,0,0,0,0,0,0,0,0,0,0,0,0,0,0,0],"sum_hessian":[6.178419E2,2.6887033E2,3.4897162E2,7.484842E0,2.613855E2,3.3106512E2,1.7906487E1,6.3567395E0,1.1281022E0,2.832115E2,4.785364E1,9.416316E0,8.490171E0,1.2623043E0,5.094435E0,2.802855E2,2.9259832E0,5.616584E0,4.223706E1,1.0075585E0,8.408757E0,3.8219745E0,4.6681967E0],"tree_param":{"num_deleted":"0","num_feature":"36","num_nodes":"23","size_leaf_vector":"1"}},{"base_weights":[-1.3646361E-2,1.0145591E0,-7.9099244E-1,1.0442723E0,-6.9176155E-1,-8.316332E-1,-8.943354E-2,-2.5675157E-1,1.0564777E0,-4.830289E-3,-8.511886E-2,-8.4124213E-1,1.04850486E-1,9.6677506E-1,-5.3659874E-1,2.4588406E-2,-6.233684E-2,-1.3586498E-2,1.0626455E-1,-9.1415524E-2,-5.529193E-2,2.4125047E-1,1.0131278E-2,-8.6952716E-2,9.417984E-2],"categories":[],"categories_nodes":[],"categories_segments":[],"categories_sizes":[],"default_left":[0,0,0,0,0,0,0,0,0,0,0,0,0,0,0,0,0,0,0,0,0,0,0,0,0],"id":22,"left_children":[1,3,5,7,9,11,13,15,17,-1,-1,19,-1,21,23,-1,-1,-1,-1,-1,-1,-1,-1,-1,-1],"loss_changes":[4.580842E2,1.323291E1,9.231018E0,4.128845E0,4.5384336E-1,6.4532166E0,9.488444E0,7.175811E-1,1.915741E0,0E0,0E0,5.956085E0,0E0,7.2701592E0,7.70269E0,0E0,0E0,0E0,0E0,0E0,0E0,0E0,0E0,0E0,0E0],"parents":[2147483647,0,0,1,1,2,2,3,3,4,4,5,5,6,6,7,7,8,8,11,11,13,13,14,14],"right_children":[2,4,6,8,10,12,14,16,18,-1,-1,20,-1,22,24,-1,-1,-1,-1,-1,-1,-1,-1,-1,-1],"split_conditions":[-6E-2,0E0,2.8067378E-2,2.4E-1,1.7062304E0,3.61E0,-2E-2,1E-2,2.0027759E-2,-4.830289E-3,-8.511886E-2,5.2E-1,1.04850486E-1,1.7038845E-2,8.8E-1,2.4588406E-2,-6.233684E-2,-1.3586498E-2,1.0626455E-1,-9.1415524E-2,-5.529193E-2,2.4125047E-1,1.0131278E-2,-8.6952716E-2,9.417984E-2],"split_indices":[30,20,17,10,22,19,35,35,17,0,0,10,0,12,10,0,0,0,0,0,0,0,0,0,0],"split_type":[0,0,0,0,0,0,0,0,0,0,0,0,0,0,0,0,0,0,0,0,0,0,0,0,0],"sum_hessian":[5.7112305E2,2.4575485E2,3.2536823E2,2.4192998E2,3.8248773E0,3.073767E2,1.7991486E1,2.0623024E0,2.3986768E2,1.0182254E0,2.8066518E0,3.0636353E2,1.013185E0,5.005779E0,1.2985707E1,1.0086914E0,1.0536108E0,1.1262013E0,2.3874149E2,2.4279358E2,6.356996E1,1.205123E0,3.8006558E0,1.0935032E1,2.0506754E0],"tree_param":{"num_deleted":"0","num_feature":"36","num_nodes":"25","size_leaf_vector":"1"}},{"base_weights":[6.2678885E-3,1.0278114E0,-7.158175E-1,-3.9272908E-2,1.0408973E0,-3.9811254E-1,-8.6962974E-1,1.0490544E-1,1.5317927E-1,-6.011838E-1,2.565486E-1,5.571404E-2,-8.840177E-1,-3.745956E-2,5.7464577E-2,5.189011E-3,-6.754071E-2,-5.270015E-2,8.625799E-2,-8.9863755E-2,5.1730104E-2],"categories":[],"categories_nodes":[],"categories_segments":[],"categories_sizes":[],"default_left":[0,0,0,0,0,0,0,0,0,0,0,0,0,0,0,0,0,0,0,0,0],"id":23,"left_children":[1,3,5,-1,7,9,11,-1,13,15,17,-1,19,-1,-1,-1,-1,-1,-1,-1,-1],"loss_changes":[3.886453E2,4.464752E0,1.4738358E1,0E0,1.4068451E0,1.3786207E1,4.744919E0,0E0,9.1416657E-1,3.843237E0,1.231536E1,0E0,4.6742096E0,0E0,0E0,0E0,0E0,0E0,0E0,0E0,0E0],"parents":[2147483647,0,0,1,1,2,2,4,4,5,5,6,6,8,8,9,9,10,10,12,12],"right_children":[2,4,6,-1,8,10,12,-1,14,16,18,-1,20,-1,-1,-1,-1,-1,-1,-1,-1],"split_conditions":[-7E-2,8E-2,-1E-2,-3.9272908E-2,2.188E2,5.4E-1,5.54E0,1.0490544E-1,3.299E-1,2.92E-1,2.0615527E-2,5.571404E-2,6.984E1,-3.745956E-2,5.7464577E-2,5.189011E-3,-6.754071E-2,-5.270015E-2,8.625799E-2,-8.9863755E-2,5.1730104E-2],"split_indices":[30,10,30,0,3,10,4,0,11,14,27,0,9,0,0,0,0,0,0,0,0],"split_type":[0,0,0,0,0,0,0,0,0,0,0,0,0,0,0,0,0,0,0,0,0],"sum_hessian":[5.248781E2,2.1719133E2,3.0768677E2,1.7176671E0,2.1547366E2,1.0154012E2,2.0614665E2,2.1333165E2,2.1420102E0,7.7562485E1,2.3977642E1,1.6814845E0,2.0446516E2,1.0004373E0,1.1415728E0,7.946246E0,6.9616234E1,1.0514123E1,1.3463519E1,2.0270905E2,1.756125E0],"tree_param":{"num_deleted":"0","num_feature":"36","num_nodes":"21","size_leaf_vector":"1"}},{"base_weights":[2.193958E-3,1.0229203E0,-7.0668495E-1,1.0381595E0,-2.135421E-1,-8.0207443E-1,-2.4856399E-1,-6.327852E-3,1.045199E-1,-6.480243E-2,3.7106086E-2,-1.0041258E0,-6.572248E-1,4.8798367E-1,-6.192048E-1,-1.0196974E-1,-2.2383854E-2,2.8013682E-2,-7.272948E-2,-2.5937182E-3,1.3153256E-1,1.5894493E-1,-7.436197E-2],"categories":[],"categories_nodes":[],"categories_segments":[],"categories_sizes":[],"default_left":[0,0,0,0,0,0,0,0,0,0,0,0,0,0,0,0,0,0,0,0,0,0,0],"id":24,"left_children":[1,3,5,7,9,11,13,-1,-1,-1,-1,15,17,19,21,-1,-1,-1,-1,-1,-1,-1,-1],"loss_changes":[3.5738776E2,4.0361023E0,1.2538727E1,1.6179199E0,1.0771295E0,6.3877716E0,1.4411373E1,0E0,0E0,0E0,0E0,9.7045135E-1,9.606071E0,7.628243E0,1.0750801E1,0E0,0E0,0E0,0E0,0E0,0E0,0E0,0E0],"parents":[2147483647,0,0,1,1,2,2,3,3,4,4,5,5,6,6,11,11,12,12,13,13,14,14],"right_children":[2,4,6,8,10,12,14,-1,-1,-1,-1,16,18,20,22,-1,-1,-1,-1,-1,-1,-1,-1],"split_conditions":[-7E-2,0E0,2.4855135E-2,2.1108188E-2,6.678E1,3.3E-1,-2E-2,-6.327852E-3,1.045199E-1,-6.480243E-2,3.7106086E-2,3.0267143E0,2.59E-1,2.256E1,5.54E0,-1.0196974E-1,-2.2383854E-2,2.8013682E-2,-7.272948E-2,-2.5937182E-3,1.3153256E-1,1.5894493E-1,-7.436197E-2],"split_indices":[30,20,17,17,0,14,20,0,0,0,0,22,13,34,4,0,0,0,0,0,0,0,0],"split_type":[0,0,0,0,0,0,0,0,0,0,0,0,0,0,0,0,0,0,0,0,0,0,0],"sum_hessian":[4.919229E2,2.0143309E2,2.904898E2,1.991391E2,2.2939932E0,2.398067E2,5.068311E1,1.2139168E0,1.9792519E2,1.2537262E0,1.040267E0,9.765505E1,1.4215164E2,1.6860622E1,3.3822487E1,9.544353E1,2.2115183E0,9.678569E0,1.3247308E2,1.0997773E1,5.8628483E0,1.1756994E0,3.2646786E1],"tree_param":{"num_deleted":"0","num_feature":"36","num_nodes":"23","size_leaf_vector":"1"}},{"base_weights":[6.0465117E-3,1.0090133E0,-6.79976E-1,-3.086832E-1,1.0358862E0,-7.416251E-1,-1.6646981E-2,-7.7779464E-2,5.9311528E-2,2.521416E-3,1.0447397E0,-7.576415E-1,1.4812186E-1,-8.768588E-1,6.3453E-1,1.0487624E-1,1.7460737E-2,-8.2968704E-2,-4.302346E-2,-9.623113E-2,-4.9245036E-3,6.4141126E-3,1.3926373E-1],"categories":[],"categories_nodes":[],"categories_segments":[],"categories_sizes":[],"default_left":[0,0,0,0,0,0,0,0,0,0,0,0,0,0,0,0,0,0,0,0,0,0,0],"id":25,"left_children":[1,3,5,7,9,11,13,-1,-1,-1,15,17,-1,19,21,-1,-1,-1,-1,-1,-1,-1,-1],"loss_changes":[3.1379623E2,6.8790894E0,1.1062714E1,2.3534381E0,1.6000671E0,9.943466E0,1.4029627E1,0E0,0E0,0E0,4.474945E-1,5.4613953E0,0E0,7.151995E-1,6.0812283E0,0E0,0E0,0E0,0E0,0E0,0E0,0E0,0E0],"parents":[2147483647,0,0,1,1,2,2,3,3,4,4,5,5,6,6,10,10,11,11,13,13,14,14],"right_children":[2,4,6,8,10,12,14,-1,-1,-1,16,18,-1,20,22,-1,-1,-1,-1,-1,-1,-1,-1],"split_conditions":[-6E-2,3.978777E-1,3.56E-1,2.4698177E-2,2.3687784E-2,3.61E0,2.2263E1,-7.7779464E-2,5.9311528E-2,2.521416E-3,3.39E0,4.6530277E-1,1.4812186E-1,2.9005937E-2,6.611E1,1.0487624E-1,1.7460737E-2,-8.2968704E-2,-4.302346E-2,-9.623113E-2,-4.9245036E-3,6.4141126E-3,1.3926373E-1],"split_indices":[20,7,1,27,17,19,31,0,0,0,2,7,0,12,9,0,0,0,0,0,0,0,0],"split_type":[0,0,0,0,0,0,0,0,0,0,0,0,0,0,0,0,0,0,0,0,0,0,0],"sum_hessian":[4.5406372E2,1.8423737E2,2.6982635E2,3.472623E0,1.8076474E2,2.4677345E2,2.3052898E1,2.3747804E0,1.0978426E0,1.6031637E0,1.7916158E2,2.4566252E2,1.1109345E0,9.782947E0,1.3269952E1,1.7813275E2,1.0288303E0,2.0009723E2,4.556529E1,8.719852E0,1.063094E0,8.191439E0,5.0785127E0],"tree_param":{"num_deleted":"0","num_feature":"36","num_nodes":"23","size_leaf_vector":"1"}},{"base_weights":[1.6849333E-2,1.0225295E0,-6.177613E-1,-4.8046317E-2,1.0384735E0,-7.719794E-1,-1.292475E-1,1.04315996E-1,1.6838612E-2,-8.247246E-1,-3.321529E-1,-4.6746096E-1,8.2873034E-1,2.9366566E-2,-8.409319E-2,5.8374185E-2,-6.711843E-2,-7.229635E-2,7.433911E-2,-1.4032935E-2,1.3557398E-1],"categories":[],"categories_nodes":[],"categories_segments":[],"categories_sizes":[],"default_left":[0,0,0,0,0,0,0,0,0,0,0,0,0,0,0,0,0,0,0,0,0],"id":26,"left_children":[1,3,5,-1,7,9,11,-1,-1,13,15,17,19,-1,-1,-1,-1,-1,-1,-1,-1],"loss_changes":[2.6809958E2,4.3934326E0,1.9304977E1,0E0,4.8136902E-1,4.2629776E0,2.080041E1,0E0,0E0,3.4000168E0,7.4144325E0,1.5140917E1,8.770027E0,0E0,0E0,0E0,0E0,0E0,0E0,0E0,0E0],"parents":[2147483647,0,0,1,1,2,2,4,4,5,5,6,6,9,9,10,10,11,11,12,12],"right_children":[2,4,6,-1,8,10,12,-1,-1,14,16,18,20,-1,-1,-1,-1,-1,-1,-1,-1],"split_conditions":[-7E-2,4.0331405E-1,2.6E-2,-4.8046317E-2,3.435E0,2.592725E-2,4.6530277E-1,1.04315996E-1,1.6838612E-2,6.066E1,2.883E-1,2.5841396E-2,2.6E-1,2.9366566E-2,-8.409319E-2,5.8374185E-2,-6.711843E-2,-7.229635E-2,7.433911E-2,-1.4032935E-2,1.3557398E-1],"split_indices":[20,7,15,0,16,17,7,0,0,8,11,17,10,0,0,0,0,0,0,0,0],"split_type":[0,0,0,0,0,0,0,0,0,0,0,0,0,0,0,0,0,0,0,0,0],"sum_hessian":[4.1808725E2,1.615169E2,2.5657034E2,1.3895968E0,1.6012732E2,1.9456741E2,6.2002926E1,1.5907161E2,1.0557095E0,1.7295149E2,2.1615934E1,4.6203014E1,1.5799911E1,2.225999E0,1.7072548E2,5.6447706E0,1.5971165E1,3.848517E1,7.7178473E0,5.824185E0,9.975726E0],"tree_param":{"num_deleted":"0","num_feature":"36","num_nodes":"21","size_leaf_vector":"1"}},{"base_weights":[1.512612E-2,9.9170893E-1,-6.1513907E-1,-2.6860237E-1,1.0322181E0,-7.626796E-1,-1.5461643E-1,-7.993337E-2,4.425346E-1,1.0377289E-1,2.1783022E-2,-8.836152E-1,-4.8806605E-1,2.2843693E-1,-7.4821806E-1,6.8445983E-3,6.0543843E-2,-9.3590625E-2,-4.148833E-2,-5.882116E-2,4.5578867E-2,-4.737184E-2,8.514191E-2,-8.6487405E-2,3.134861E-2],"categories":[],"categories_nodes":[],"categories_segments":[],"categories_sizes":[],"default_left":[0,0,0,0,0,0,0,0,0,0,0,0,0,0,0,0,0,0,0,0,0,0,0,0,0],"id":27,"left_children":[1,3,5,7,9,11,13,-1,15,-1,-1,17,19,21,23,-1,-1,-1,-1,-1,-1,-1,-1,-1,-1],"loss_changes":[2.4486113E2,8.243439E0,1.6311058E1,2.4871535E0,4.5335388E-1,5.642021E0,1.3796412E1,0E0,1.4500028E-1,0E0,0E0,2.6933212E0,5.764167E0,1.6670092E1,3.210991E0,0E0,0E0,0E0,0E0,0E0,0E0,0E0,0E0,0E0,0E0],"parents":[2147483647,0,0,1,1,2,2,3,3,4,4,5,5,6,6,8,8,11,11,12,12,13,13,14,14],"right_children":[2,4,6,8,10,12,14,-1,16,-1,-1,18,20,22,24,-1,-1,-1,-1,-1,-1,-1,-1,-1,-1],"split_conditions":[-6E-2,2.4494898E-2,5E-1,5.4E-1,1E-2,1.6E-2,1E-2,-7.993337E-2,2.937E-1,1.0377289E-1,2.1783022E-2,2.626785E-2,6.67E1,2.0575065E-2,2.227E2,6.8445983E-3,6.0543843E-2,-9.3590625E-2,-4.148833E-2,-5.882116E-2,4.5578867E-2,-4.737184E-2,8.514191E-2,-8.6487405E-2,3.134861E-2],"split_indices":[20,27,10,10,35,15,20,0,11,0,0,17,8,27,23,0,0,0,0,0,0,0,0,0,0],"split_type":[0,0,0,0,0,0,0,0,0,0,0,0,0,0,0,0,0,0,0,0,0,0,0,0,0],"sum_hessian":[3.9582965E2,1.5503407E2,2.4079558E2,4.652604E0,1.5038147E2,1.8187198E2,5.892359E1,2.5932236E0,2.0593803E0,1.4909831E2,1.2831641E0,1.247266E2,5.714538E1,3.618709E1,2.27365E1,1.0555656E0,1.0038148E0,1.1131212E2,1.3414486E1,5.200437E1,5.141006E0,1.7125149E1,1.9061943E1,2.0652655E1,2.0838435E0],"tree_param":{"num_deleted":"0","num_feature":"36","num_nodes":"25","size_leaf_vector":"1"}},{"base_weights":[-2.263949E-3,9.841354E-1,-6.1990565E-1,-6.958848E-2,1.0099264E0,-8.0427104E-1,-2.4807915E-1,-1.742183E-2,1.0277319E0,-8.226613E-1,2.7714518E-1,-5.2293986E-1,5.296038E-1,8.8082375E-3,1.0353986E-1,-8.3781384E-2,4.44687E-2,1.12080865E-1,-5.9289098E-2,-6.791382E-2,6.332605E-2,1.0890477E-1,-3.813531E-2],"categories":[],"categories_nodes":[],"categories_segments":[],"categories_sizes":[],"default_left":[0,0,0,0,0,0,0,0,0,0,0,0,0,0,0,0,0,0,0,0,0,0,0],"id":28,"left_children":[1,3,5,-1,7,9,11,-1,13,15,17,19,21,-1,-1,-1,-1,-1,-1,-1,-1,-1,-1],"loss_changes":[2.2326949E2,6.817093E0,1.5249207E1,0E0,3.1179047E0,3.2153091E0,1.6553768E1,0E0,8.990936E-1,3.2137527E0,3.0572188E0,1.0681698E1,1.0802519E1,0E0,0E0,0E0,0E0,0E0,0E0,0E0,0E0,0E0,0E0],"parents":[2147483647,0,0,1,1,2,2,4,4,5,5,6,6,8,8,9,9,10,10,11,11,12,12],"right_children":[2,4,6,-1,8,10,12,-1,14,16,18,20,22,-1,-1,-1,-1,-1,-1,-1,-1,-1,-1],"split_conditions":[-6E-2,1.7720358E-2,1.7E-2,-6.958848E-2,1.9E-1,3.7E-1,2.4517568E-2,-1.742183E-2,3.5549027E-1,6.3464427E-1,6.458E1,6.741E1,0E0,8.8082375E-3,1.0353986E-1,-8.3781384E-2,4.44687E-2,1.12080865E-1,-5.9289098E-2,-6.791382E-2,6.332605E-2,1.0890477E-1,-3.813531E-2],"split_indices":[30,12,15,0,10,1,17,0,7,7,8,0,20,0,0,0,0,0,0,0,0,0,0],"split_type":[0,0,0,0,0,0,0,0,0,0,0,0,0,0,0,0,0,0,0,0,0,0,0],"sum_hessian":[3.6446994E2,1.4011197E2,2.2435799E2,1.7255988E0,1.3838637E2,1.4921072E2,7.5147255E1,1.9198962E0,1.3646648E2,1.46951E2,2.2597325E0,5.576536E1,1.938189E1,1.2055019E0,1.3526097E2,1.4554971E2,1.4012787E0,1.0009202E0,1.2588123E0,4.9491817E1,6.2735453E0,1.18865385E1,7.4953513E0],"tree_param":{"num_deleted":"0","num_feature":"36","num_nodes":"23","size_leaf_vector":"1"}},{"base_weights":[9.441677E-3,9.882483E-1,-5.827402E-1,1.030983E0,-2.188889E-1,-2.6853997E-1,-7.502965E-1,3.2894444E-2,1.0366364E-1,7.4721485E-2,-7.52783E-2,2.1313184E-1,-5.44176E-1,-8.6017275E-1,-3.6958477E-1,-1.2914698E-2,1.2914504E-1,8.252817E-3,-7.768815E-2,-8.740824E-2,2.6345903E-2,-4.9054813E-2,1.1051684E-1],"categories":[],"categories_nodes":[],"categories_segments":[],"categories_sizes":[],"default_left":[0,0,0,0,0,0,0,0,0,0,0,0,0,0,0,0,0,0,0,0,0,0,0],"id":29,"left_children":[1,3,5,7,9,11,13,-1,-1,-1,-1,15,17,19,21,-1,-1,-1,-1,-1,-1,-1,-1],"loss_changes":[1.9608006E2,6.803589E0,1.0895203E1,1.4848328E-1,3.2367253E0,1.0055742E1,5.4092636E0,0E0,0E0,0E0,0E0,1.0489254E1,7.04959E0,1.8790894E0,6.3250866E0,0E0,0E0,0E0,0E0,0E0,0E0,0E0,0E0],"parents":[2147483647,0,0,1,1,2,2,3,3,4,4,5,5,6,6,11,11,12,12,13,13,14,14],"right_children":[2,4,6,8,10,12,14,-1,-1,-1,-1,16,18,20,22,-1,-1,-1,-1,-1,-1,-1,-1],"split_conditions":[-6E-2,-4E-2,-1E-2,2.51E-1,2.812E-1,-1E-2,2.6E-2,3.2894444E-2,1.0366364E-1,7.4721485E-2,-7.52783E-2,3.49E-1,-1.6E0,6.984E1,2.274E1,-1.2914698E-2,1.2914504E-1,8.252817E-3,-7.768815E-2,-8.740824E-2,2.6345903E-2,-4.9054813E-2,1.1051684E-1],"split_indices":[20,30,30,13,11,20,15,0,0,0,0,1,25,9,33,0,0,0,0,0,0,0,0],"split_type":[0,0,0,0,0,0,0,0,0,0,0,0,0,0,0,0,0,0,0,0,0,0,0],"sum_hessian":[3.3629044E2,1.2651209E2,2.0977835E2,1.2232742E2,4.184665E0,7.386671E1,1.3591164E2,1.4500145E0,1.2087741E2,1.3472333E0,2.8374321E0,2.6967674E1,4.6899033E1,1.04494385E2,3.1417255E1,2.1138231E1,5.829444E0,1.2873767E1,3.4025265E1,1.0343602E2,1.0583622E0,2.9652449E1,1.7648065E0],"tree_param":{"num_deleted":"0","num_feature":"36","num_nodes":"23","size_leaf_vector":"1"}},{"base_weights":[-2.16847E-3,-6.0165614E-1,9.1722924E-1,-3.0409494E-1,-7.5988233E-1,-1.3935216E-1,1.0224961E0,-5.269601E-1,2.8977937E-1,-8.4479797E-1,-3.3669785E-1,1.4518191E-1,-5.944618E-1,1.0398333E0,-2.7082566E-2,9.386275E-2,-5.9025288E-2,-5.6567546E-2,8.6268745E-2,1.1544866E-3,-8.7181605E-2,-5.8706224E-2,1.4386523E-1,-7.941093E-2,4.9051683E-2,2.2604926E-1,1.0082658E-1],"categories":[],"categories_nodes":[],"categories_segments":[],"categories_sizes":[],"default_left":[0,0,0,0,0,0,0,0,0,0,0,0,0,0,0,0,0,0,0,0,0,0,0,0,0,0,0],"id":30,"left_children":[1,3,5,7,9,11,13,15,17,19,21,-1,23,25,-1,-1,-1,-1,-1,-1,-1,-1,-1,-1,-1,-1,-1],"loss_changes":[1.7494518E2,8.814713E0,1.4076355E1,9.201001E0,4.1989517E0,9.719977E0,2.838852E0,5.1980724E0,9.9468355E0,2.398941E0,1.0851576E1,0E0,2.6033025E0,2.0653E0,0E0,0E0,0E0,0E0,0E0,0E0,0E0,0E0,0E0,0E0,0E0,0E0,0E0],"parents":[2147483647,0,0,1,1,2,2,3,3,4,4,5,5,6,6,7,7,8,8,9,9,10,10,12,12,13,13],"right_children":[2,4,6,8,10,12,14,16,18,20,22,-1,24,26,-1,-1,-1,-1,-1,-1,-1,-1,-1,-1,-1,-1,-1],"split_conditions":[2.7668675E-2,-1E-2,2.3309512E-2,5.4E-1,2.412836E0,3.11E-1,2E-2,-6E-2,2.0615527E-2,1.931E2,6.549E0,1.4518191E-1,2.6352314E-2,2.4494898E-2,-2.7082566E-2,9.386275E-2,-5.9025288E-2,-5.6567546E-2,8.6268745E-2,1.1544866E-3,-8.7181605E-2,-5.8706224E-2,1.4386523E-1,-7.941093E-2,4.9051683E-2,2.2604926E-1,1.0082658E-1],"split_indices":[17,30,27,10,22,14,35,20,27,24,26,0,32,27,0,0,0,0,0,0,0,0,0,0,0,0,0],"split_type":[0,0,0,0,0,0,0,0,0,0,0,0,0,0,0,0,0,0,0,0,0,0,0,0,0,0,0],"sum_hessian":[3.154071E2,1.9112852E2,1.2427858E2,6.736444E1,1.2376408E2,1.1230665E1,1.1304791E2,4.9064518E1,1.8299925E1,1.0225037E2,2.1513714E1,2.0107086E0,9.219956E0,1.1174594E2,1.3019749E0,1.4586475E0,4.760587E1,7.3450565E0,1.0954867E1,3.1448998E0,9.910547E1,1.9441368E1,2.0723455E0,8.013479E0,1.206477E0,1.0370549E0,1.10708885E2],"tree_param":{"num_deleted":"0","num_feature":"36","num_nodes":"27","size_leaf_vector":"1"}},{"base_weights":[3.577854E-2,-5.1428246E-1,9.534509E-1,-6.516999E-1,-3.1983018E-2,-5.887616E-1,1.0272824E0,-7.538284E-1,-2.6234543E-1,-6.2574977E-1,4.9871624E-1,-8.399075E-2,2.9713253E-2,1.0543802E0,-6.1142128E-2,-8.188195E-2,1.0481281E-2,1.19044065E-1,-5.0713938E-2,7.226489E-2,-7.409587E-2,8.511753E-2,-8.6675845E-2,2.4862836E-1,1.0028701E-1],"categories":[],"categories_nodes":[],"categories_segments":[],"categories_sizes":[],"default_left":[0,0,0,0,0,0,0,0,0,0,0,0,0,0,0,0,0,0,0,0,0,0,0,0,0],"id":31,"left_children":[1,3,5,7,9,11,13,15,17,19,21,-1,-1,23,-1,-1,-1,-1,-1,-1,-1,-1,-1,-1,-1],"loss_changes":[1.509256E2,1.2371727E1,1.336219E1,5.5867233E0,1.3708639E1,1.5298568E0,5.408737E0,6.4869843E0,1.18993E1,3.721343E0,1.1809744E1,0E0,0E0,5.3180923E0,0E0,0E0,0E0,0E0,0E0,0E0,0E0,0E0,0E0,0E0,0E0],"parents":[2147483647,0,0,1,1,2,2,3,3,4,4,5,5,6,6,7,7,8,8,9,9,10,10,13,13],"right_children":[2,4,6,8,10,12,14,16,18,20,22,-1,-1,24,-1,-1,-1,-1,-1,-1,-1,-1,-1,-1,-1],"split_conditions":[3.66E-1,5.8E-1,1.4E-1,2.4404006E-2,2.0575065E-2,2.2236107E-2,1E-2,6.796E1,2.218E1,2.2E1,2E-2,-8.399075E-2,2.9713253E-2,2.013841E-2,-6.1142128E-2,-8.188195E-2,1.0481281E-2,1.19044065E-1,-5.0713938E-2,7.226489E-2,-7.409587E-2,8.511753E-2,-8.6675845E-2,2.4862836E-1,1.0028701E-1],"split_indices":[1,10,10,17,27,32,30,9,33,5,20,0,0,17,0,0,0,0,0,0,0,0,0,0,0],"split_type":[0,0,0,0,0,0,0,0,0,0,0,0,0,0,0,0,0,0,0,0,0,0,0,0,0],"sum_hessian":[2.9702393E2,1.8598338E2,1.1104053E2,1.4446967E2,4.1513725E1,4.7544184E0,1.062861E2,1.1370778E2,3.0761887E1,1.950815E1,2.2005575E1,3.7447217E0,1.009697E0,1.04907906E2,1.378197E0,1.0574988E2,7.957895E0,3.8788602E0,2.6883026E1,1.1205689E0,1.8387583E1,1.7790184E1,4.2153916E0,2.0014977E0,1.0290641E2],"tree_param":{"num_deleted":"0","num_feature":"36","num_nodes":"25","size_leaf_vector":"1"}},{"base_weights":[2.321766E-2,9.9955153E-1,-4.6883884E-1,-3.375065E-2,1.0197037E-1,-6.6171557E-1,5.6914873E-2,-1.3131793E-1,-7.2713196E-1,-2.1396321E-1,8.452834E-1,1.13632575E-1,-6.7387596E-2,5.4166384E-2,-7.504632E-2,-5.509702E-2,5.8933385E-2,1.3165675E-1,-1.324333E-2],"categories":[],"categories_nodes":[],"categories_segments":[],"categories_sizes":[],"default_left":[0,0,0,0,0,0,0,0,0,0,0,0,0,0,0,0,0,0,0],"id":32,"left_children":[1,3,5,-1,-1,7,9,11,13,15,17,-1,-1,-1,-1,-1,-1,-1,-1],"loss_changes":[1.3429085E2,2.8678665E0,1.8888344E1,0E0,0E0,4.626045E0,1.1032224E1,1.1880856E1,3.9860077E0,1.0779053E1,6.255048E0,0E0,0E0,0E0,0E0,0E0,0E0,0E0,0E0],"parents":[2147483647,0,0,1,1,2,2,5,5,6,6,7,7,8,8,9,9,10,10],"right_children":[2,4,6,-1,-1,8,10,12,14,16,18,-1,-1,-1,-1,-1,-1,-1,-1],"split_conditions":[-7E-2,4.0331405E-1,2.6E-2,-3.375065E-2,1.0197037E-1,2.36E-1,4.721817E-1,6.489E1,2.2E1,2.4404006E-2,2.244E1,1.13632575E-1,-6.7387596E-2,5.4166384E-2,-7.504632E-2,-5.509702E-2,5.8933385E-2,1.3165675E-1,-1.324333E-2],"split_indices":[20,7,15,0,0,13,7,8,34,17,5,0,0,0,0,0,0,0,0],"split_type":[0,0,0,0,0,0,0,0,0,0,0,0,0,0,0,0,0,0,0],"sum_hessian":[2.775575E2,9.26637E1,1.848938E2,1.1420567E0,9.1521645E1,1.3508006E2,4.9813744E1,1.5161084E1,1.19918976E2,3.7617294E1,1.2196448E1,4.2161045E0,1.094498E1,1.7641641E0,1.18154816E2,2.672111E1,1.0896185E1,7.9957304E0,4.200718E0],"tree_param":{"num_deleted":"0","num_feature":"36","num_nodes":"19","size_leaf_vector":"1"}},{"base_weights":[-3.338328E-3,9.943541E-1,-4.8061132E-1,1.0068716E-1,9.2899066E-4,-6.3958895E-1,8.153641E-2,8.014034E-2,-7.076881E-1,1.0546286E0,-1.556485E-1,-3.734573E-2,1.4154086E-1,-8.406504E-2,-4.5363974E-2,-2.59998E-2,1.3139091E-1,1.0599184E-1,-3.817829E-2],"categories":[],"categories_nodes":[],"categories_segments":[],"categories_sizes":[],"default_left":[0,0,0,0,0,0,0,0,0,0,0,0,0,0,0,0,0,0,0],"id":33,"left_children":[1,3,5,-1,-1,7,9,11,13,15,17,-1,-1,-1,-1,-1,-1,-1,-1],"loss_changes":[1.2620706E2,1.0481796E0,1.6073914E1,0E0,0E0,6.9119987E0,9.490855E0,8.395227E0,3.9382324E0,3.084813E0,9.575225E0,0E0,0E0,0E0,0E0,0E0,0E0,0E0,0E0],"parents":[2147483647,0,0,1,1,2,2,5,5,6,6,7,7,8,8,9,9,10,10],"right_children":[2,4,6,-1,-1,8,10,12,14,16,18,-1,-1,-1,-1,-1,-1,-1,-1],"split_conditions":[-8E-2,1E-2,6.2E-1,1.0068716E-1,9.2899066E-4,-4E-2,-4E-2,2.412836E0,1.6E-2,2.229E1,-3E-2,-3.734573E-2,1.4154086E-1,-8.406504E-2,-4.5363974E-2,-2.59998E-2,1.3139091E-1,1.0599184E-1,-3.817829E-2],"split_indices":[30,35,10,0,0,20,30,22,15,34,35,0,0,0,0,0,0,0,0],"split_type":[0,0,0,0,0,0,0,0,0,0,0,0,0,0,0,0,0,0,0],"sum_hessian":[2.630417E2,8.4765114E1,1.7827658E2,8.367963E1,1.085481E0,1.3886673E2,3.940984E1,1.1988219E1,1.2687852E2,7.0479517E0,3.2361885E1,9.486066E0,2.5021536E0,8.1772095E1,4.510642E1,1.1606009E0,5.887351E0,4.497709E0,2.7864178E1],"tree_param":{"num_deleted":"0","num_feature":"36","num_nodes":"19","size_leaf_vector":"1"}},{"base_weights":[1.5658908E-2,9.8483294E-1,-4.4944718E-1,-3.814238E-3,1.0035801E0,-6.196373E-1,-1.03611685E-2,1.0115782E-1,2.2024063E-2,-7.6725423E-1,-3.2348996E-1,4.9167714E-1,-4.017573E-1,-6.173307E-3,-8.5227005E-2,5.032583E-2,-5.195818E-2,-6.89352E-2,8.1030965E-2,-7.278541E-2,3.3200618E-2],"categories":[],"categories_nodes":[],"categories_segments":[],"categories_sizes":[],"default_left":[0,0,0,0,0,0,0,0,0,0,0,0,0,0,0,0,0,0,0,0,0],"id":34,"left_children":[1,3,5,-1,7,9,11,-1,-1,13,15,17,19,-1,-1,-1,-1,-1,-1,-1,-1],"loss_changes":[1.1115481E2,1.5717087E0,1.2446934E1,0E0,2.693863E-1,5.001335E0,9.544316E0,0E0,0E0,4.7103004E0,7.017576E0,8.569563E0,6.7689924E0,0E0,0E0,0E0,0E0,0E0,0E0,0E0,0E0],"parents":[2147483647,0,0,1,1,2,2,4,4,5,5,6,6,9,9,10,10,11,11,12,12],"right_children":[2,4,6,-1,8,10,12,-1,-1,14,16,18,20,-1,-1,-1,-1,-1,-1,-1,-1],"split_conditions":[-7E-2,1.9E-1,5E-1,-3.814238E-3,2.218E2,1.7E-2,-1E-2,1.0115782E-1,2.2024063E-2,2.36E-1,2.98E0,-1.3E-2,2.3309512E-2,-6.173307E-3,-8.5227005E-2,5.032583E-2,-5.195818E-2,-6.89352E-2,8.1030965E-2,-7.278541E-2,3.3200618E-2],"split_indices":[30,10,10,0,24,15,30,0,0,13,18,15,17,0,0,0,0,0,0,0,0],"split_type":[0,0,0,0,0,0,0,0,0,0,0,0,0,0,0,0,0,0,0,0,0],"sum_hessian":[2.4460747E2,7.8958565E1,1.6564891E2,1.4023453E0,7.755622E1,1.1908159E2,4.656732E1,7.648393E1,1.0722865E0,7.8407814E1,4.067377E1,2.0287989E1,2.6279331E1,8.617755E0,6.979006E1,7.4973865E0,3.3176384E1,4.063379E0,1.622461E1,1.8199308E1,8.080024E0],"tree_param":{"num_deleted":"0","num_feature":"36","num_nodes":"21","size_leaf_vector":"1"}},{"base_weights":[-1.2813235E-2,9.0049887E-1,-4.9592325E-1,-2.2887062E-1,1.0017116E0,-1.0166349E-1,-6.96556E-1,2.772109E-1,-7.447113E-2,4.797743E-3,1.032159E0,-3.5856226E-1,4.9754673E-1,-7.48517E-1,3.4482035E-1,-4.1727025E-2,6.719392E-2,-5.6380805E-2,5.691057E-2,1.038368E-1,3.0583201E-2,-6.499147E-2,4.216167E-2,-6.921917E-3,1.5070201E-1,-8.0586754E-2,3.0045187E-2,1.8834032E-1,-7.7369094E-2],"categories":[],"categories_nodes":[],"categories_segments":[],"categories_sizes":[],"default_left":[0,0,0,0,0,0,0,0,0,0,0,0,0,0,0,0,0,0,0,0,0,0,0,0,0,0,0,0,0],"id":35,"left_children":[1,3,5,7,9,11,13,15,-1,17,19,21,23,25,27,-1,-1,-1,-1,-1,-1,-1,-1,-1,-1,-1,-1,-1,-1],"loss_changes":[1.02330284E2,9.401314E0,1.1926296E1,2.1418304E0,2.2359543E0,8.232674E0,5.6878967E0,1.5060104E0,0E0,1.3452843E0,5.493164E-3,8.730425E0,9.326841E0,6.010872E0,1.0842305E1,0E0,0E0,0E0,0E0,0E0,0E0,0E0,0E0,0E0,0E0,0E0,0E0,0E0,0E0],"parents":[2147483647,0,0,1,1,2,2,3,3,4,4,5,5,6,6,7,7,9,9,10,10,11,11,12,12,13,13,14,14],"right_children":[2,4,6,8,10,12,14,16,-1,18,20,22,24,26,28,-1,-1,-1,-1,-1,-1,-1,-1,-1,-1,-1,-1,-1,-1],"split_conditions":[-5E-2,4.2580122E-1,-1E-2,-1E-1,2.2752045E-2,2.226507E0,2.2778E1,2.2236107E-2,-7.447113E-2,2.592725E-2,6.28E0,6E-1,2.4855135E-2,2.2642E2,1.5898986E-2,-4.1727025E-2,6.719392E-2,-5.6380805E-2,5.691057E-2,1.038368E-1,3.0583201E-2,-6.499147E-2,4.216167E-2,-6.921917E-3,1.5070201E-1,-8.0586754E-2,3.0045187E-2,1.8834032E-1,-7.7369094E-2],"split_indices":[30,7,30,25,12,22,31,17,0,17,28,10,17,21,27,0,0,0,0,0,0,0,0,0,0,0,0,0,0],"split_type":[0,0,0,0,0,0,0,0,0,0,0,0,0,0,0,0,0,0,0,0,0,0,0,0,0,0,0,0,0],"sum_hessian":[2.2990828E2,7.92408E1,1.5066748E2,6.41365E0,7.282715E1,5.1322086E1,9.93454E1,3.4709604E0,2.9426897E0,2.1926384E0,7.063451E1,3.6202595E1,1.5119492E1,9.4891846E1,4.4535484E0,1.2371763E0,2.2337842E0,1.0926015E0,1.1000369E0,6.9609825E1,1.0246861E0,2.6480576E1,9.722019E0,1.0279517E1,4.839975E0,9.019248E1,4.699367E0,1.5868659E0,2.8666823E0],"tree_param":{"num_deleted":"0","num_feature":"36","num_nodes":"29","size_leaf_vector":"1"}},{"base_weights":[6.7121307E-3,-4.1149855E-1,9.776295E-1,-5.788332E-1,-1.2987792E-1,-3.791943E-2,1.0231495E0,1.7107513E-2,-6.563882E-1,-4.6510756E-1,2.6600203E-1,3.1469554E-2,1.0370083E0,-5.987956E-2,1.7077051E-1,2.9701164E-2,-7.1677364E-2,9.958163E-2,-6.382046E-2,-4.963339E-2,8.5359395E-2,1.8735623E-1,9.896212E-2],"categories":[],"categories_nodes":[],"categories_segments":[],"categories_sizes":[],"default_left":[0,0,0,0,0,0,0,0,0,0,0,0,0,0,0,0,0,0,0,0,0,0,0],"id":36,"left_children":[1,3,5,7,9,-1,11,13,15,17,19,-1,21,-1,-1,-1,-1,-1,-1,-1,-1,-1,-1],"loss_changes":[8.788281E1,7.054163E0,4.412285E0,4.3839073E0,7.778029E0,0E0,2.952881E-1,1.3381251E1,5.0339355E0,8.625197E0,1.255492E1,0E0,5.903015E-1,0E0,0E0,0E0,0E0,0E0,0E0,0E0,0E0,0E0,0E0],"parents":[2147483647,0,0,1,1,2,2,3,3,4,4,6,6,7,7,8,8,9,9,10,10,12,12],"right_children":[2,4,6,8,10,-1,12,14,16,18,20,-1,22,-1,-1,-1,-1,-1,-1,-1,-1,-1,-1],"split_conditions":[6.5E-2,1.6E-2,3.8E-1,2.94E-1,4.0954718E-1,-3.791943E-2,6.573E1,2.89E-1,6.2788E1,1.3654873E-2,1.9055766E0,3.1469554E-2,7.2E-1,-5.987956E-2,1.7077051E-1,2.9701164E-2,-7.1677364E-2,9.958163E-2,-6.382046E-2,-4.963339E-2,8.5359395E-2,1.8735623E-1,9.896212E-2],"split_indices":[15,15,10,14,7,0,0,14,6,12,22,0,10,0,0,0,0,0,0,0,0,0,0],"split_type":[0,0,0,0,0,0,0,0,0,0,0,0,0,0,0,0,0,0,0,0,0,0,0],"sum_hessian":[2.1444379E2,1.5028609E2,6.415771E1,9.360943E1,5.667666E1,1.8446168E0,6.2313087E1,1.086915E1,8.274028E1,3.0594488E1,2.6082169E1,1.6504425E0,6.0662643E1,8.440128E0,2.4290223E0,4.6949553E0,7.804532E1,2.7374775E0,2.7857012E1,1.1420558E1,1.466161E1,1.1861107E0,5.9476536E1],"tree_param":{"num_deleted":"0","num_feature":"36","num_nodes":"23","size_leaf_vector":"1"}},{"base_weights":[2.828994E-2,8.335711E-1,-4.2944577E-1,-3.443733E-1,9.816028E-1,-4.9553505E-1,2.999094E-1,6.226135E-1,-8.002037E-1,-6.188966E-2,1.0243398E0,-7.486643E-1,-2.8480718E-1,-6.493869E-1,1.1047773E0,-2.190361E-2,1.3110638E-1,-2.1614583E-2,-8.658763E-2,-3.937112E-2,1.05809525E-1,9.915941E-2,-8.25767E-2,-3.965485E-2,7.9697676E-2,7.286665E-3,-8.263653E-2,-6.9950275E-2,2.0837228E-1],"categories":[],"categories_nodes":[],"categories_segments":[],"categories_sizes":[],"default_left":[0,0,0,0,0,0,0,0,0,0,0,0,0,0,0,0,0,0,0,0,0,0,0,0,0,0,0,0,0],"id":37,"left_children":[1,3,5,7,9,11,13,15,17,-1,19,21,23,25,27,-1,-1,-1,-1,-1,-1,-1,-1,-1,-1,-1,-1,-1,-1],"loss_changes":[7.603626E1,1.3371937E1,6.4902554E0,4.502743E0,5.19368E0,6.241539E0,9.54519E0,2.2995443E0,6.646013E-2,0E0,3.5425415E0,8.112713E0,8.493448E0,8.1834126E-1,1.3155237E1,0E0,0E0,0E0,0E0,0E0,0E0,0E0,0E0,0E0,0E0,0E0,0E0,0E0,0E0],"parents":[2147483647,0,0,1,1,2,2,3,3,4,4,5,5,6,6,7,7,8,8,10,10,11,11,12,12,13,13,14,14],"right_children":[2,4,6,8,10,12,14,16,18,-1,20,22,24,26,28,-1,-1,-1,-1,-1,-1,-1,-1,-1,-1,-1,-1,-1,-1],"split_conditions":[-4E-2,1.7E-2,6.748E1,2.056E2,2E-2,1.8973665E-2,1.8611824E-2,2.0176E2,2.058E2,-6.188966E-2,3.02E-1,5.57E0,3.65E-1,3.16E0,3.8122025E-1,-2.190361E-2,1.3110638E-1,-2.1614583E-2,-8.658763E-2,-3.937112E-2,1.05809525E-1,9.915941E-2,-8.25767E-2,-3.965485E-2,7.9697676E-2,7.286665E-3,-8.263653E-2,-6.9950275E-2,2.0837228E-1],"split_indices":[30,15,0,24,27,32,12,21,21,0,1,4,1,16,7,0,0,0,0,0,0,0,0,0,0,0,0,0,0],"split_type":[0,0,0,0,0,0,0,0,0,0,0,0,0,0,0,0,0,0,0,0,0,0,0,0,0,0,0,0,0],"sum_hessian":[2.0430948E2,7.374716E1,1.3056232E2,8.085047E0,6.566212E1,1.2000853E2,1.05537815E1,2.4730003E0,5.6120467E0,1.3571043E0,6.4305016E1,5.3359547E1,6.664899E1,4.9310555E0,5.622726E0,1.4194838E0,1.0535165E0,1.0009935E0,4.6110535E0,1.2471956E0,6.305782E1,1.7606146E0,5.159893E1,6.0983242E1,5.665746E0,1.0862626E0,3.844793E0,2.078087E0,3.5446389E0],"tree_param":{"num_deleted":"0","num_feature":"36","num_nodes":"29","size_leaf_vector":"1"}},{"base_weights":[4.9849544E-3,-3.7947124E-1,9.4435936E-1,-6.166107E-1,2.2059274E-3,-5.1931E-1,1.0288737E0,1.3126561E-1,-7.152338E-1,8.009783E-1,-2.7266556E-1,-6.803884E-2,-4.4638338E-3,1.7603336E-1,9.7531426E-1,-5.060112E-2,1.6071655E-1,2.3161538E-2,-7.494944E-2,-2.9310081E-2,1.3507162E-1,-4.9484007E-2,8.78465E-2,2.141115E-3,9.9423796E-2],"categories":[],"categories_nodes":[],"categories_segments":[],"categories_sizes":[],"default_left":[0,0,0,0,0,0,0,0,0,0,0,0,0,0,0,0,0,0,0,0,0,0,0,0,0],"id":38,"left_children":[1,3,5,7,9,11,13,15,17,19,21,-1,-1,-1,23,-1,-1,-1,-1,-1,-1,-1,-1,-1,-1],"loss_changes":[7.063834E1,1.2564266E1,7.560665E0,6.408558E0,1.2115614E1,2.5752163E-1,4.0006638E-1,1.0989605E1,2.632328E0,8.892493E0,1.0935866E1,0E0,0E0,0E0,9.2806625E-1,0E0,0E0,0E0,0E0,0E0,0E0,0E0,0E0,0E0,0E0],"parents":[2147483647,0,0,1,1,2,2,3,3,4,4,5,5,6,6,7,7,8,8,9,9,10,10,14,14],"right_children":[2,4,6,8,10,12,14,16,18,20,22,-1,-1,-1,24,-1,-1,-1,-1,-1,-1,-1,-1,-1,-1],"split_conditions":[1.22E0,1.8E-2,2.2827858E-2,2.94E-1,-2E-2,4.597886E-1,2.4494898E-2,2.89E-1,5.57E0,1.9002924E-2,6.737E1,-6.803884E-2,-4.4638338E-3,1.7603336E-1,2.340845E-2,-5.060112E-2,1.6071655E-1,2.3161538E-2,-7.494944E-2,-2.9310081E-2,1.3507162E-1,-4.9484007E-2,8.78465E-2,2.141115E-3,9.9423796E-2],"split_indices":[10,15,27,14,35,7,27,14,4,32,0,0,0,0,12,0,0,0,0,0,0,0,0,0,0],"split_type":[0,0,0,0,0,0,0,0,0,0,0,0,0,0,0,0,0,0,0,0,0,0,0,0,0],"sum_hessian":[1.9360146E2,1.3780022E2,5.5801228E1,8.461354E1,5.318668E1,2.7653074E0,5.3035923E1,9.819508E0,7.479404E1,1.3126696E1,4.0059986E1,1.7410873E0,1.0242201E0,1.4442915E0,5.159163E1,7.3171825E0,2.5023255E0,2.4106739E0,7.238336E1,4.5460534E0,8.580642E0,3.405694E1,6.003048E0,1.0450363E0,5.0546593E1],"tree_param":{"num_deleted":"0","num_feature":"36","num_nodes":"25","size_leaf_vector":"1"}},{"base_weights":[6.0682666E-2,8.467935E-1,-3.2873803E-1,-3.1346563E-1,9.594786E-1,-4.9974474E-1,1.6748855E-1,-8.153205E-2,6.345549E-2,-3.4038953E-2,9.951364E-1,-7.6407015E-1,-2.7657744E-1,4.3217137E-1,-7.8427476E-1,1.0246555E-1,-2.5016991E-2,4.5236852E-2,-8.707064E-2,-5.319413E-2,2.2095738E-2,1.1622812E-1,-1.6352862E-4,-8.911386E-2,-4.454165E-3],"categories":[],"categories_nodes":[],"categories_segments":[],"categories_sizes":[],"default_left":[0,0,0,0,0,0,0,0,0,0,0,0,0,0,0,0,0,0,0,0,0,0,0,0,0],"id":39,"left_children":[1,3,5,7,9,11,13,-1,-1,-1,15,17,19,21,23,-1,-1,-1,-1,-1,-1,-1,-1,-1,-1],"loss_changes":[5.7494865E1,8.432476E0,1.0751061E1,3.4954467E0,2.977745E0,5.3183556E0,8.643843E0,0E0,0E0,0E0,2.302822E0,5.886856E0,6.774467E0,8.3756895E0,5.5543756E-1,0E0,0E0,0E0,0E0,0E0,0E0,0E0,0E0,0E0,0E0],"parents":[2147483647,0,0,1,1,2,2,3,3,4,4,5,5,6,6,10,10,11,11,12,12,13,13,14,14],"right_children":[2,4,6,8,10,12,14,-1,-1,-1,16,18,20,22,24,-1,-1,-1,-1,-1,-1,-1,-1,-1,-1],"split_conditions":[-4E-2,7E-2,5.8E-1,6.693E1,1.4944341E-2,3E-3,3.41E0,-8.153205E-2,6.345549E-2,-3.4038953E-2,2.7E0,-4E0,2.1730674E-2,5.99E0,3.59E0,1.0246555E-1,-2.5016991E-2,4.5236852E-2,-8.707064E-2,-5.319413E-2,2.2095738E-2,1.1622812E-1,-1.6352862E-4,-8.911386E-2,-4.454165E-3],"split_indices":[20,10,10,0,32,15,2,0,0,0,25,25,32,4,19,0,0,0,0,0,0,0,0,0,0],"split_type":[0,0,0,0,0,0,0,0,0,0,0,0,0,0,0,0,0,0,0,0,0,0,0,0,0],"sum_hessian":[1.8590393E2,6.1195698E1,1.2470824E2,5.259513E0,5.5936184E1,9.274121E1,3.1967026E1,3.5305285E0,1.7289846E0,1.2652898E0,5.4670895E1,4.134606E1,5.139515E1,2.5438557E1,6.5284686E0,5.3578053E1,1.092843E0,3.0710685E0,3.8274994E1,3.3917538E1,1.7477612E1,8.855396E0,1.658316E1,5.525556E0,1.0029124E0],"tree_param":{"num_deleted":"0","num_feature":"36","num_nodes":"25","size_leaf_vector":"1"}},{"base_weights":[4.257468E-3,9.669573E-1,-3.1924838E-1,4.933057E-3,1.0002452E-1,-5.422975E-1,-3.0109214E-3,-1.7291768E-1,-6.947502E-1,-2.8050938E-1,6.3187385E-1,-4.7059927E-2,2.0988572E-1,-7.436431E-2,3.775676E-2,-5.0801426E-2,8.6426176E-2,9.98846E-2,-4.8187003E-2],"categories":[],"categories_nodes":[],"categories_segments":[],"categories_sizes":[],"default_left":[0,0,0,0,0,0,0,0,0,0,0,0,0,0,0,0,0,0,0],"id":40,"left_children":[1,3,5,-1,-1,7,9,11,13,15,17,-1,-1,-1,-1,-1,-1,-1,-1],"loss_changes":[5.540566E1,1.317421E0,9.39144E0,0E0,0E0,4.276949E0,1.005795E1,1.7314947E1,3.1612015E0,1.0783304E1,7.578599E0,0E0,0E0,0E0,0E0,0E0,0E0,0E0,0E0],"parents":[2147483647,0,0,1,1,2,2,5,5,6,6,7,7,8,8,9,9,10,10],"right_children":[2,4,6,-1,-1,8,10,12,14,16,18,-1,-1,-1,-1,-1,-1,-1,-1],"split_conditions":[-7E-2,4.2425883E-1,1.7E-2,4.933057E-3,1.0002452E-1,2.57E-1,2.4404006E-2,3.34E-1,2.267E2,6.657E1,3.191E-1,-4.7059927E-2,2.0988572E-1,-7.436431E-2,3.775676E-2,-5.0801426E-2,8.6426176E-2,9.98846E-2,-4.8187003E-2],"split_indices":[20,7,15,0,0,13,17,14,21,8,11,0,0,0,0,0,0,0,0],"split_type":[0,0,0,0,0,0,0,0,0,0,0,0,0,0,0,0,0,0,0],"sum_hessian":[1.759109E2,4.374476E1,1.3216615E2,1.6182233E0,4.2126537E1,7.7083E1,5.508315E1,2.3143219E1,5.3939785E1,3.871819E1,1.6364958E1,2.1162983E1,1.9802376E0,5.188076E1,2.0590234E0,3.2763252E1,5.9549403E0,1.2386757E1,3.9782014E0],"tree_param":{"num_deleted":"0","num_feature":"36","num_nodes":"19","size_leaf_vector":"1"}},{"base_weights":[2.2813914E-2,-4.4669574E-1,6.316065E-1,-5.898878E-1,5.7903565E-2,8.651806E-1,-3.4077495E-1,-6.785991E-1,5.2509457E-1,-4.9431878E-1,8.1050843E-1,-7.592689E-2,9.5522606E-1,-7.9132867E-1,6.578968E-1,-7.214705E-2,1.0291197E-1,-4.7436766E-2,2.5462833E-1,-6.8236865E-2,8.437481E-2,1.3810049E-1,-7.215684E-2,2.4256927E-3,1.08465016E-1,-9.332527E-2,2.9035598E-2,-6.749811E-2,1.4714894E-1],"categories":[],"categories_nodes":[],"categories_segments":[],"categories_sizes":[],"default_left":[0,0,0,0,0,0,0,0,0,0,0,0,0,0,0,0,0,0,0,0,0,0,0,0,0,0,0,0,0],"id":41,"left_children":[1,3,5,7,9,11,13,15,17,19,21,-1,23,25,27,-1,-1,-1,-1,-1,-1,-1,-1,-1,-1,-1,-1,-1,-1],"loss_changes":[4.793017E1,6.876734E0,1.6874199E1,7.661648E0,9.479103E0,9.376152E0,7.2050653E0,5.783142E0,1.3342571E1,3.9023128E0,9.407871E0,0E0,6.778736E0,1.9122596E0,6.5938206E0,0E0,0E0,0E0,0E0,0E0,0E0,0E0,0E0,0E0,0E0,0E0,0E0,0E0,0E0],"parents":[2147483647,0,0,1,1,2,2,3,3,4,4,5,5,6,6,7,7,8,8,9,9,10,10,12,12,13,13,14,14],"right_children":[2,4,6,8,10,12,14,16,18,20,22,-1,24,26,28,-1,-1,-1,-1,-1,-1,-1,-1,-1,-1,-1,-1,-1,-1],"split_conditions":[2.4404006E-2,4.6530277E-1,0E0,2.274E1,2.0242968E0,-3.7E-1,2.3335671E0,3.194805E0,3E-2,2.285E2,2.1692E2,-7.592689E-2,1.8408936E-2,2.276E2,2.24E1,-7.214705E-2,1.0291197E-1,-4.7436766E-2,2.5462833E-1,-6.8236865E-2,8.437481E-2,1.3810049E-1,-7.215684E-2,2.4256927E-3,1.08465016E-1,-9.332527E-2,2.9035598E-2,-6.749811E-2,1.4714894E-1],"split_indices":[17,7,20,34,22,10,22,22,35,24,21,0,32,24,34,0,0,0,0,0,0,0,0,0,0,0,0,0,0],"split_type":[0,0,0,0,0,0,0,0,0,0,0,0,0,0,0,0,0,0,0,0,0,0,0,0,0,0,0,0,0],"sum_hessian":[1.6569824E2,9.3700966E1,7.199728E1,7.285703E1,2.0843933E1,5.8141464E1,1.3855814E1,6.785006E1,5.0069733E0,1.2220416E1,8.623517E0,2.663264E0,5.54782E1,9.691214E0,4.164601E0,6.6751816E1,1.0982431E0,3.8623657E0,1.1446074E0,1.1144254E1,1.0761626E0,6.3555274E0,2.2679896E0,6.9162025E0,4.8561996E1,8.688455E0,1.0027583E0,1.6431159E0,2.521485E0],"tree_param":{"num_deleted":"0","num_feature":"36","num_nodes":"29","size_leaf_vector":"1"}},{"base_weights":[6.1236292E-2,-2.124504E-1,9.001667E-1,1.6987868E-1,-4.881131E-1,-6.837138E-2,1.0539937E0,6.059711E-1,-1.5479997E-1,-7.8244984E-1,-2.5214726E-1,1.1436063E0,-3.4301065E-2,6.8219737E-3,1.4229004E-1,-6.1008204E-2,3.5623096E-2,3.901986E-2,-8.7863855E-2,2.535615E-2,-8.624341E-2,3.448366E-1,9.678217E-2],"categories":[],"categories_nodes":[],"categories_segments":[],"categories_sizes":[],"default_left":[0,0,0,0,0,0,0,0,0,0,0,0,0,0,0,0,0,0,0,0,0,0,0],"id":42,"left_children":[1,3,5,7,9,-1,11,13,15,17,19,21,-1,-1,-1,-1,-1,-1,-1,-1,-1,-1,-1],"loss_changes":[3.7147057E1,1.2959019E1,1.0413567E1,7.445848E0,4.751009E0,0E0,4.981079E0,9.727443E0,7.327783E0,3.8650627E0,1.2878487E1,1.07113495E1,0E0,0E0,0E0,0E0,0E0,0E0,0E0,0E0,0E0,0E0,0E0],"parents":[2147483647,0,0,1,1,2,2,3,3,4,4,6,6,7,7,8,8,9,9,10,10,11,11],"right_children":[2,4,6,8,10,-1,12,14,16,18,20,22,-1,-1,-1,-1,-1,-1,-1,-1,-1,-1,-1],"split_conditions":[6.81E1,-1E-2,3.32E-1,6.4957E1,1.9119507E-2,-6.837138E-2,2.1572E2,2.3190036E-2,6.668E1,2.77E0,2.2997584E-2,2.0736441E-2,-3.4301065E-2,6.8219737E-3,1.4229004E-1,-6.1008204E-2,3.5623096E-2,3.901986E-2,-8.7863855E-2,2.535615E-2,-8.624341E-2,3.448366E-1,9.678217E-2],"split_indices":[9,30,14,6,32,0,21,27,0,18,32,27,0,0,0,0,0,0,0,0,0,0,0],"split_type":[0,0,0,0,0,0,0,0,0,0,0,0,0,0,0,0,0,0,0,0,0,0,0],"sum_hessian":[1.5995451E2,1.21171234E2,3.878328E1,5.092491E1,7.024632E1,3.128275E0,3.5655006E1,2.136377E1,2.956114E1,3.0226606E1,4.0019714E1,3.367619E1,1.9788164E0,1.3536651E1,7.8271194E0,1.5530791E1,1.4030349E1,2.0597184E0,2.8166887E1,2.2204596E1,1.781512E1,1.0671746E0,3.2609016E1],"tree_param":{"num_deleted":"0","num_feature":"36","num_nodes":"23","size_leaf_vector":"1"}},{"base_weights":[1.6568098E-2,-4.0082094E-1,6.060868E-1,-7.369328E-1,-1.6957475E-1,-2.916565E-2,9.090656E-1,-2.0554196E-2,-9.9158585E-2,3.3688086E-1,-5.542429E-1,4.450851E-1,-9.1666654E-2,-1.8321322E-1,1.0433371E0,1.9940765E-1,-6.6280894E-2,9.039041E-2,-3.985795E-2,-8.967926E-2,-5.3806277E-3,-8.010076E-2,8.314455E-2,9.597663E-2,-7.978346E-2,1.1112088E-1,2.9388372E-2],"categories":[],"categories_nodes":[],"categories_segments":[],"categories_sizes":[],"default_left":[0,0,0,0,0,0,0,0,0,0,0,0,0,0,0,0,0,0,0,0,0,0,0,0,0,0,0],"id":43,"left_children":[1,3,5,7,9,11,13,15,-1,17,19,21,-1,23,25,-1,-1,-1,-1,-1,-1,-1,-1,-1,-1,-1,-1],"loss_changes":[3.8383575E1,6.975498E0,1.2469986E1,6.7177124E0,1.0983206E1,9.603244E0,6.6157417E0,1.5176236E1,0E0,1.0595807E1,5.4157715E0,7.844967E0,0E0,4.7320786E0,1.6653442E0,0E0,0E0,0E0,0E0,0E0,0E0,0E0,0E0,0E0,0E0,0E0,0E0],"parents":[2147483647,0,0,1,1,2,2,3,3,4,4,5,5,6,6,7,7,9,9,10,10,11,11,13,13,14,14],"right_children":[2,4,6,8,10,12,14,16,-1,18,20,22,-1,24,26,-1,-1,-1,-1,-1,-1,-1,-1,-1,-1,-1,-1],"split_conditions":[2.4698177E-2,3.3E-1,2.2827858E-2,2.36E-1,3.47E-1,2.76E-1,1.7E-2,6.487E1,-9.9158585E-2,2.097E2,4.1287744E-1,1.8348478E-2,-9.1666654E-2,5.925E0,3.2E0,1.9940765E-1,-6.6280894E-2,9.039041E-2,-3.985795E-2,-8.967926E-2,-5.3806277E-3,-8.010076E-2,8.314455E-2,9.597663E-2,-7.978346E-2,1.1112088E-1,2.9388372E-2],"split_indices":[17,14,27,13,14,13,15,0,0,23,7,32,0,26,18,0,0,0,0,0,0,0,0,0,0,0,0],"split_type":[0,0,0,0,0,0,0,0,0,0,0,0,0,0,0,0,0,0,0,0,0,0,0,0,0,0,0],"sum_hessian":[1.5400632E2,9.035416E1,6.3652153E1,3.5935627E1,5.441853E1,2.0846743E1,4.2805412E1,9.707535E0,2.622809E1,2.3544275E1,3.0874256E1,1.3911433E1,6.9353085E0,4.646044E0,3.8159367E1,1.8378241E0,7.8697104E0,1.3165186E1,1.037909E1,1.7858242E1,1.3016014E1,3.0384824E0,1.08729515E1,1.4283181E0,3.2177258E0,3.4547955E1,3.6114116E0],"tree_param":{"num_deleted":"0","num_feature":"36","num_nodes":"27","size_leaf_vector":"1"}},{"base_weights":[4.0147476E-2,-2.2897975E-1,8.7808776E-1,-3.953114E-1,1.881395E-1,1.0323085E0,-3.5124874E-1,-7.585998E-1,-8.03269E-2,5.6706333E-1,-5.742662E-1,2.7495798E-1,8.8346833E-1,4.7618184E-2,-7.050284E-2,-2.5468622E-3,-9.9183075E-2,-4.1739475E-2,1.3685344E-1,-7.6517545E-2,9.257397E-2,-9.239914E-2,3.244783E-2,-5.227978E-2,9.816667E-2],"categories":[],"categories_nodes":[],"categories_segments":[],"categories_sizes":[],"default_left":[0,0,0,0,0,0,0,0,0,0,0,0,0,0,0,0,0,0,0,0,0,0,0,0,0],"id":44,"left_children":[1,3,5,7,9,11,13,15,17,19,21,-1,23,-1,-1,-1,-1,-1,-1,-1,-1,-1,-1,-1,-1],"loss_changes":[3.3644627E1,7.9172225E0,7.2368183E0,9.223699E0,9.831332E0,5.870323E0,1.7372296E0,6.39732E0,2.2340837E1,1.145159E1,3.889578E0,0E0,4.843025E0,0E0,0E0,0E0,0E0,0E0,0E0,0E0,0E0,0E0,0E0,0E0,0E0],"parents":[2147483647,0,0,1,1,2,2,3,3,4,4,5,5,6,6,7,7,8,8,9,9,10,10,12,12],"right_children":[2,4,6,8,10,12,14,16,18,20,22,-1,24,-1,-1,-1,-1,-1,-1,-1,-1,-1,-1,-1,-1],"split_conditions":[3.65E-1,2.4404006E-2,0E0,3.34E-1,3.39E-1,1.5670212E-2,2.0282E2,2.92E-1,6.713E1,2.055E2,2.4966644E-2,2.7495798E-1,4.8E-1,4.7618184E-2,-7.050284E-2,-2.5468622E-3,-9.9183075E-2,-4.1739475E-2,1.3685344E-1,-7.6517545E-2,9.257397E-2,-9.239914E-2,3.244783E-2,-5.227978E-2,9.816667E-2],"split_indices":[1,17,35,14,14,17,21,14,0,24,27,0,10,0,0,0,0,0,0,0,0,0,0,0,0],"split_type":[0,0,0,0,0,0,0,0,0,0,0,0,0,0,0,0,0,0,0,0,0,0,0,0,0],"sum_hessian":[1.4730022E2,1.1204172E2,3.52585E1,8.013796E1,3.1903755E1,3.1470753E1,3.7877471E0,3.656139E1,4.3576572E1,2.1482794E1,1.0420961E1,1.1164248E0,3.0354328E1,1.0308288E0,2.7569182E0,9.091776E0,2.7469614E1,3.5929688E1,7.6468863E0,4.3165216E0,1.7166271E1,7.481587E0,2.9393742E0,1.6990392E0,2.8655289E1],"tree_param":{"num_deleted":"0","num_feature":"36","num_nodes":"25","size_leaf_vector":"1"}},{"base_weights":[1.7864621E-3,-2.2643767E-1,9.5969576E-1,9.700027E-2,-4.57164E-1,9.9291675E-2,1.6726138E-2,-3.4106576E-1,5.166331E-1,-9.079325E-1,-2.2381765E-1,-7.302552E-2,3.586946E-2,1.2328934E-1,-3.6163505E-2,2.8773312E-2,-9.766977E-2,1.7110726E-2,-8.051233E-2],"categories":[],"categories_nodes":[],"categories_segments":[],"categories_sizes":[],"default_left":[0,0,0,0,0,0,0,0,0,0,0,0,0,0,0,0,0,0,0],"id":45,"left_children":[1,3,5,7,9,-1,-1,11,13,15,17,-1,-1,-1,-1,-1,-1,-1,-1],"loss_changes":[3.1204088E1,8.646917E0,5.569E-1,9.150685E0,6.892169E0,0E0,0E0,6.9309483E0,1.6381672E1,2.1459122E0,1.0646306E1,0E0,0E0,0E0,0E0,0E0,0E0,0E0,0E0],"parents":[2147483647,0,0,1,1,2,2,3,3,4,4,7,7,8,8,9,9,10,10],"right_children":[2,4,6,8,10,-1,-1,12,14,16,18,-1,-1,-1,-1,-1,-1,-1,-1],"split_conditions":[6.3464427E-1,-1E-2,2.251E1,2.105E2,3.4673718E-1,9.9291675E-2,1.6726138E-2,2.3190036E-2,2.1685E2,-5E-2,2.0736441E-2,-7.302552E-2,3.586946E-2,1.2328934E-1,-3.6163505E-2,2.8773312E-2,-9.766977E-2,1.7110726E-2,-8.051233E-2],"split_indices":[7,30,33,21,7,0,0,27,21,35,27,0,0,0,0,0,0,0,0],"split_type":[0,0,0,0,0,0,0,0,0,0,0,0,0,0,0,0,0,0,0],"sum_hessian":[1.4073935E2,1.14276344E2,2.6462996E1,4.7820274E1,6.645607E1,2.5155416E1,1.307579E0,2.3487875E1,2.43324E1,2.1681587E1,4.4774487E1,1.5065332E1,8.422543E0,1.3179913E1,1.1152486E1,1.005962E0,2.0675625E1,2.7081573E1,1.7692913E1],"tree_param":{"num_deleted":"0","num_feature":"36","num_nodes":"19","size_leaf_vector":"1"}},{"base_weights":[1.745678E-2,4.3155408E-1,-4.4733065E-1,4.646059E-2,8.7114185E-1,-5.2249056E-1,7.693009E-1,5.072638E-1,-5.9232455E-1,9.6498924E-1,-2.3536104E-1,1.6330793E-1,-6.846062E-1,-6.1029136E-2,1.7179611E-1,-4.752524E-2,9.8680146E-2,-9.5911846E-2,1.87289E-2,-2.0916903E-2,1.0509683E-1,4.200581E-2,-6.800777E-2,8.812699E-2,-8.524027E-2,1.1068248E-2,-7.900545E-2],"categories":[],"categories_nodes":[],"categories_segments":[],"categories_sizes":[],"default_left":[0,0,0,0,0,0,0,0,0,0,0,0,0,0,0,0,0,0,0,0,0,0,0,0,0,0,0],"id":46,"left_children":[1,3,5,7,9,11,13,15,17,19,21,23,25,-1,-1,-1,-1,-1,-1,-1,-1,-1,-1,-1,-1,-1,-1],"loss_changes":[2.6571531E1,1.2315199E1,6.3517065E0,1.2063482E1,3.7605057E0,6.9910583E0,6.532416E0,1.1660721E1,5.100445E0,3.4061298E0,1.2954092E0,9.967082E0,4.300503E0,0E0,0E0,0E0,0E0,0E0,0E0,0E0,0E0,0E0,0E0,0E0,0E0,0E0,0E0],"parents":[2147483647,0,0,1,1,2,2,3,3,4,4,5,5,6,6,7,7,8,8,9,9,10,10,11,11,12,12],"right_children":[2,4,6,8,10,12,14,16,18,20,22,24,26,-1,-1,-1,-1,-1,-1,-1,-1,-1,-1,-1,-1,-1,-1],"split_conditions":[-1E-2,2.626785E-2,2.238E2,2.013841E-2,3.37E0,2.225E1,2.65E-1,3.3E-1,2.3593785E-2,1.9436507E-2,6.08E0,2E-2,1.3631662E0,-6.1029136E-2,1.7179611E-1,-4.752524E-2,9.8680146E-2,-9.5911846E-2,1.87289E-2,-2.0916903E-2,1.0509683E-1,4.200581E-2,-6.800777E-2,8.812699E-2,-8.524027E-2,1.1068248E-2,-7.900545E-2],"split_indices":[30,17,23,32,2,5,13,14,27,27,29,30,22,0,0,0,0,0,0,0,0,0,0,0,0,0,0],"split_type":[0,0,0,0,0,0,0,0,0,0,0,0,0,0,0,0,0,0,0,0,0,0,0,0,0,0,0],"sum_hessian":[1.3605443E2,7.1988525E1,6.4065895E1,3.8962112E1,3.3026413E1,6.0875713E1,3.19018E0,2.2753916E1,1.6208197E1,3.0562193E1,2.4642224E0,1.163763E1,4.9238083E1,1.4451895E0,1.7449907E0,7.465967E0,1.528795E1,1.0865792E1,5.3424044E0,1.9874966E0,2.8574696E1,1.0185462E0,1.4456761E0,6.895711E0,4.741919E0,5.7584386E0,4.3479645E1],"tree_param":{"num_deleted":"0","num_feature":"36","num_nodes":"27","size_leaf_vector":"1"}},{"base_weights":[3.8144164E-2,-1.4592308E-1,9.442302E-1,-3.944966E-1,1.5207957E-1,9.790798E-2,1.791225E-2,-5.7846814E-1,7.812986E-2,-3.173757E-1,3.8667777E-1,7.455626E-2,-6.4216964E-2,-1.7809441E-2,1.2466319E-1,8.261711E-2,-6.087306E-2,1.2398883E-1,-2.0815788E-3],"categories":[],"categories_nodes":[],"categories_segments":[],"categories_sizes":[],"default_left":[0,0,0,0,0,0,0,0,0,0,0,0,0,0,0,0,0,0,0],"id":47,"left_children":[1,3,5,7,9,-1,-1,11,13,15,17,-1,-1,-1,-1,-1,-1,-1,-1],"loss_changes":[2.2127415E1,8.241776E0,4.2177963E-1,5.3055267E0,5.7343884E0,0E0,0E0,4.161724E0,5.5608974E0,6.34267E0,1.1994943E1,0E0,0E0,0E0,0E0,0E0,0E0,0E0,0E0],"parents":[2147483647,0,0,1,1,2,2,3,3,4,4,7,7,8,8,9,9,10,10],"right_children":[2,4,6,8,10,-1,-1,12,14,16,18,-1,-1,-1,-1,-1,-1,-1,-1],"split_conditions":[6.3464427E-1,1.6E-2,2.251E1,5.2E-1,3.27E-1,9.790798E-2,1.791225E-2,1.17378775E-2,2.522785E-2,5.65E0,3.4E-1,7.455626E-2,-6.4216964E-2,-1.7809441E-2,1.2466319E-1,8.261711E-2,-6.087306E-2,1.2398883E-1,-2.0815788E-3],"split_indices":[7,15,33,10,14,0,0,17,12,4,14,0,0,0,0,0,0,0,0],"split_type":[0,0,0,0,0,0,0,0,0,0,0,0,0,0,0,0,0,0,0],"sum_hessian":[1.3084752E2,1.09451836E2,2.1395689E1,5.9498466E1,4.9953373E1,2.019612E1,1.1995697E0,4.266645E1,1.6832014E1,1.652743E1,3.342594E1,1.4671807E0,4.1199272E1,1.4500083E1,2.3319304E0,2.9831533E0,1.3544275E1,1.0143905E1,2.3282038E1],"tree_param":{"num_deleted":"0","num_feature":"36","num_nodes":"19","size_leaf_vector":"1"}},{"base_weights":[1.6597971E-2,-1.6098753E-1,9.580651E-2,-3.2902637E-1,2.3284735E-1,-5.0963956E-1,7.998591E-2,6.045516E-1,-4.5436883E-1,-6.887539E-2,2.2780003E-2,1.097336E-1,-4.914234E-2,1.4635535E-1,2.0655867E-2,-9.2291854E-2,6.1208647E-2],"categories":[],"categories_nodes":[],"categories_segments":[],"categories_sizes":[],"default_left":[0,0,0,0,0,0,0,0,0,0,0,0,0,0,0,0,0],"id":48,"left_children":[1,3,-1,5,7,9,11,13,15,-1,-1,-1,-1,-1,-1,-1,-1],"loss_changes":[2.1631683E1,7.2856183E0,0E0,5.711814E0,8.745996E0,7.2086887E0,1.4711722E1,7.2023726E0,6.6670904E0,0E0,0E0,0E0,0E0,0E0,0E0,0E0,0E0],"parents":[2147483647,0,0,1,1,3,3,4,4,5,5,6,6,7,7,8,8],"right_children":[2,4,-1,6,8,10,12,14,16,-1,-1,-1,-1,-1,-1,-1,-1],"split_conditions":[3.99E-1,2.4404006E-2,9.580651E-2,2.9E-1,0E0,2.5016662E-2,1.837873E-2,2.228E1,2.3335671E0,-6.887539E-2,2.2780003E-2,1.097336E-1,-4.914234E-2,1.4635535E-1,2.0655867E-2,-9.2291854E-2,6.1208647E-2],"split_indices":[1,17,0,13,20,12,27,5,22,0,0,0,0,0,0,0,0],"split_type":[0,0,0,0,0,0,0,0,0,0,0,0,0,0,0,0,0],"sum_hessian":[1.2746062E2,1.0793099E2,1.9529623E1,7.5767555E1,3.2163437E1,5.238789E1,2.3379665E1,2.0951433E1,1.1212006E1,4.220329E1,1.01846E1,8.077643E0,1.5302022E1,5.785992E0,1.5165441E1,7.883127E0,3.3288782E0],"tree_param":{"num_deleted":"0","num_feature":"36","num_nodes":"17","size_leaf_vector":"1"}},{"base_weights":[1.1503165E-2,-2.8134257E-1,5.7649314E-1,-1.0166729E-1,-7.301278E-1,-2.05023E-1,8.6173403E-1,-2.1068451E-1,7.706759E-1,-9.792402E-2,-1.4584365E-1,6.6761595E-1,-6.797239E-1,1.0285505E0,-7.394925E-2,-5.7576247E-2,1.5857318E-2,-5.6221332E-2,1.5534155E-1,8.183204E-2,-8.37823E-2,1.1737519E-1,-4.489198E-3,7.17991E-3,-8.8100165E-2,-5.6645997E-2,1.1773942E-1],"categories":[],"categories_nodes":[],"categories_segments":[],"categories_sizes":[],"default_left":[0,0,0,0,0,0,0,0,0,0,0,0,0,0,0,0,0,0,0,0,0,0,0,0,0,0,0],"id":49,"left_children":[1,3,5,7,9,11,13,15,17,-1,19,21,23,25,-1,-1,-1,-1,-1,-1,-1,-1,-1,-1,-1,-1,-1],"loss_changes":[2.0782156E1,6.5986466E0,9.733811E0,5.892762E0,3.2772608E0,5.5371695E0,9.201565E0,7.41781E0,8.080942E0,0E0,6.1555667E0,1.7938087E0,1.3404527E0,7.560684E0,0E0,0E0,0E0,0E0,0E0,0E0,0E0,0E0,0E0,0E0,0E0,0E0,0E0],"parents":[2147483647,0,0,1,1,2,2,3,3,4,4,5,5,6,6,7,7,8,8,10,10,11,11,12,12,13,13],"right_children":[2,4,6,8,10,12,14,16,18,-1,20,22,24,26,-1,-1,-1,-1,-1,-1,-1,-1,-1,-1,-1,-1,-1],"split_conditions":[4.6776062E-1,1.7E0,1.9055766E0,2.7668675E-2,2.9E-1,-2E-2,2E-2,2.24E1,2.0027759E-2,-9.792402E-2,2.99E-1,2.033E2,-3E-2,6.296E1,-7.394925E-2,-5.7576247E-2,1.5857318E-2,-5.6221332E-2,1.5534155E-1,8.183204E-2,-8.37823E-2,1.1737519E-1,-4.489198E-3,7.17991E-3,-8.8100165E-2,-5.6645997E-2,1.1773942E-1],"split_indices":[7,25,22,17,13,35,30,33,32,0,13,3,20,8,0,0,0,0,0,0,0,0,0,0,0,0,0],"split_type":[0,0,0,0,0,0,0,0,0,0,0,0,0,0,0,0,0,0,0,0,0,0,0,0,0,0,0],"sum_hessian":[1.2362589E2,8.175346E1,4.1872433E1,5.925623E1,2.2497232E1,1.1271495E1,3.0600937E1,5.334781E1,5.908421E0,1.5298626E1,7.1986065E0,3.828042E0,7.4434524E0,2.8037613E1,2.5633235E0,2.6544518E1,2.6803291E1,2.2902324E0,3.6181889E0,2.9314768E0,4.26713E0,1.8596628E0,1.9683793E0,1.708311E0,5.7351418E0,2.1536224E0,2.5883991E1],"tree_param":{"num_deleted":"0","num_feature":"36","num_nodes":"27","size_leaf_vector":"1"}},{"base_weights":[4.0760726E-2,-1.4362808E-1,7.976809E-1,-5.392624E-2,-8.890512E-2,9.3991363E-1,-6.537446E-2,-2.2769208E-1,3.5369262E-1,-2.510646E-2,1.0116705E0,2.0491628E-2,-4.377379E-2,-3.644466E-2,1.1195461E-1,2.0113912E-1,8.180181E-2],"categories":[],"categories_nodes":[],"categories_segments":[],"categories_sizes":[],"default_left":[0,0,0,0,0,0,0,0,0,0,0,0,0,0,0,0,0],"id":50,"left_children":[1,3,5,7,-1,9,-1,11,13,-1,15,-1,-1,-1,-1,-1,-1],"loss_changes":[1.6998156E1,6.5130434E0,5.5378532E0,6.359412E0,0E0,2.1453E0,0E0,5.7925673E0,1.5195389E1,0E0,2.4341354E0,0E0,0E0,0E0,0E0,0E0,0E0],"parents":[2147483647,0,0,1,1,2,2,3,3,5,5,7,7,8,8,10,10],"right_children":[2,4,6,8,-1,10,-1,12,14,-1,16,-1,-1,-1,-1,-1,-1],"split_conditions":[3.65E-1,2.592725E-2,1E-2,2.226507E0,-8.890512E-2,1.6363917E-2,-6.537446E-2,2.908E-1,3.059E-1,-2.510646E-2,1.7159384E-2,2.0491628E-2,-4.377379E-2,-3.644466E-2,1.1195461E-1,2.0113912E-1,8.180181E-2],"split_indices":[1,32,30,22,0,32,0,11,11,0,27,0,0,0,0,0,0],"split_type":[0,0,0,0,0,0,0,0,0,0,0,0,0,0,0,0,0],"sum_hessian":[1.19970665E2,9.712168E1,2.2848986E1,8.764687E1,9.474803E0,2.11307E1,1.7182862E0,6.176022E1,2.5886658E1,1.0587842E0,2.0071915E1,2.019376E1,4.156646E1,1.3629982E1,1.2256676E1,1.7339377E0,1.8337976E1],"tree_param":{"num_deleted":"0","num_feature":"36","num_nodes":"17","size_leaf_vector":"1"}},{"base_weights":[4.0373363E-2,-1.4417769E-1,8.1702507E-1,1.4124615E-1,-4.1699776E-1,-4.3042317E-1,1.0516592E0,3.2123443E-2,2.2651957E-1,-9.420748E-2,-1.9167686E-1,2.812245E-2,-7.310701E-2,7.5404245E-1,1.5391128E0,3.6032602E-2,-4.7603916E-2,3.5849724E-2,-5.354845E-2,9.389194E-2,-5.9583288E-2,2.4589674E-1,8.645493E-2],"categories":[],"categories_nodes":[],"categories_segments":[],"categories_sizes":[],"default_left":[0,0,0,0,0,0,0,0,0,0,0,0,0,0,0,0,0,0,0,0,0,0,0],"id":51,"left_children":[1,3,5,7,9,11,13,15,-1,-1,17,-1,-1,19,21,-1,-1,-1,-1,-1,-1,-1,-1],"loss_changes":[1.7091923E1,7.5762243E0,7.151742E0,1.1035101E1,5.68902E0,1.1326644E0,1.6763248E0,7.9432273E0,0E0,0E0,6.9958897E0,0E0,0E0,4.0787573E0,1.8779469E0,0E0,0E0,0E0,0E0,0E0,0E0,0E0,0E0],"parents":[2147483647,0,0,1,1,2,2,3,3,4,4,5,5,6,6,7,7,10,10,13,13,14,14],"right_children":[2,4,6,8,10,12,14,16,-1,-1,18,-1,-1,20,22,-1,-1,-1,-1,-1,-1,-1,-1],"split_conditions":[3.65E-1,-3E-1,1.7E-1,-4E-1,1.6614586E-2,6.09E0,2.224E1,6.21E0,2.2651957E-1,-9.420748E-2,-1E-2,2.812245E-2,-7.310701E-2,-4E-2,2.013841E-2,3.6032602E-2,-4.7603916E-2,3.5849724E-2,-5.354845E-2,9.389194E-2,-5.9583288E-2,2.4589674E-1,8.645493E-2],"split_indices":[1,25,10,25,12,29,33,29,0,0,20,0,0,20,17,0,0,0,0,0,0,0,0],"split_type":[0,0,0,0,0,0,0,0,0,0,0,0,0,0,0,0,0,0,0,0,0,0,0],"sum_hessian":[1.1742533E2,9.553766E1,2.1887674E1,4.692602E1,4.8611637E1,3.333018E0,1.8554657E1,4.5598423E1,1.3275977E0,1.3641382E1,3.4970253E1,1.0090779E0,2.32394E0,1.3102049E1,5.4526086E0,2.788166E1,1.771676E1,1.3432435E1,2.1537819E1,1.1791537E1,1.3105114E0,1.1877229E0,4.2648854E0],"tree_param":{"num_deleted":"0","num_feature":"36","num_nodes":"23","size_leaf_vector":"1"}},{"base_weights":[5.910604E-3,3.8748375E-1,-3.9201596E-1,-5.048958E-1,5.2151614E-1,-5.643263E-1,1.7759092E-1,-8.926982E-2,1.072058E-1,6.2573326E-1,-5.5295503E-1,-6.5463734E-1,6.8099463E-1,1.6720393E0,-2.6069686E-1,1.3303058E-1,4.4222336E-2,2.1004763E-2,-7.9434715E-2,5.6526165E-2,-7.2320916E-2,-5.7682574E-2,1.6662063E-1,2.5834888E-1,-7.3353585E-4,-6.0949564E-2,1.2437295E-1],"categories":[],"categories_nodes":[],"categories_segments":[],"categories_sizes":[],"default_left":[0,0,0,0,0,0,0,0,0,0,0,0,0,0,0,0,0,0,0,0,0,0,0,0,0,0,0],"id":52,"left_children":[1,3,5,7,9,11,13,-1,-1,15,17,19,21,23,25,-1,-1,-1,-1,-1,-1,-1,-1,-1,-1,-1,-1],"loss_changes":[1.7461685E1,7.284234E0,5.626218E0,5.955368E0,6.115823E0,5.33418E0,9.498968E0,0E0,0E0,5.54545E0,1.1037357E0,3.8415031E0,5.2105317E0,5.0282984E0,6.826231E0,0E0,0E0,0E0,0E0,0E0,0E0,0E0,0E0,0E0,0E0,0E0,0E0],"parents":[2147483647,0,0,1,1,2,2,3,3,4,4,5,5,6,6,9,9,10,10,11,11,12,12,13,13,14,14],"right_children":[2,4,6,8,10,12,14,-1,-1,16,18,20,22,24,26,-1,-1,-1,-1,-1,-1,-1,-1,-1,-1,-1,-1],"split_conditions":[-1E-2,-1.8E-2,2.3768327E0,4E-2,2.2638E1,2.267E2,3E0,-8.926982E-2,1.072058E-1,6.429E1,-4E-2,6.327E1,2.65E-1,2.0150544E-2,4.994052E-1,1.3303058E-1,4.4222336E-2,2.1004763E-2,-7.9434715E-2,5.6526165E-2,-7.2320916E-2,-5.7682574E-2,1.6662063E-1,2.5834888E-1,-7.3353585E-4,-6.0949564E-2,1.2437295E-1],"split_indices":[30,15,22,20,31,21,2,0,0,9,20,9,13,12,7,0,0,0,0,0,0,0,0,0,0,0,0],"split_type":[0,0,0,0,0,0,0,0,0,0,0,0,0,0,0,0,0,0,0,0,0,0,0,0,0,0,0],"sum_hessian":[1.130016E2,5.769955E1,5.530205E1,7.173286E0,5.0526264E1,4.2465263E1,1.2836786E1,6.105692E0,1.0675939E0,4.643955E1,4.086713E0,4.003615E1,2.4291117E0,2.2726614E0,1.0564125E1,8.30477E0,3.813478E1,1.0133913E0,3.0733218E0,1.7452172E0,3.8290936E1,1.2490125E0,1.1800992E0,1.1241736E0,1.1484878E0,9.058736E0,1.5053883E0],"tree_param":{"num_deleted":"0","num_feature":"36","num_nodes":"27","size_leaf_vector":"1"}},{"base_weights":[-3.1440777E-3,-1.8549788E-1,7.8312564E-1,-3.7079257E-1,2.073574E-1,-3.9798033E-1,1.0067536E0,-9.27045E-2,-1.9285628E-1,-5.5700785E-1,6.555738E-1,-7.090402E-2,2.8387932E-2,1.1005349E0,-4.969078E-4,-9.171747E-2,-1.4730416E-3,-9.050408E-2,1.7454691E-2,-6.900295E-2,1.0180243E-1,8.3915725E-2,1.757908E-1],"categories":[],"categories_nodes":[],"categories_segments":[],"categories_sizes":[],"default_left":[0,0,0,0,0,0,0,0,0,0,0,0,0,0,0,0,0,0,0,0,0,0,0],"id":53,"left_children":[1,3,5,7,9,11,13,-1,15,17,19,-1,-1,21,-1,-1,-1,-1,-1,-1,-1,-1,-1],"loss_changes":[1.6240952E1,6.7691245E0,6.033352E0,6.0397854E0,1.0679436E1,1.0733552E0,1.7336197E0,0E0,6.290907E0,3.1289313E0,1.0182127E1,0E0,0E0,1.3896942E0,0E0,0E0,0E0,0E0,0E0,0E0,0E0,0E0,0E0],"parents":[2147483647,0,0,1,1,2,2,3,3,4,4,5,5,6,6,8,8,9,9,10,10,13,13],"right_children":[2,4,6,8,10,12,14,-1,16,18,20,-1,-1,22,-1,-1,-1,-1,-1,-1,-1,-1,-1],"split_conditions":[3.65E-1,2.226507E0,1.7E-1,-1.3E-2,6.05E0,4.6776062E-1,0E0,-9.27045E-2,-3.8E-1,2.3094011E-2,2.066E2,-7.090402E-2,2.8387932E-2,3.01E0,-4.969078E-4,-9.171747E-2,-1.4730416E-3,-9.050408E-2,1.7454691E-2,-6.900295E-2,1.0180243E-1,8.3915725E-2,1.757908E-1],"split_indices":[1,22,10,15,28,7,35,0,10,27,24,0,0,18,0,0,0,0,0,0,0,0,0],"split_type":[0,0,0,0,0,0,0,0,0,0,0,0,0,0,0,0,0,0,0,0,0,0,0],"sum_hessian":[1.1125949E2,9.093393E1,2.0325565E1,6.182814E1,2.9105791E1,3.11163E0,1.7213936E1,1.3964205E1,4.7863934E1,1.066889E1,1.84369E1,2.1094503E0,1.0021796E0,1.5673318E1,1.5406168E0,8.628518E0,3.9235416E1,7.068802E0,3.6000884E0,3.7205417E0,1.4716358E1,1.2843252E1,2.8300662E0],"tree_param":{"num_deleted":"0","num_feature":"36","num_nodes":"23","size_leaf_vector":"1"}},{"base_weights":[-3.2355163E-2,8.696382E-1,-1.6987094E-1,-1.7635197E-4,9.633774E-2,3.0732626E-1,-3.106324E-1,3.008682E-2,1.6016768E0,-6.655043E-1,-5.8542017E-2,5.7970274E-2,-6.05351E-2,2.2588842E-1,3.8745306E-2,6.9320835E-2,-7.347238E-2,1.6724555E-2,-7.941129E-2],"categories":[],"categories_nodes":[],"categories_segments":[],"categories_sizes":[],"default_left":[0,0,0,0,0,0,0,0,0,0,0,0,0,0,0,0,0,0,0],"id":54,"left_children":[1,3,5,-1,-1,7,9,11,13,15,17,-1,-1,-1,-1,-1,-1,-1,-1],"loss_changes":[1.36650505E1,1.1926508E0,6.5033836E0,0E0,0E0,7.9298935E0,6.5957747E0,7.1017985E0,2.239254E0,3.397234E0,7.516533E0,0E0,0E0,0E0,0E0,0E0,0E0,0E0,0E0],"parents":[2147483647,0,0,1,1,2,2,5,5,6,6,7,7,8,8,9,9,10,10],"right_children":[2,4,6,-1,-1,8,10,12,14,16,18,-1,-1,-1,-1,-1,-1,-1,-1],"split_conditions":[-7E-2,4.2425883E-1,6.429E1,-1.7635197E-4,9.633774E-2,6.383E1,1.9122123E0,3.281E0,2.270585E-2,5.53E0,2.1692E2,5.7970274E-2,-6.05351E-2,2.2588842E-1,3.8745306E-2,6.9320835E-2,-7.347238E-2,1.6724555E-2,-7.941129E-2],"split_indices":[20,7,9,0,0,0,22,16,17,4,21,0,0,0,0,0,0,0,0],"split_type":[0,0,0,0,0,0,0,0,0,0,0,0,0,0,0,0,0,0,0],"sum_hessian":[1.07977005E2,1.3579889E1,9.439712E1,1.4142431E0,1.2165646E1,2.123267E1,7.3164444E1,1.8329815E1,2.902854E0,2.9706362E1,4.3458084E1,9.875664E0,8.454151E0,1.3252178E0,1.5776361E0,1.003039E0,2.8703323E1,3.3842556E1,9.615529E0],"tree_param":{"num_deleted":"0","num_feature":"36","num_nodes":"19","size_leaf_vector":"1"}},{"base_weights":[1.2504587E-1,-1.0185592E-1,5.758803E-1,-1.0079889E-2,-8.9449435E-2,7.434729E-1,-5.8791625E-1,2.5913233E-1,-3.0882627E-1,1.1897503E0,1.6507907E-1,6.8571083E-3,-7.720972E-2,8.923893E-2,-3.893561E-2,8.5154675E-2,-4.5836788E-2,2.75278E-1,8.060613E-2,-5.9591126E-2,7.807521E-2],"categories":[],"categories_nodes":[],"categories_segments":[],"categories_sizes":[],"default_left":[0,0,0,0,0,0,0,0,0,0,0,0,0,0,0,0,0,0,0,0,0],"id":55,"left_children":[1,3,5,7,-1,9,11,13,15,17,19,-1,-1,-1,-1,-1,-1,-1,-1,-1,-1],"loss_changes":[1.1207282E1,5.3266377E0,7.5830584E0,5.4482565E0,0E0,8.184225E0,6.7809784E-1,1.49886465E1,5.9594817E0,8.675383E0,7.634439E0,0E0,0E0,0E0,0E0,0E0,0E0,0E0,0E0,0E0,0E0],"parents":[2147483647,0,0,1,1,2,2,3,3,5,5,6,6,7,7,8,8,9,9,10,10],"right_children":[2,4,6,8,-1,10,12,14,16,18,20,-1,-1,-1,-1,-1,-1,-1,-1,-1,-1],"split_conditions":[6.2E-1,3.7E0,3.41E0,1.946621E-2,-8.9449435E-2,5.99E0,-3.2E0,1.95789E-2,2.204E1,1.4639748E0,6.33E0,6.8571083E-3,-7.720972E-2,8.923893E-2,-3.893561E-2,8.5154675E-2,-4.5836788E-2,2.75278E-1,8.060613E-2,-5.9591126E-2,7.807521E-2],"split_indices":[10,25,2,12,0,4,25,27,5,22,29,0,0,0,0,0,0,0,0,0,0],"split_type":[0,0,0,0,0,0,0,0,0,0,0,0,0,0,0,0,0,0,0,0,0],"sum_hessian":[1.079849E2,7.234716E1,3.563774E1,6.574729E1,6.5998654E0,3.1467438E1,4.170305E0,3.4652843E1,3.109445E1,1.7165716E1,1.4301722E1,1.051188E0,3.119117E0,1.734203E1,1.7310812E1,3.0138679E0,2.8080582E1,2.1663141E0,1.4999402E1,6.4103875E0,7.891334E0],"tree_param":{"num_deleted":"0","num_feature":"36","num_nodes":"21","size_leaf_vector":"1"}},{"base_weights":[-1.5794449E-2,5.9153473E-1,-1.9342344E-1,-2.9299262E-1,9.078561E-1,-3.4477517E-1,2.4162641E-1,-8.119028E-2,5.3574055E-1,-4.774905E-3,1.0094821E0,-4.7755167E-1,8.6422944E-1,1.001528E0,-2.6634595E-1,-1.0725343E-2,1.0234894E-1,1.5091136E-1,6.730443E-2,-5.432729E-2,7.172578E-2,-9.450349E-3,1.916035E-1,1.9139825E-1,-1.7379647E-2,-6.704839E-2,5.8817502E-2],"categories":[],"categories_nodes":[],"categories_segments":[],"categories_sizes":[],"default_left":[0,0,0,0,0,0,0,0,0,0,0,0,0,0,0,0,0,0,0,0,0,0,0,0,0,0,0],"id":56,"left_children":[1,3,5,7,9,11,13,-1,15,-1,17,19,21,23,25,-1,-1,-1,-1,-1,-1,-1,-1,-1,-1,-1,-1],"loss_changes":[1.1611531E1,7.082673E0,5.5623655E0,3.5199E0,1.8146648E0,1.0388832E1,8.783989E0,0E0,1.1649973E0,0E0,1.7555466E0,4.8373156E0,6.7413034E0,1.0038496E1,5.2341995E0,0E0,0E0,0E0,0E0,0E0,0E0,0E0,0E0,0E0,0E0,0E0,0E0],"parents":[2147483647,0,0,1,1,2,2,3,3,4,4,5,5,6,6,8,8,10,10,11,11,12,12,13,13,14,14],"right_children":[2,4,6,8,10,12,14,-1,16,-1,18,20,22,24,26,-1,-1,-1,-1,-1,-1,-1,-1,-1,-1,-1,-1],"split_conditions":[-3E-2,3.09E-1,4.6530277E-1,2.573368E-2,-2.8E-1,2.274E1,6.08E0,-8.119028E-2,2.1181E2,-4.774905E-3,1.8629725E0,6.58E0,2E-2,5.1529926E-1,6.718E1,-1.0725343E-2,1.0234894E-1,1.5091136E-1,6.730443E-2,-5.432729E-2,7.172578E-2,-9.450349E-3,1.916035E-1,1.9139825E-1,-1.7379647E-2,-6.704839E-2,5.8817502E-2],"split_indices":[35,1,7,17,10,34,29,0,21,0,22,28,35,7,0,0,0,0,0,0,0,0,0,0,0,0,0],"split_type":[0,0,0,0,0,0,0,0,0,0,0,0,0,0,0,0,0,0,0,0,0,0,0,0,0,0,0],"sum_hessian":[1.055739E2,2.3363129E1,8.221077E1,6.1736217E0,1.7189508E1,6.114591E1,2.1064861E1,3.8089569E0,2.3646648E0,1.703297E0,1.5486211E1,5.5640327E1,5.505582E0,8.050336E0,1.3014525E1,1.3565047E0,1.0081601E0,4.8291116E0,1.0657099E1,5.3256237E1,2.3840883E0,3.3563662E0,2.1492157E0,4.178172E0,3.872164E0,8.981958E0,4.032567E0],"tree_param":{"num_deleted":"0","num_feature":"36","num_nodes":"27","size_leaf_vector":"1"}},{"base_weights":[7.4234046E-2,5.76587E-1,-9.561135E-2,7.9738724E-1,-5.3966063E-1,-8.459887E-3,-9.064133E-2,4.6205768E-1,1.8862077E0,-7.375094E-2,9.476985E-3,-8.6196974E-2,6.835786E-2,8.336294E-2,-4.114067E-2,3.7548155E-2,2.977879E-1,1.6349517E-1,-7.873126E-4],"categories":[],"categories_nodes":[],"categories_segments":[],"categories_sizes":[],"default_left":[0,0,0,0,0,0,0,0,0,0,0,0,0,0,0,0,0,0,0],"id":57,"left_children":[1,3,5,7,9,11,-1,13,15,-1,-1,-1,17,-1,-1,-1,-1,-1,-1],"loss_changes":[9.123523E0,7.0842476E0,5.665602E0,7.5050726E0,7.0436525E-1,4.878185E0,0E0,6.46565E0,7.255884E0,0E0,0E0,0E0,8.176767E0,0E0,0E0,0E0,0E0,0E0,0E0],"parents":[2147483647,0,0,1,1,2,2,3,3,4,4,5,5,7,7,8,8,12,12],"right_children":[2,4,6,8,10,12,-1,14,16,-1,-1,-1,18,-1,-1,-1,-1,-1,-1],"split_conditions":[-3E-2,2.127E2,3.7E0,2.083E2,6.771E1,2.89E-1,-9.064133E-2,2.025E2,-5E-2,-7.375094E-2,9.476985E-3,-8.6196974E-2,2.94E-1,8.336294E-2,-4.114067E-2,3.7548155E-2,2.977879E-1,1.6349517E-1,-7.873126E-4],"split_indices":[20,23,25,23,9,14,0,3,20,0,0,0,14,0,0,0,0,0,0],"split_type":[0,0,0,0,0,0,0,0,0,0,0,0,0,0,0,0,0,0,0],"sum_hessian":[1.05283936E2,2.5997162E1,7.928677E1,2.194247E1,4.0546923E0,7.2503914E1,6.782865E0,1.7864893E1,4.0775766E0,2.9669626E0,1.0877298E0,5.1427426E0,6.736117E1,1.2565245E1,5.299649E0,2.274259E0,1.8033174E0,2.1769137E0,6.518426E1],"tree_param":{"num_deleted":"0","num_feature":"36","num_nodes":"19","size_leaf_vector":"1"}},{"base_weights":[-5.1596016E-2,-3.7601775E-1,4.5912927E-1,-5.5541855E-1,1.6370046E-1,7.6255554E-1,-3.4026605E-1,3.912121E-1,-6.7577124E-1,1.1900684E0,-2.0606686E-1,-5.1195043E-1,9.533048E-1,8.5028875E-1,-6.928327E-1,1.1271941E-1,-3.163315E-2,-2.0903773E-3,-7.8559406E-2,-5.3395774E-2,1.9797239E-1,-8.489785E-2,2.483275E-2,9.388606E-3,-7.336959E-2,-5.5524986E-2,1.0427505E-1,1.9322256E-2,1.1128421E-1,-9.153668E-2,3.4814965E-2],"categories":[],"categories_nodes":[],"categories_segments":[],"categories_sizes":[],"default_left":[0,0,0,0,0,0,0,0,0,0,0,0,0,0,0,0,0,0,0,0,0,0,0,0,0,0,0,0,0,0,0],"id":58,"left_children":[1,3,5,7,9,11,13,15,17,19,21,23,25,27,29,-1,-1,-1,-1,-1,-1,-1,-1,-1,-1,-1,-1,-1,-1,-1,-1],"loss_changes":[1.7017023E1,6.1638355E0,9.94767E0,5.6533146E0,6.476641E0,7.6017017E0,