tree
version=v4
num_class=1
num_tree_per_iteration=1
label_index=0
max_feature_idx=574
objective=regression
feature_names=engine_temp coolant_temp rpm engine_load_pct engine_hours idle_hours fuel_consumption_rate oil_pressure hydraulic_pressure fuel_pressure brake_pressure suspension_pressure battery_voltage alternator_voltage current_draw vibration_x vibration_y vibration_z vibration_rms bearing_temp transmission_temp ambient_temp humidity road_gradient vehicle_speed payload_weight payload_capacity carryback_pct brake_temp health_score previous_failure_count maintenance_age_hours gps_lat gps_lon oil_pressure_rmean_5 oil_pressure_rstd_5 oil_pressure_rmin_5 oil_pressure_rmax_5 oil_pressure_rmean_10 oil_pressure_rstd_10 oil_pressure_rmin_10 oil_pressure_rmax_10 oil_pressure_rmean_20 oil_pressure_rstd_20 oil_pressure_rmin_20 oil_pressure_rmax_20 oil_pressure_roc_5 oil_pressure_lag5 oil_pressure_roc_10 oil_pressure_lag10 oil_pressure_roc_20 oil_pressure_lag20 oil_pressure_ema hydraulic_pressure_rmean_5 hydraulic_pressure_rstd_5 hydraulic_pressure_rmin_5 hydraulic_pressure_rmax_5 hydraulic_pressure_rmean_10 hydraulic_pressure_rstd_10 hydraulic_pressure_rmin_10 hydraulic_pressure_rmax_10 hydraulic_pressure_rmean_20 hydraulic_pressure_rstd_20 hydraulic_pressure_rmin_20 hydraulic_pressure_rmax_20 hydraulic_pressure_roc_5 hydraulic_pressure_lag5 hydraulic_pressure_roc_10 hydraulic_pressure_lag10 hydraulic_pressure_roc_20 hydraulic_pressure_lag20 hydraulic_pressure_ema fuel_pressure_rmean_5 fuel_pressure_rstd_5 fuel_pressure_rmin_5 fuel_pressure_rmax_5 fuel_pressure_rmean_10 fuel_pressure_rstd_10 fuel_pressure_rmin_10 fuel_pressure_rmax_10 fuel_pressure_rmean_20 fuel_pressure_rstd_20 fuel_pressure_rmin_20 fuel_pressure_rmax_20 fuel_pressure_roc_5 fuel_pressure_lag5 fuel_pressure_roc_10 fuel_pressure_lag10 fuel_pressure_roc_20 fuel_pressure_lag20 fuel_pressure_ema brake_pressure_rmean_5 brake_pressure_rstd_5 brake_pressure_rmin_5 brake_pressure_rmax_5 brake_pressure_rmean_10 brake_pressure_rstd_10 brake_pressure_rmin_10 brake_pressure_rmax_10 brake_pressure_rmean_20 brake_pressure_rstd_20 brake_pressure_rmin_20 brake_pressure_rmax_20 brake_pressure_roc_5 brake_pressure_lag5 brake_pressure_roc_10 brake_pressure_lag10 brake_pressure_roc_20 brake_pressure_lag20 brake_pressure_ema suspension_pressure_rmean_5 suspension_pressure_rstd_5 suspension_pressure_rmin_5 suspension_pressure_rmax_5 suspension_pressure_rmean_10 suspension_pressure_rstd_10 suspension_pressure_rmin_10 suspension_pressure_rmax_10 suspension_pressure_rmean_20 suspension_pressure_rstd_20 suspension_pressure_rmin_20 suspension_pressure_rmax_20 suspension_pressure_roc_5 suspension_pressure_lag5 suspension_pressure_roc_10 suspension_pressure_lag10 suspension_pressure_roc_20 suspension_pressure_lag20 suspension_pressure_ema battery_voltage_rmean_5 battery_voltage_rstd_5 battery_voltage_rmin_5 battery_voltage_rmax_5 battery_voltage_rmean_10 battery_voltage_rstd_10 battery_voltage_rmin_10 battery_voltage_rmax_10 battery_voltage_rmean_20 battery_voltage_rstd_20 battery_voltage_rmin_20 battery_voltage_rmax_20 battery_voltage_roc_5 battery_voltage_lag5 battery_voltage_roc_10 battery_voltage_lag10 battery_voltage_roc_20 battery_voltage_lag20 battery_voltage_ema alternator_voltage_rmean_5 alternator_voltage_rstd_5 alternator_voltage_rmin_5 alternator_voltage_rmax_5 alternator_voltage_rmean_10 alternator_voltage_rstd_10 alternator_voltage_rmin_10 alternator_voltage_rmax_10 alternator_voltage_rmean_20 alternator_voltage_rstd_20 alternator_voltage_rmin_20 alternator_voltage_rmax_20 alternator_voltage_roc_5 alternator_voltage_lag5 alternator_voltage_roc_10 alternator_voltage_lag10 alternator_voltage_roc_20 alternator_voltage_lag20 alternator_voltage_ema current_draw_rmean_5 current_draw_rstd_5 current_draw_rmin_5 current_draw_rmax_5 current_draw_rmean_10 current_draw_rstd_10 current_draw_rmin_10 current_draw_rmax_10 current_draw_rmean_20 current_draw_rstd_20 current_draw_rmin_20 current_draw_rmax_20 current_draw_roc_5 current_draw_lag5 current_draw_roc_10 current_draw_lag10 current_draw_roc_20 current_draw_lag20 current_draw_ema vibration_x_rmean_5 vibration_x_rstd_5 vibration_x_rmin_5 vibration_x_rmax_5 vibration_x_rmean_10 vibration_x_rstd_10 vibration_x_rmin_10 vibration_x_rmax_10 vibration_x_rmean_20 vibration_x_rstd_20 vibration_x_rmin_20 vibration_x_rmax_20 vibration_x_roc_5 vibration_x_lag5 vibration_x_roc_10 vibration_x_lag10 vibration_x_roc_20 vibration_x_lag20 vibration_x_ema vibration_y_rmean_5 vibration_y_rstd_5 vibration_y_rmin_5 vibration_y_rmax_5 vibration_y_rmean_10 vibration_y_rstd_10 vibration_y_rmin_10 vibration_y_rmax_10 vibration_y_rmean_20 vibration_y_rstd_20 vibration_y_rmin_20 vibration_y_rmax_20 vibration_y_roc_5 vibration_y_lag5 vibration_y_roc_10 vibration_y_lag10 vibration_y_roc_20 vibration_y_lag20 vibration_y_ema vibration_z_rmean_5 vibration_z_rstd_5 vibration_z_rmin_5 vibration_z_rmax_5 vibration_z_rmean_10 vibration_z_rstd_10 vibration_z_rmin_10 vibration_z_rmax_10 vibration_z_rmean_20 vibration_z_rstd_20 vibration_z_rmin_20 vibration_z_rmax_20 vibration_z_roc_5 vibration_z_lag5 vibration_z_roc_10 vibration_z_lag10 vibration_z_roc_20 vibration_z_lag20 vibration_z_ema vibration_rms_rmean_5 vibration_rms_rstd_5 vibration_rms_rmin_5 vibration_rms_rmax_5 vibration_rms_rmean_10 vibration_rms_rstd_10 vibration_rms_rmin_10 vibration_rms_rmax_10 vibration_rms_rmean_20 vibration_rms_rstd_20 vibration_rms_rmin_20 vibration_rms_rmax_20 vibration_rms_roc_5 vibration_rms_lag5 vibration_rms_roc_10 vibration_rms_lag10 vibration_rms_roc_20 vibration_rms_lag20 vibration_rms_ema bearing_temp_rmean_5 bearing_temp_rstd_5 bearing_temp_rmin_5 bearing_temp_rmax_5 bearing_temp_rmean_10 bearing_temp_rstd_10 bearing_temp_rmin_10 bearing_temp_rmax_10 bearing_temp_rmean_20 bearing_temp_rstd_20 bearing_temp_rmin_20 bearing_temp_rmax_20 bearing_temp_roc_5 bearing_temp_lag5 bearing_temp_roc_10 bearing_temp_lag10 bearing_temp_roc_20 bearing_temp_lag20 bearing_temp_ema transmission_temp_rmean_5 transmission_temp_rstd_5 transmission_temp_rmin_5 transmission_temp_rmax_5 transmission_temp_rmean_10 transmission_temp_rstd_10 transmission_temp_rmin_10 transmission_temp_rmax_10 transmission_temp_rmean_20 transmission_temp_rstd_20 transmission_temp_rmin_20 transmission_temp_rmax_20 transmission_temp_roc_5 transmission_temp_lag5 transmission_temp_roc_10 transmission_temp_lag10 transmission_temp_roc_20 transmission_temp_lag20 transmission_temp_ema engine_temp_rmean_5 engine_temp_rstd_5 engine_temp_rmin_5 engine_temp_rmax_5 engine_temp_rmean_10 engine_temp_rstd_10 engine_temp_rmin_10 engine_temp_rmax_10 engine_temp_rmean_20 engine_temp_rstd_20 engine_temp_rmin_20 engine_temp_rmax_20 engine_temp_roc_5 engine_temp_lag5 engine_temp_roc_10 engine_temp_lag10 engine_temp_roc_20 engine_temp_lag20 engine_temp_ema coolant_temp_rmean_5 coolant_temp_rstd_5 coolant_temp_rmin_5 coolant_temp_rmax_5 coolant_temp_rmean_10 coolant_temp_rstd_10 coolant_temp_rmin_10 coolant_temp_rmax_10 coolant_temp_rmean_20 coolant_temp_rstd_20 coolant_temp_rmin_20 coolant_temp_rmax_20 coolant_temp_roc_5 coolant_temp_lag5 coolant_temp_roc_10 coolant_temp_lag10 coolant_temp_roc_20 coolant_temp_lag20 coolant_temp_ema brake_temp_rmean_5 brake_temp_rstd_5 brake_temp_rmin_5 brake_temp_rmax_5 brake_temp_rmean_10 brake_temp_rstd_10 brake_temp_rmin_10 brake_temp_rmax_10 brake_temp_rmean_20 brake_temp_rstd_20 brake_temp_rmin_20 brake_temp_rmax_20 brake_temp_roc_5 brake_temp_lag5 brake_temp_roc_10 brake_temp_lag10 brake_temp_roc_20 brake_temp_lag20 brake_temp_ema rpm_rmean_5 rpm_rstd_5 rpm_rmin_5 rpm_rmax_5 rpm_rmean_10 rpm_rstd_10 rpm_rmin_10 rpm_rmax_10 rpm_rmean_20 rpm_rstd_20 rpm_rmin_20 rpm_rmax_20 rpm_roc_5 rpm_lag5 rpm_roc_10 rpm_lag10 rpm_roc_20 rpm_lag20 rpm_ema engine_load_pct_rmean_5 engine_load_pct_rstd_5 engine_load_pct_rmin_5 engine_load_pct_rmax_5 engine_load_pct_rmean_10 engine_load_pct_rstd_10 engine_load_pct_rmin_10 engine_load_pct_rmax_10 engine_load_pct_rmean_20 engine_load_pct_rstd_20 engine_load_pct_rmin_20 engine_load_pct_rmax_20 engine_load_pct_roc_5 engine_load_pct_lag5 engine_load_pct_roc_10 engine_load_pct_lag10 engine_load_pct_roc_20 engine_load_pct_lag20 engine_load_pct_ema fuel_consumption_rate_rmean_5 fuel_consumption_rate_rstd_5 fuel_consumption_rate_rmin_5 fuel_consumption_rate_rmax_5 fuel_consumption_rate_rmean_10 fuel_consumption_rate_rstd_10 fuel_consumption_rate_rmin_10 fuel_consumption_rate_rmax_10 fuel_consumption_rate_rmean_20 fuel_consumption_rate_rstd_20 fuel_consumption_rate_rmin_20 fuel_consumption_rate_rmax_20 fuel_consumption_rate_roc_5 fuel_consumption_rate_lag5 fuel_consumption_rate_roc_10 fuel_consumption_rate_lag10 fuel_consumption_rate_roc_20 fuel_consumption_rate_lag20 fuel_consumption_rate_ema ambient_temp_rmean_5 ambient_temp_rstd_5 ambient_temp_rmin_5 ambient_temp_rmax_5 ambient_temp_rmean_10 ambient_temp_rstd_10 ambient_temp_rmin_10 ambient_temp_rmax_10 ambient_temp_rmean_20 ambient_temp_rstd_20 ambient_temp_rmin_20 ambient_temp_rmax_20 ambient_temp_roc_5 ambient_temp_lag5 ambient_temp_roc_10 ambient_temp_lag10 ambient_temp_roc_20 ambient_temp_lag20 ambient_temp_ema humidity_rmean_5 humidity_rstd_5 humidity_rmin_5 humidity_rmax_5 humidity_rmean_10 humidity_rstd_10 humidity_rmin_10 humidity_rmax_10 humidity_rmean_20 humidity_rstd_20 humidity_rmin_20 humidity_rmax_20 humidity_roc_5 humidity_lag5 humidity_roc_10 humidity_lag10 humidity_roc_20 humidity_lag20 humidity_ema road_gradient_rmean_5 road_gradient_rstd_5 road_gradient_rmin_5 road_gradient_rmax_5 road_gradient_rmean_10 road_gradient_rstd_10 road_gradient_rmin_10 road_gradient_rmax_10 road_gradient_rmean_20 road_gradient_rstd_20 road_gradient_rmin_20 road_gradient_rmax_20 road_gradient_roc_5 road_gradient_lag5 road_gradient_roc_10 road_gradient_lag10 road_gradient_roc_20 road_gradient_lag20 road_gradient_ema vehicle_speed_rmean_5 vehicle_speed_rstd_5 vehicle_speed_rmin_5 vehicle_speed_rmax_5 vehicle_speed_rmean_10 vehicle_speed_rstd_10 vehicle_speed_rmin_10 vehicle_speed_rmax_10 vehicle_speed_rmean_20 vehicle_speed_rstd_20 vehicle_speed_rmin_20 vehicle_speed_rmax_20 vehicle_speed_roc_5 vehicle_speed_lag5 vehicle_speed_roc_10 vehicle_speed_lag10 vehicle_speed_roc_20 vehicle_speed_lag20 vehicle_speed_ema payload_weight_rmean_5 payload_weight_rstd_5 payload_weight_rmin_5 payload_weight_rmax_5 payload_weight_rmean_10 payload_weight_rstd_10 payload_weight_rmin_10 payload_weight_rmax_10 payload_weight_rmean_20 payload_weight_rstd_20 payload_weight_rmin_20 payload_weight_rmax_20 payload_weight_roc_5 payload_weight_lag5 payload_weight_roc_10 payload_weight_lag10 payload_weight_roc_20 payload_weight_lag20 payload_weight_ema carryback_pct_rmean_5 carryback_pct_rstd_5 carryback_pct_rmin_5 carryback_pct_rmax_5 carryback_pct_rmean_10 carryback_pct_rstd_10 carryback_pct_rmin_10 carryback_pct_rmax_10 carryback_pct_rmean_20 carryback_pct_rstd_20 carryback_pct_rmin_20 carryback_pct_rmax_20 carryback_pct_roc_5 carryback_pct_lag5 carryback_pct_roc_10 carryback_pct_lag10 carryback_pct_roc_20 carryback_pct_lag20 carryback_pct_ema health_score_rmean_5 health_score_rstd_5 health_score_rmin_5 health_score_rmax_5 health_score_rmean_10 health_score_rstd_10 health_score_rmin_10 health_score_rmax_10 health_score_rmean_20 health_score_rstd_20 health_score_rmin_20 health_score_rmax_20 health_score_roc_5 health_score_lag5 health_score_roc_10 health_score_lag10 health_score_roc_20 health_score_lag20 health_score_ema temp_vib_cascade oil_hyd_ratio temp_oil_stress susp_vib_cross bearing_vib_product power_proxy speed_load_ratio load_temp_stress health_drop_per_hour material_type_coal material_type_copper_ore material_type_iron_ore material_type_limestone material_type_overburden gps_zone_crusher gps_zone_haul_road_a gps_zone_haul_road_b gps_zone_pit_north gps_zone_pit_south gps_zone_stockpile operator_id_OP_001 operator_id_OP_002 operator_id_OP_003 operator_id_OP_004 operator_id_OP_005 operator_id_OP_006 op_state_hauling op_state_loading_dumping
feature_infos=[86.079999999999998:617.44731905561571] [79.260000000000005:139.06999999999999] [1428.5:2138.3000000000002] [43.579999999999998:86.120000000000005] [2062.1300000000001:5610.7700000000004] [0.0083000000000000001:0.0161] [37.740000000000002:60.140000000000001] [-0.82610975367596684:17.860457008980294] [81.454490585726944:800.15160025639602] [2.54:4.6299999999999999] [5.5199999999999996:7.6399999999999997] [2.3599999999999999:7.0700000000000003] [18.288646468300321:116.536510585372] [24.760000000000002:29.989999999999998] [19.359999999999999:34.039999999999999] [0.096100000000000005:1.7161999999999999] [0.13819999999999999:1.8560000000000001] [0.14349999999999999:2.0384000000000002] [0.2185:5.02140356654116] [71.299999999999997:141.78] [74.549999999999997:119.89] [25.030000000000001:34.479999999999997] [30.699999999999999:53.700000000000003] [-14.81:14.890000000000001] [2:52.460000000000001] [0:46.039999999999999] none [0.73999999999999999:10.039999999999999] [85.209999999999994:168.69] [27.050000000000001:100] [0:5] [37.100000000000001:795.70000000000005] [23.714559999999999:23.782319999999999] [86.387249999999995:86.456270000000004] [-0.74535353169968155:6.7852990205699033] [0.0068415941168586611:6.1993903767667833] [-0.82610975367596684:4.4972042042688329] [-0.70184108774711085:17.860457008980294] [-0.57446297675896818:5.4891882571462585] [0.020687686549850225:4.4054511867697892] [-0.82610975367596684:4.4490264948070619] [-0.19805997786568419:17.860457008980294] [0.14962295299352515:4.8944528417947657] [0.036454655897956531:3.1451307570402114] [-0.82610975367596684:4.3914088096249353] [0.51558476245231299:17.860457008980294] [-13.958046533166259:13.80484843785972] [-0.59708486577082542:17.860457008980294] [-14.049645580819529:13.863249390206452] [-0.1233037558893985:17.860457008980294] [-14.262843676126067:13.950051294899911] [0.46526495292165898:17.860457008980294] [-0.68997950686824472:8.1611438797377183] [88.634026902766038:301.19972887459591] [0.46011494216224913:283.15882128607717] [81.454490585726944:222.95054856608999] [91.129151342291763:800.15160025639602] [91.795370232410306:254.82825558322185] [1.1951034307917965:199.9117908424636] [81.454490585726944:218.66653904262265] [99.12427578181746:800.15160025639602] [97.45222481099529:245.1246162392184] [2.6663879125865653:160.3456076142262] [81.454490585726944:210.44415237547685] [107.45879815085604:800.15160025639602] [-625.28843164244449:630.33977537856197] [81.454490585726944:800.15160025639602] [-616.03107463802451:632.81544724662081] [89.247749257615538:790.54448797806538] [-522.41889830963828:629.16679098273823] [106.00542748680031:720.15397633051953] [89.544600761416959:361.17309572874512] [2.6479999999999997:4.5299999999999994] [0.013416407865009356:0.19506409203130937] [2.54:4.4900000000000002] [2.6899999999999999:4.7000000000000002] [2.7220000000000004:4.4909999999999997] [0.024244128727954898:0.26642489039544004] [2.54:4.4299999999999997] [2.8900000000000001:4.7000000000000002] [2.7835000000000001:4.4870000000000001] [0.039373381336821514:0.32370348680300265] [2.54:4.3899999999999997] [2.9199999999999999:4.7000000000000002] [-0.61999999999999966:0.38000000000000034] [2.6800000000000002:4.7000000000000002] [-0.83000000000000007:0.47999999999999998] [2.6800000000000002:4.7000000000000002] [-0.9700000000000002:0.31000000000000005] [2.7599999999999998:4.7000000000000002] [2.6851927526709787:4.5100102464293634] [5.702:7.5419999999999998] [0.01303840481003382:0.38022361841421859] [5.5199999999999996:7.5099999999999998] [5.7800000000000002:7.6399999999999997] [5.7299999999999995:7.4889999999999999] [0.027507574714390248:0.34092032304728409] [5.5199999999999996:7.3899999999999997] [5.8200000000000003:7.6399999999999997] [5.7509999999999994:7.4575000000000005] [0.056277040284273938:0.36911380358908191] [5.5199999999999996:7.2699999999999996] [5.8899999999999997:7.6399999999999997] [-0.52000000000000046:0.80999999999999961] [5.5199999999999996:7.6399999999999997] [-0.37000000000000011:0.94999999999999929] [5.5199999999999996:7.5999999999999996] [-0.58999999999999986:1.2399999999999993] [5.5199999999999996:7.5099999999999998] [5.6879124688973057:7.521006122274347] [2.4380000000000002:6.9879999999999995] [0.0083666002652662223:0.50101896171702953] [2.3599999999999999:6.9299999999999997] [2.4900000000000002:7.0700000000000003] [2.4729999999999999:7.0150000000000006] [0.022705848487894181:0.78729141858512719] [2.3599999999999999:6.9100000000000001] [2.5600000000000001:7.1100000000000003] [2.7120000000000002:6.9305000000000003] [0.040600751872718679:1.190715287017363] [2.3599999999999999:6.6299999999999999] [3.1400000000000001:7.1100000000000003] [-1.4799999999999995:0.75999999999999979] [2.4700000000000002:7.1100000000000003] [-2.4100000000000001:0.74000000000000021] [2.6699999999999999:7.1100000000000003] [-3.3999999999999999:0.82000000000000028] [3.2599999999999998:7.1100000000000003] [2.4557759431359241:6.9893064774939617] [18.60856514711346:42.827579526984451] [0.013127522869364106:41.224179789883344] [18.288646468300321:25.491960426245122] [18.74900710284308:116.536510585372] [18.714117591775484:33.63719252196335] [0.050289606715859886:29.190792219291627] [18.288646468300321:25.448179316363689] [18.941940022134315:116.536510585372] [19.007222481099529:29.031501819256981] [0.089262713109682382:20.674466712506199] [18.288646468300321:25.219154428458552] [19.625584762452316:116.536510585372] [-92.350611378322412:92.422821156970514] [18.632915134229169:116.536510585372] [-92.479506488998368:92.363926046294551] [18.887503619636234:116.536510585372] [-92.587296710350273:91.876135824942651] [19.36526495292166:116.536510585372] [18.627090067506686:52.001159651488024] [25.042000000000002:29.665999999999997] [0.01673320053063574:0.57273903306834306] [24.760000000000002:29.469999999999999] [25.219999999999999:29.989999999999998] [25.167999999999999:29.600000000000001] [0.069410213785624272:0.86424019295052701] [24.760000000000002:29.420000000000002] [25.43:29.989999999999998] [25.216000000000001:29.546499999999998] [0.106795426671253:1.1556456386389651] [24.760000000000002:29.34] [25.489999999999998:29.989999999999998] [-1.870000000000001:0.91000000000000014] [24.890000000000001:29.989999999999998] [-2.9200000000000017:1.0599999999999987] [24.960000000000001:29.989999999999998] [-3.5300000000000011:1] [25.219999999999999:29.989999999999998] [25.058590563167904:29.690112303146222] [20.315999999999999:33.124000000000002] [0.07085195833556332:1.9982242116439299] [19.359999999999999:32.560000000000002] [20.469999999999999:34.039999999999999] [20.536999999999999:32.789000000000001] [0.20532900428340703:1.7310513825097382] [19.359999999999999:32.149999999999999] [21.260000000000002:34.039999999999999] [21.112000000000002:32.441500000000005] [0.36370136679770271:2.2403791972272038] [19.359999999999999:31.399999999999999] [22.530000000000001:34.039999999999999] [-4.1000000000000014:4.1499999999999986] [19.359999999999999:34.039999999999999] [-4.0599999999999987:5.3299999999999983] [19.359999999999999:33.539999999999999] [-4.1799999999999997:6.5799999999999983] [19.359999999999999:32.780000000000001] [20.389333813270163:33.027829738920325] [0.21555999999999997:1.6059999999999999] [0.0056113278285976767:0.26503435060384206] [0.096100000000000005:1.5532999999999999] [0.2427:1.7161999999999999] [0.2447:1.5703499999999999] [0.013308460132980012:0.36086626023747048] [0.096100000000000005:1.5069999999999999] [0.29620000000000002:1.7161999999999999] [0.25562999999999997:1.53173] [0.024936700917153869:0.46511005251162724] [0.081799999999999998:1.4278999999999999] [0.3216:1.7161999999999999] [-0.24829999999999997:0.72989999999999988] [0.096100000000000005:1.649] [-0.21249999999999997:1.0329999999999999] [0.081799999999999998:1.649] [-0.18830000000000002:1.3116999999999999] [0.081799999999999998:1.387] [0.21834342375618951:1.5972075766742029] [0.21799999999999997:1.7724199999999999] [0.007839834181917615:0.23894193436900141] [0.13819999999999999:1.7293000000000001] [0.2427:1.8560000000000001] [0.24274999999999997:1.7477699999999998] [0.01825052815065286:0.38219009755181632] [0.13819999999999999:1.6959] [0.29299999999999998:1.8560000000000001] [0.248975:1.703265] [0.029111815289907431:0.54010473058472686] [0.084199999999999997:1.5763] [0.31719999999999998:1.8560000000000001] [-0.21989999999999998:0.75670000000000004] [0.13819999999999999:1.8169] [-0.20709999999999998:1.1267] [0.084199999999999997:1.7507999999999999] [-0.20589999999999997:1.5024] [0.084199999999999997:1.5589] [0.221369256167427:1.7653459705423571] [0.22339999999999999:1.9768000000000001] [0.0037396523902839852:0.27106700832082148] [0.14349999999999999:1.9200999999999999] [0.2586:2.0384000000000002] [0.24079999999999999:1.92665] [0.016201783166607645:0.40141286642724078] [0.14349999999999999:1.8368] [0.2853:2.0384000000000002] [0.25681499999999996:1.8664850000000002] [0.028350531416164872:0.57987357097542291] [0.14349999999999999:1.7312000000000001] [0.32640000000000002:2.0384000000000002] [-0.23169999999999996:0.73989999999999989] [0.14349999999999999:2.036] [-0.17249999999999999:1.2887] [0.14349999999999999:1.9227000000000001] [-0.22900000000000001:1.6463999999999999] [0.12939999999999999:1.7548999999999999] [0.23018341303662265:1.9534200964705364] [0.25884000000000001:2.3222407133082319] [0.0029228410836041182:1.7350561501132025] [0.21260000000000001:1.7439] [0.28160000000000002:5.02140356654116] [0.26542999999999994:2.017290356654116] [0.0076378007305767243:1.2993411858530772] [0.19400000000000001:1.71] [0.28299999999999997:5.02140356654116] [0.26726499999999997:1.8536901783270578] [0.016066313237722885:0.99259164153377821] [0.19400000000000001:1.5832999999999999] [0.30609999999999998:5.02140356654116] [-3.3742391182608582:4.1241391182608584] [0.21260000000000001:5.02140356654116] [-3.2446391182608583:4.420839118260858] [0.19400000000000001:5.02140356654116] [-0.78081922421474892:4.6093391182608583] [0.19400000000000001:1.548] [0.25919917697902395:2.5565043217391334] [72.626000000000005:137.57599999999999] [0.089554452708117044:9.3586286388549897] [71.299999999999997:136.69999999999999] [73.150000000000006:141.78] [73.211999999999989:136.79900000000001] [0.32817508876309331:15.874378937982696] [71.299999999999997:134.15000000000001] [74.269999999999996:141.78] [74.460499999999996:133.73650000000001] [0.78660429428611689:22.811660055192903] [68.719999999999999:130.52000000000001] [77.150000000000006:141.78] [-7.6200000000000045:29.090000000000003] [71.299999999999997:138.22] [-9.1000000000000085:49.779999999999987] [71.299999999999997:136.81] [-7.9399999999999977:61.140000000000001] [68.719999999999999:129.09] [72.757254494314637:137.44796883129956] [75.328000000000003:117.848] [0.24995999679979533:6.4536400581380402] [74.280000000000001:116.73] [76.659999999999997:119.89] [75.631:117.38500000000002] [0.40111511232259117:8.9918471714967243] [73.959999999999994:115.92] [77.159999999999997:119.89] [76.850499999999997:116.59349999999999] [0.67682132447436993:13.652341412835755] [72.329999999999998:114.11] [80.450000000000003:119.89] [-8.5799999999999983:17.939999999999998] [74.280000000000001:119.61] [-9.9699999999999989:29.5] [73.959999999999994:119.61] [-8.5600000000000023:39.890000000000001] [72.329999999999998:116.31999999999999] [75.353427676375247:118.09447520609781] [87.138000000000005:222.55946381112318] [0.19110206697233831:221.95640907700397] [85.909999999999997:128.30000000000001] [87.790000000000006:617.44731905561571] [87.847999999999999:171.60273190556157] [0.44479833133160113:157.05031579061861] [85.909999999999997:126.38] [90.060000000000002:617.44731905561571] [89.361500000000007:146.35136595278078] [0.75879735176972019:112.48633154928253] [79.400000000000006:125.08] [93.980000000000004:617.44731905561571] [-498.21731905561569:497.31731905561571] [85.909999999999997:617.44731905561571] [-496.43731905561572:501.50731905561571] [85.909999999999997:617.44731905561571] [-364.17488872945751:506.80731905561572] [79.030000000000001:457.06488872945749] [87.992778624527261:271.11909861510594] [79.599999999999994:137.672] [0.054772255746773003:8.2848850323950369] [78.739999999999995:136.13] [79.849999999999994:139.06999999999999] [80.091999999999999:137.57099999999997] [0.37261985394121622:12.460706462939974] [78.739999999999995:135.81] [81:139.06999999999999] [82.353999999999999:136.87] [0.70291030347929806:18.333735736413153] [73.439999999999998:134.38999999999999] [87.450000000000003:139.06999999999999] [-11.320000000000007:24.570000000000007] [78.739999999999995:139.06999999999999] [-10.659999999999997:37.359999999999999] [78.739999999999995:138.77000000000001] [-10.050000000000011:52.320000000000007] [72.140000000000001:135.58000000000001] [80.027788487695744:137.64665532023588] [92.711999999999989:164.87] [0.22465529150493233:17.81804338304303] [85.209999999999994:162.00999999999999] [95.040000000000006:168.69] [93.582000000000008:164.529] [0.90920050349474923:17.654106100910994] [85.209999999999994:159.28] [96.010000000000005:168.69] [94.1935:162.50300000000001] [1.6295297997952347:20.394144567291352] [82.260000000000005:155.72999999999999] [97.819999999999993:168.69] [-14.280000000000001:39.710000000000008] [85.209999999999994:168.69] [-12.469999999999999:44.399999999999991] [85.209999999999994:168.69] [-28.320000000000007:61.719999999999985] [82.260000000000005:161.30000000000001] [92.548201077221421:165.09304501087576] [1468.6600000000001:2079.3400000000001] [1.925616784290048:241.62535669916821] [1428.5:2047.4000000000001] [1500.5999999999999:2138.3000000000002] [1488.5:2056.4200000000001] [10.673768469171165:213.29265758055999] [1428.5:2003.3] [1523.3:2138.3000000000002] [1580.7599999999998:2029.7150000000001] [24.12099489525399:202.47965271393986] [1428.5:1965.5] [1661.4000000000001:2138.3000000000002] [-482.30000000000018:302.70000000000005] [1428.5:2138.3000000000002] [-464.49999999999977:326.50000000000023] [1428.5:2138.3000000000002] [-495.29999999999973:387] [1419.5999999999999:2128.6999999999998] [1496.3159727878217:2073.8248657407539] [46.506000000000007:82.933999999999997] [0.17441330224598928:11.805487283462773] [43.579999999999998:80.579999999999998] [48.399999999999999:86.120000000000005] [47.057000000000002:82.506999999999991] [0.8228027980294319:10.950631843769402] [43.579999999999998:79.840000000000003] [49.469999999999999:86.120000000000005] [48.4495:81.123000000000005] [1.2391995506438565:10.89619445881036] [43.579999999999998:78.390000000000001] [52.560000000000002:86.120000000000005] [-24.060000000000002:11.82] [43.579999999999998:86.120000000000005] [-25.189999999999998:17.599999999999994] [43.579999999999998:86.120000000000005] [-25.200000000000003:25.75] [43.579999999999998:86.120000000000005] [47.046611828081829:83.226546138439119] [40.603999999999999:58.624000000000002] [0.11067971810643429:6.3995492028735779] [37.740000000000002:57.880000000000003] [42:60.140000000000001] [41.167000000000002:58.129999999999995] [0.35070722198923038:5.599676677174152] [37.740000000000002:56.590000000000003] [42.670000000000002:60.140000000000001] [41.8705:57.095500000000001] [0.58426269326123892:7.3392459816351456] [33.649999999999999:55.5] [44.450000000000003:60.140000000000001] [-13.399999999999999:7.0799999999999983] [37.740000000000002:60.140000000000001] [-13.979999999999997:8.5600000000000023] [37.740000000000002:60.140000000000001] [-13.890000000000001:19.039999999999999] [33.649999999999999:60.140000000000001] [41.109803878860781:58.66683916768649] [26.673999999999999:31.981999999999999] [0.18261982367758312:2.391813119790088] [25.030000000000001:30.890000000000001] [27.460000000000001:34.479999999999997] [26.530000000000001:31.169] [0.36966050490801006:2.1374338196382499] [24.719999999999999:29.960000000000001] [28.010000000000002:34.479999999999997] [26.096499999999999:30.7195] [0.64512014384915772:1.8751263817056203] [22.640000000000001:29.030000000000001] [28.489999999999998:34.479999999999997] [-5.5300000000000011:6.0899999999999999] [25.030000000000001:34.479999999999997] [-5.8800000000000026:7.2199999999999989] [24.559999999999999:34.479999999999997] [-7.0299999999999976:7.25] [22.640000000000001:34.079999999999998] [26.660021055829368:31.672164412271236] [34.579999999999998:49.200000000000003] [0.29495762407406673:6.9647684814356712] [30.699999999999999:47.100000000000001] [37.100000000000001:53.700000000000003] [36.839999999999996:48.409999999999997] [1.0004998750621579:5.654310057135346] [30.699999999999999:44.799999999999997] [40.700000000000003:55.399999999999999] [37.875:49.135000000000005] [1.7040122930122883:4.801819830461203] [30.699999999999999:44.799999999999997] [42.299999999999997:57.100000000000001] [-17.099999999999994:15.099999999999998] [30.699999999999999:55.399999999999999] [-16.799999999999997:15.200000000000003] [30.699999999999999:55.399999999999999] [-20.399999999999999:16.5] [30.699999999999999:57.100000000000001] [35.526013541508057:49.004677639119336] [-6.5419999999999998:7.839999999999999] [0.37509998667023969:8.5191179120845604] [-14.81:5.4500000000000002] [-4.4800000000000004:14.890000000000001] [-4.7810000000000006:6.0449999999999999] [1.3773420457936756:7.2720720721278758] [-14.81:2.1000000000000001] [-1.3100000000000001:14.890000000000001] [-3.1124999999999998:5.2584999999999997] [2.1320913256829868:6.4350383591871871] [-14.81:0.41999999999999998] [2.1800000000000002:16.760000000000002] [-20.850000000000001:20.300000000000001] [-14.81:14.890000000000001] [-20.920000000000002:18.359999999999999] [-14.81:14.890000000000001] [-22.489999999999998:22.510000000000002] [-14.81:16.760000000000002] [-6.6582253489140584:8.0778038073298255] [2:47.589999999999996] [0:24.574853407497688] [2:44.490000000000002] [2:52.460000000000001] [2:46.960000000000001] [0:22.564688465732402] [2:43.43] [2:52.460000000000001] [12.925000000000001:45.120999999999995] [2.2366231595632846:22.388546290458464] [2:38.359999999999999] [32.649999999999999:52.460000000000001] [-48.32:30.139999999999997] [2:52.460000000000001] [-49.539999999999999:29.470000000000002] [2:52.460000000000001] [-50.460000000000001:31.25] [2:52.460000000000001] [2.2490182933761731:47.371787001944547] [0.056000000000000008:45.314] [0.030822070018758675:24.05950061825887] [0:45.060000000000002] [0.17000000000000001:46.039999999999999] [0.095000000000000001:45.227000000000004] [0.11469767023054592:23.076485000970148] [0:44.869999999999997] [0.37:46.079999999999998] [0.14849999999999999:45.141500000000001] [0.13168543059741725:22.416668727580969] [0:44.539999999999999] [0.82999999999999996:46.079999999999998] [-44.589999999999996:2.1299999999999999] [0:46.039999999999999] [-44.219999999999999:1.7199999999999998] [0:46.079999999999998] [-44.909999999999997:43.670000000000002] [0:46.079999999999998] [0.078156266556774573:45.227607015701793] [1.036:9.5220000000000002] [0.057706152185064211:1.5624755998094806] [0.51000000000000001:9.2200000000000006] [1.3899999999999999:10.039999999999999] [1.1640000000000001:9.3179999999999996] [0.13515834335244395:2.074037661717409] [0.51000000000000001:8.9900000000000002] [1.5600000000000001:10.039999999999999] [1.3530000000000002:9.0634999999999994] [0.18383273289654006:2.8983248791781713] [0.51000000000000001:8.4499999999999993] [1.96:10.039999999999999] [-1.4000000000000001:4.0299999999999994] [0.51000000000000001:9.9199999999999999] [-1.6399999999999999:6.4699999999999989] [0.51000000000000001:9.9199999999999999] [-1.7899999999999998:8.4800000000000004] [0.51000000000000001:8.5199999999999996] [1.0387779035100686:9.4535559917686527] [29.590000000000003:100] [0:11.530608396784711] [27.050000000000001:100] [31.359999999999999:100] [30.448:99.994] [0.018973665961010994:19.055322062061592] [27.050000000000001:99.939999999999998] [32.840000000000003:100] [32.848500000000001:99.792000000000002] [0.39024283937598636:25.809804843365885] [27.050000000000001:98.900000000000006] [38.840000000000003:100] [-35.060000000000002:6.0699999999999967] [27.07:100] [-53.559999999999995:4.6899999999999977] [30.57:100] [-69.019999999999996:4.2399999999999949] [39.119999999999997:100] [30.186554503853827:99.988402254879119] [-9.8643466476763226:45.54892320233342] [-0.0049330934620375006:0.094972168742017082] [5.6258358870368399:1283.1999999999998] [0.033968705547652918:0.96565453202714613] [17.163436000000001:664.5827620317225] [79219.520000000004:158901.64200000002] [0.02476166893648632:1.043560606060606] [0:15.000544175923261] [-67.5:1295.46] [0:1] [0:1] [0:1] [0:1] [0:1] [0:1] [0:1] [0:1] [0:1] [0:1] [0:1] [0:1] [0:1] [0:1] [0:1] [0:1] [0:1] [0:1] [0:1]
tree_sizes=5662 5976 5988 5970 5980 5984 5973 5966 5978 5985 5983 5994 5999 5969 5978 5973 5998 6004 6008 6008 6006 5989 5995 5993 5993 5999 5974 6010 6022 5983 5990 6013 6000 5994 6019 6008 5978 6008 5994 5984 6006 5998 5979 5987 6000 6013 6005 5989 5993 5991 5996 5992 6015 6001 5960 5989 5985 5997 5979 5982 5993 6011 6013 6015 5993 5978 6004 5990 5999 5992 5995 5970 6015 6010 5998 5950 5996 6000 6007 5979 5984 6014 6004 5956 5997 5981 5997 5990 5982 5979 5990 5994 6006 5985 5977 5971 5975 5994 5993 5995 5969 6001 6016 5985 6008 6004 6021 5989 6009 5977 5952 5989 5968 5970 6024 5998 5994 5985 6015 6008 5981 5982 5965 5993 5967 6031 6002 5983 5992 6018 5975 6004 5972 6003 5979 6029 6005 5998 5981 5998 5993 6000 6014 6006 6001 5972 5998 6004 6028 6005 6034 6044 6015 5998 6021 6020 6006 6046 5977 6016 6009 6017 6012 6010 6005 5985 5993 6028 6028 5998 6025 6014 5992 6007 6020 6037 6025 6039 6022 6023 6024 6006 6048 6028 6033 6016 6000 6036 6038 6057 6039 6025 6066 6020 6053 6031 6026 6026 6068 6042 6002 6030 6048 6051 6064 6031 6024 6047 6049 6048 6044 6049 6057 6041 6060 6041 6061 6051 6069 6034 6009 6041 6029 6044 6080 5994 6052 6053 6056 6070 6032 6027 6025 6047 6071 6054 6049 6025 6059 6054 6068 6025 6084 6037 6059 6075 6038 6046 6068 6044 6056 6037 6067 6062 6057 6026 6063 6068 6041 6061 6046 6020 6056 6050 6021 6026 6031 6056 6057 6027 6019 6054 6039 6048 6087 6050 6083 6055 6045 6058 6031 6074 6090 6041 6046 6074 6042 6074 6040 6018 6021 6075 6053 6033 6043 6015 6028 6067 6059 6021 6043 6119 6040 6055 6068 6042 6059 6016 6005 6043 6094 6052 6058 6053 6042 6031 6085 6018 6055 6026 6069 6073 6027 6055 6059 6068 6060 6041 6067 6062 6052 6046 6067 6061 6032 6044 6040 6062 6046 6059 6045 6062 6038 6078 6078 6084 6067 6056 6092 6074 6064 6051 6060 6080 6044 6046 6061 6048 6052 6064 6046 6065 6041 6061 6085 6045 6040 6046 6025 6032 6060 6051 6057 6080 6065 6030 6064 6054 6076 6049 6063 6065 6051 6092 6075 6062 6066 6044 6004 6050 6076 6072 6059 6083 6092 6057 6039 6057 6069 6090 6047 6077 6055 6059 6064 6087 6079 6067 6044 6088 6103 6069 6069 6088 6091 6062 6048 6061 6082 6064 6048 6084 6081 6099 6097 6092 6072 6079 6066 6099 6048 6041 6076 6050 6080 6075 6079 6092 6098 6087 6063 6048 6070 6061 6026 6088 6081 6077 6051 6044 6066 6082 6092 6038 6084 6064 6043 6056 6060 6082 6065 6071 6036 6069 6056 6063 6067 6070 6090 6066 6096 6068 6066 6099 6054 6060 6042 6077 6051 6061 6099 6054 6092 6064 6061 6072 6094 6059 6096 6073 6078 6083 6066 6086 6094 6077 6104 6086 6079 6126

Tree=0
num_leaves=63
num_cat=0
split_feature=494 507 441 381 5 422 498 422 441 499 5 422 497 5 396 441 441 355 441 422 511 290 5 5 5 499 516 498 248 81 508 498 537 5 514 188 292 153 425 512 155 216 328 114 150 494 53 286 436 434 55 499 290 134 459 400 490 554 458 439 498 119
split_gain=0.214584 0.0319362 0.0275684 0.00497985 0.00464133 0.00391679 0.00333686 0.00065843 0.00065029 0.000581449 0.00056 0.000546735 0.000538857 0.000403333 0.000208244 0.000204034 0.000203649 0.000171099 0.000148036 9.79604e-05 9.64841e-05 9.58471e-05 7e-05 7e-05 7e-05 6.37961e-05 6.30562e-05 6.13996e-05 5.8719e-05 5.66821e-05 5.27761e-05 4.72965e-05 4.67015e-05 4.66667e-05 4.65017e-05 4.06731e-05 4.06125e-05 3.91271e-05 3.72177e-05 3.71661e-05 3.46512e-05 3.02071e-05 2.97191e-05 2.80891e-05 3.19199e-05 2.79966e-05 2.7225e-05 2.58171e-05 2.52238e-05 2.32624e-05 1.96e-05 1.80087e-05 1.75972e-05 1.66111e-05 1.42963e-05 1.1727e-05 1.05986e-05 1.04445e-05 9.19157e-06 9.11877e-06 7.84011e-06 5.06731e-06
threshold=16.530500000000004 22.405000000000005 43.060000000000009 4.1697123482839595 0.011950000000000002 27.992250000000006 16.077000000000002 28.829499999999999 46.167500000000011 12.789645148263878 0.014150000000000001 28.646250000000006 22.415000000000003 0.010300000000000002 2.5966694940090522 42.552500000000002 44.342500000000008 104.50000000000001 44.667500000000011 29.181250000000002 2.1150000000000007 1.1909628039517719 0.013050000000000001 0.015300000000000001 0.0091500000000000019 9.9976177579803416 2.4450000000000007 13.34975 0.034031309840168868 0.07330182727497965 19.052376577741416 19.868750000000002 3.383409869077822 0.011400000000000002 0.41188045472026763 0.28395000000000004 87.385000000000005 0.26524726409525906 29.605000000000004 2.3450000000000002 28.745000000000001 0.43045000000000005 1.2270438344197896 5.5725000000000007 28.235000000000003 10.202500000000001 188.63108143027674 1.301035661763456 48.850000000000001 3.0277054017852563 178.81815911621223 16.294628956576627 1.2806708114435426 0.1459059163853195 9.1900000000000031 3.5584426795808013 3.2340000000000004 0.29873350000000004 -3.5249999999999995 38.350000000000001 18.676250000000007 0.12932008354319549
decision_type=2 2 2 2 2 2 2 2 2 2 2 2 2 2 2 2 2 2 2 2 2 2 2 2 2 2 2 2 2 2 2 2 2 2 2 2 2 2 2 2 2 2 2 2 2 2 2 2 2 2 2 2 2 2 2 2 2 2 2 2 2 2
left_child=1 4 3 7 13 8 9 21 18 25 22 16 31 24 -5 19 26 38 39 34 40 -2 -6 -12 -1 -3 -7 51 47 -20 -16 56 37 -15 36 -23 46 49 -10 -4 -13 59 -42 -18 -45 55 -9 -17 52 53 -38 -11 -31 -21 -36 -14 60 -29 -51 -28 -8 -34
right_child=2 6 5 14 10 11 12 15 17 27 23 20 45 33 30 28 43 -19 29 32 -22 35 -24 -25 -26 -27 41 57 -30 48 -32 -33 61 -35 54 -37 50 -39 -40 -41 42 -43 -44 44 -46 -47 -48 -49 -50 58 -52 -53 -54 -55 -56 -57 -58 -59 -60 -61 -62 -63
leaf_value=0.014652445587782094 0.01540744559356871 0.014693008937459737 0.015568636015465742 0.0150088635193984 0.01449244556155605 0.01548402450774022 0.014854550846814718 0.015192445564536281 0.015726384941009707 0.01477097768004986 0.01441244558569593 0.015422142562852513 0.014933060944174679 0.014572445574669071 0.015052445541588494 0.015278252030213959 0.015482445565504857 0.015816889958184324 0.015672445551514959 0.015239718299557612 0.015308695583591141 0.015346563236856956 0.014452445554999539 0.01437244557913942 0.014612445581225583 0.014739020907185749 0.015458445585785338 0.014833778913585373 0.015233695571297683 0.015637445562971659 0.015091718275298522 0.014888170780007254 0.01517430602667926 0.01453244556811256 0.015179718289722846 0.015285959093377854 0.01531044558387799 0.015252445574371049 0.015665348789746687 0.015492445563418694 0.015341017017460466 0.015381536504621606 0.015397445598138401 0.015560553648407853 0.015502045552698799 0.014972445602620277 0.015258445575354525 0.015334184718203919 0.015566731251474817 0.015158045558897682 0.015254445574698874 0.014797842399758412 0.015591575991855353 0.015196445565191933 0.015226445570109316 0.014965778928964536 0.014844337473874614 0.014808863486615845 0.015191704823674124 0.015425077181614937 0.014882445588229128 0.015153090719375843
leaf_weight=140 24 142 21 134 140 38 38 20 33 109 140 33 65 140 109 31 20 27 26 22 32 34 140 140 140 73 20 45 32 32 110 131 43 70 22 37 20 23 31 20 28 22 32 37 25 104 20 23 21 25 20 63 23 40 20 24 74 67 27 38 28 31
leaf_count=140 24 142 21 134 140 38 38 20 33 109 140 33 65 140 109 31 20 27 26 22 32 34 140 140 140 73 20 45 32 32 110 131 43 70 22 37 20 23 31 20 28 22 32 37 25 104 20 23 21 25 20 63 23 40 20 24 74 67 27 38 28 31
internal_value=0.0149296 0.0146637 0.015305 0.0151638 0.0145111 0.0155241 0.0148301 0.0152433 0.0156489 0.0147583 0.0144324 0.0154342 0.0149073 0.014601 0.0150481 0.0152217 0.0154752 0.0157324 0.0155957 0.0152075 0.0153686 0.0153383 0.0144724 0.0143924 0.0146324 0.0147086 0.0154416 0.0147958 0.0152766 0.0156215 0.0150722 0.0148709 0.015191 0.0145591 0.0152361 0.015315 0.0152539 0.0152049 0.0156968 0.0155315 0.0153892 0.0154214 0.0153711 0.0155237 0.015537 0.0149584 0.0152254 0.0153021 0.015604 0.0151953 0.0152824 0.0147808 0.0156183 0.0152118 0.015202 0.0149419 0.0148547 0.0148189 0.0151755 0.0154366 0.0148664 0.0151654
internal_weight=3439 2013 1426 867 1050 559 963 514 234 499 560 325 464 490 353 419 200 91 143 333 125 95 280 280 280 215 118 284 86 102 219 271 211 210 122 71 80 137 64 41 93 80 60 82 62 193 40 54 76 114 40 172 55 62 42 89 140 112 52 58 66 74
internal_count=3439 2013 1426 867 1050 559 963 514 234 499 560 325 464 490 353 419 200 91 143 333 125 95 280 280 280 215 118 284 86 102 219 271 211 210 122 71 80 137 64 41 93 80 60 82 62 193 40 54 76 114 40 172 55 62 42 89 140 112 52 58 66 74
is_linear=0
shrinkage=1


Tree=1
num_leaves=63
num_cat=0
split_feature=498 507 441 385 489 441 498 441 371 495 441 498 489 441 377 382 264 507 194 418 322 418 537 498 81 489 471 489 423 444 514 213 385 271 498 427 490 369 324 81 463 431 286 441 45 495 418 292 309 130 441 442 207 193 356 497 503 137 498 493 498 119
split_gain=0.197532 0.0281295 0.026674 0.00511519 0.00427745 0.00342802 0.00280783 0.000709407 0.000516096 0.000508167 0.000487568 0.000378736 0.000371712 0.000338061 0.000266298 0.000169015 0.000147854 0.000131143 0.00012809 0.00012611 0.000109512 0.00010249 9.87118e-05 7.49411e-05 6.76216e-05 6.45121e-05 6.4512e-05 6.4512e-05 6.16059e-05 6.48258e-05 5.58797e-05 5.57844e-05 5.38333e-05 5.35629e-05 5.26593e-05 5.12794e-05 4.87831e-05 4.30081e-05 4.01268e-05 3.93711e-05 3.89615e-05 3.85135e-05 3.79249e-05 3.77405e-05 3.65784e-05 3.48836e-05 3.20105e-05 3.19486e-05 3.06479e-05 2.76212e-05 2.46417e-05 2.30577e-05 2.27923e-05 2.11866e-05 1.72445e-05 1.67489e-05 1.63218e-05 1.41628e-05 1.17847e-05 1.06779e-05 9.86843e-06 9.61519e-06
threshold=28.052500000000002 22.405000000000005 43.060000000000009 3.2782375461609194 5.9185692893165518 44.667500000000011 15.237250000000001 46.38750000000001 -87.850000000000009 0.67441226922756625 42.342500000000008 8.2765000000000022 13.424400260398114 43.807500000000012 4.4406550632461661 62.945000000000007 77.565000000000012 39.07500000000001 0.30822750000000004 28.450000000000006 94.265000000000015 28.496000000000002 2.7352263941275843 18.676250000000007 0.094892598140868242 3.9200989517651093 30.629000000000005 2.461015758318803 1.1463807462486975 46.45000000000001 0.27324575529521627 0.33154750000000005 5.3797496017559903 1.1103090486248772 10.522750000000002 29.235000000000003 24.539000000000005 -96.850000000000009 1.7878164369046108 0.07568546144389629 9.6550000000000011 28.595000000000002 1.1589955635842244 45.640000000000008 4.099358992751247 13.431193573318099 29.635500000000004 87.385000000000005 1.4161217821750425 0.12687078745117153 45.76250000000001 3.3339679202193255 0.27530000000000004 0.36700000000000005 97.675499306050568 3.8400000000000003 5.080000000000001 24.178450582471225 13.34975 3.8550000000000004 20.493500000000001 0.1071496414307913
decision_type=2 2 2 2 2 2 2 2 2 2 2 2 2 2 2 2 2 2 2 2 2 2 2 2 2 2 2 2 2 2 2 2 2 2 2 2 2 2 2 2 2 2 2 2 2 2 2 2 2 2 2 2 2 2 2 2 2 2 2 2 2 2
left_child=1 4 3 10 8 13 11 16 25 23 22 32 37 20 -5 -12 39 -9 35 -15 31 43 28 59 -22 -1 -14 -10 47 -30 42 41 -3 -31 56 -17 -16 -6 46 -7 -20 53 -21 57 -42 -11 -35 -2 -23 -37 -41 -19 -32 -4 -24 -36 -13 -18 -57 -8 -25 -56
right_child=2 6 5 14 12 7 9 17 27 45 15 34 26 19 36 18 21 51 40 30 24 48 54 60 -26 -27 -28 -29 29 33 52 -33 -34 38 55 49 -38 -39 -40 50 44 -43 -44 -45 -46 -47 -48 -49 -50 -51 -52 -53 -54 -55 61 58 -58 -59 -60 -61 -62 -63
leaf_value=-0.00045809783041477202 0.00023585226048122753 -0.00022385768365819713 0.00047062026248091742 6.9433044664925198e-05 -0.00034289781004190448 0.00072904818505048746 -7.3212904113707908e-05 0.0008503108232149057 -0.00053489781916141513 3.1689386758362571e-06 0.00044898392632603646 -0.00015230182116314516 -0.0003044978156685829 0.0005860445520987636 0.00011855450772012758 0.00040715068377353053 0.00063780640624463568 0.00070994723943017788 0.00034585498846494237 0.00057273679836229848 0.00042690089179409877 0.00059005306878437598 0.00027371497638523578 -5.7591024121003492e-05 0.00033516688738018276 -0.00041969779878854753 -0.00026609780266880991 -0.00049649782478809355 0.00023915542378312067 0.00026862363996250286 0.00049831691810062954 0.00041631684505513737 -0.00017810735492068425 0.00037800462683662772 -0.00011142419466080193 0.00037688513709740204 0.00015633124858140945 -0.00038129784166812897 0.00029134436175227166 0.00063697388602627653 0.00031794885885627833 0.00043594178743660449 0.00050198666751384731 0.00067590889879144158 0.00025969517284205984 4.0777929989417316e-05 0.00031444823990265525 0.0002917793307166833 0.00052300813794136053 0.00031543135941028595 0.00069474679728349041 0.00076583248045709407 0.00044989837865744325 0.00052300508320331576 0.00025296420065893071 -0.00014856681175943879 -0.00019086636193096636 0.00059020330198109147 -0.00011902119964361192 -9.6548789027911514e-05 -3.860373658916125e-05 0.00022469044093098215
leaf_weight=140 44 148 21 164 140 20 59 28 140 67 24 59 140 38 113 37 20 21 26 22 36 24 20 70 20 140 140 140 21 28 35 28 57 32 78 22 106 70 25 27 34 20 27 26 35 96 21 26 20 25 21 27 28 30 27 54 25 20 36 67 117 67
leaf_count=140 44 148 21 164 140 20 59 28 140 67 24 59 140 38 113 37 20 21 26 22 36 24 20 70 20 140 140 140 21 28 35 28 57 32 78 22 106 70 25 27 34 20 27 26 35 96 21 26 20 25 21 27 28 30 27 54 25 20 36 67 117 67
internal_value=8.19333e-13 -0.000259766 0.000353788 0.000218632 -0.000401778 0.000570665 -9.99446e-05 0.00067921 -0.000477298 -3.19524e-05 0.000301087 -0.000170764 -0.000315469 0.00048027 0.000107976 0.000349307 0.000635529 0.000781514 0.000335942 0.000523079 0.000438843 0.000606866 0.000269612 -6.17774e-05 0.000394139 -0.000438898 -0.000285298 -0.000515698 0.000286755 0.000303361 0.000501715 0.00046413 -0.000211137 0.000316081 -0.00013792 0.000371927 0.000136839 -0.000355698 0.000333118 0.000681896 0.000304124 0.000482986 0.000533752 0.000638391 0.0002884 2.5319e-05 0.000352822 0.000256625 0.000559578 0.000344197 0.00066225 0.000741383 0.000476798 0.000501435 0.000239988 -0.000124991 -0.000163779 0.000614005 -0.000136749 -8.56217e-05 -4.57113e-05 0.000232812
internal_weight=3439 1983 1456 897 1050 559 933 254 560 476 514 457 490 305 383 203 178 76 179 150 155 110 311 313 56 280 280 280 197 127 112 99 205 106 252 84 219 210 78 68 95 71 49 66 69 163 53 70 44 47 48 48 63 51 114 168 84 40 90 126 187 94
internal_count=3439 1983 1456 897 1050 559 933 254 560 476 514 457 490 305 383 203 178 76 179 150 155 110 311 313 56 280 280 280 197 127 112 99 205 106 252 84 219 210 78 68 95 71 49 66 69 163 53 70 44 47 48 48 63 51 114 168 84 40 90 126 187 94
is_linear=0
shrinkage=0.04


Tree=2
num_leaves=63
num_cat=0
split_feature=494 507 441 381 5 422 479 422 441 495 499 5 422 5 441 377 507 441 441 511 290 422 5 5 5 499 516 248 499 537 490 81 516 423 5 442 188 479 150 495 425 196 462 518 286 345 346 457 212 422 431 416 441 359 504 475 395 475 499 25 499 341
split_gain=0.182284 0.0271179 0.0234122 0.00435448 0.0039421 0.00320028 0.00272422 0.000623789 0.000550968 0.000514347 0.000491157 0.000475634 0.000428648 0.00034257 0.0001807 0.000175215 0.000145298 0.000130445 0.000125175 0.000100105 8.99634e-05 8.63902e-05 5.94543e-05 5.94543e-05 5.94543e-05 5.48486e-05 5.3217e-05 5.27837e-05 5.21453e-05 4.62024e-05 4.49585e-05 4.31169e-05 4.00407e-05 3.97054e-05 3.96361e-05 3.86512e-05 3.82235e-05 3.78177e-05 3.62648e-05 3.46354e-05 3.29508e-05 2.87471e-05 2.79473e-05 2.76347e-05 2.42241e-05 2.40506e-05 2.31945e-05 2.22153e-05 2.16572e-05 2.12891e-05 1.9043e-05 1.85999e-05 1.48301e-05 1.55643e-05 1.33744e-05 1.33146e-05 9.09533e-06 9.01085e-06 7.74278e-06 7.89101e-06 7.72395e-06 7.23876e-06
threshold=16.530500000000004 22.405000000000005 43.13750000000001 4.1697123482839595 0.011950000000000002 27.992250000000006 38.027000000000008 28.829499999999999 46.167500000000011 0.67441226922756625 12.789645148263878 0.014150000000000001 28.580750000000005 0.010300000000000002 42.552500000000002 4.4406550632461661 38.875000000000007 44.342500000000008 44.727500000000013 2.1150000000000007 1.1909628039517719 29.118000000000002 0.013050000000000001 0.015300000000000001 0.0091500000000000019 9.9976177579803416 2.4450000000000007 0.034031309840168868 16.743831084029498 3.383409869077822 24.539000000000005 0.07330182727497965 2.4650000000000003 1.2638809799602089 0.011400000000000002 3.1106438597070949 0.28395000000000004 37.18075000000001 27.875000000000004 13.431193573318099 29.655000000000005 0.21535000000000001 -5.6649999999999991 0.33919990971749014 1.301035661763456 102.74000000000002 97.072000000000017 3.4114930739439466 0.41155000000000003 28.747000000000003 27.935000000000006 27.030000000000005 41.487500000000004 1760.5500000000002 -0.84999999999999964 29.979000000000003 53.033000000000008 42.356000000000009 14.21869735542141 4.7650000000000006 19.094781993408557 101.16000000000001
decision_type=2 2 2 2 2 2 2 2 2 2 2 2 2 2 2 2 2 2 2 2 2 2 2 2 2 2 2 2 2 2 2 2 2 2 2 2 2 2 2 2 2 2 2 2 2 2 2 2 2 2 2 2 2 2 2 2 2 2 2 2 2 2
left_child=1 4 3 7 13 8 9 20 18 37 25 22 17 24 21 -5 -10 26 32 33 -2 35 -6 -13 -1 -8 -7 44 58 38 -17 -20 -4 50 -15 46 43 54 -23 -11 -18 -37 -19 -22 -16 55 -9 -44 -28 -35 -14 -33 -47 -54 -3 -40 -53 -39 -12 -60 -30 -31
right_child=2 6 5 15 11 12 10 14 16 39 28 23 19 34 27 30 40 42 31 -21 36 29 -24 -25 -26 -27 48 -29 60 61 -32 51 -34 49 -36 41 -38 57 45 -41 -42 -43 47 -45 -46 52 -48 -49 -50 -51 -52 56 53 -55 -56 -57 -58 -59 59 -61 -62 -63
leaf_value=-0.00025545390322804449 0.00044358957272309528 -3.4941074718983892e-05 0.00059839655199776527 7.3294639135641404e-05 -0.00040290988981723786 0.00052543938159942626 -0.00021829141330131344 0.000292673135176301 0.00081789049285429507 3.0421810244199641e-06 -0.00015011665278247423 -0.00047663789242506031 0.00043312806912042479 -0.00032918192446231844 0.00032095402599342413 0.00011381232492889451 0.0007317617716821465 0.00058471687758962314 0.00068678504166503739 0.00036018933738685317 0.00035139160323888067 0.00030444081251819927 -0.00043977390974760057 -0.00051350191235542296 -0.00029231790453195574 -0.00017562790289010904 0.00047391956020146605 0.00028091230758411044 -0.00010676483178394846 0.00023899380024522543 0.00015007799491286277 0.00064760722685605285 0.00052453978452831511 0.0004840816144964525 -0.00036604590713977813 0.00033981566972754619 0.00032823109244172637 -8.6875727543464084e-05 0.00021842097905887801 3.8636119001354913e-05 0.00067364513598106523 0.00028028962239623072 0.00050507119446992882 0.00041788630932569501 0.00037448173466448986 0.00023752806801348927 0.00023488038927316668 0.00055575034310740808 0.00042294052988290791 0.0004369821761022596 0.00038359822462434356 0.00062576663121581089 0.00025341293960809706 0.00030166109699917876 -5.6677814917983835e-05 0.0002537055200498019 0.00058761885948479175 -6.1701724970979351e-05 -0.00013983954223530256 -0.00011852520498189521 -8.1293041817843915e-05 0.00021120648551732301
leaf_weight=140 26 78 23 134 140 26 142 20 27 67 49 140 27 140 31 113 37 24 24 36 20 21 140 140 140 73 40 34 80 20 106 32 24 28 70 27 37 65 44 126 27 25 25 20 24 20 25 31 20 34 23 20 20 23 108 28 20 35 68 47 25 60
leaf_count=140 26 78 23 134 140 26 142 20 27 67 49 140 27 140 31 113 37 24 24 36 20 21 140 140 140 73 40 34 80 20 106 32 24 28 70 27 37 65 44 126 27 25 25 20 24 20 25 31 20 34 23 20 20 23 108 28 20 35 68 47 25 60
internal_value=5.48971e-13 -0.000245107 0.000346003 0.000217958 -0.000385707 0.000551156 -9.18051e-05 0.000291002 0.000663131 -2.41777e-05 -0.000158734 -0.000458206 0.00046771 -0.00030285 0.000269461 0.000109322 0.000740073 0.000511839 0.000614168 0.000418214 0.000379257 0.00025593 -0.000421342 -0.00049507 -0.000273886 -0.000203806 0.00047764 0.000320092 -0.00012271 0.000242868 0.000131366 0.000640354 0.000560682 0.000436865 -0.00034147 0.000287709 0.000357534 -5.82276e-05 0.000255542 2.62797e-05 0.000707244 0.000311197 0.000548603 0.000384639 0.000344312 0.000247936 0.000260566 0.000533126 0.000456927 0.000458253 0.000410344 0.000624877 0.000265985 0.00027922 -4.75624e-05 0.000232143 0.000606693 -7.80648e-05 -0.000136802 -0.000131128 -0.0001007 0.000218153
internal_weight=3439 2013 1426 878 1050 548 963 525 234 479 484 560 314 490 422 353 91 166 143 148 103 333 280 280 280 215 86 89 269 236 219 96 47 112 210 97 77 286 156 193 64 52 80 40 55 135 45 56 60 62 50 72 63 43 186 72 40 100 164 115 105 80
internal_count=3439 2013 1426 878 1050 548 963 525 234 479 484 560 314 490 422 353 91 166 143 148 103 333 280 280 280 215 86 89 269 236 219 96 47 112 210 97 77 286 156 193 64 52 80 40 55 135 45 56 60 62 50 72 63 43 186 72 40 100 164 115 105 80
is_linear=0
shrinkage=0.04


Tree=3
num_leaves=63
num_cat=0
split_feature=494 507 422 404 5 498 422 422 499 5 495 422 5 437 437 493 444 207 422 215 443 482 361 310 440 514 5 5 5 267 499 421 508 498 479 511 498 514 345 5 347 495 420 443 208 291 1 318 437 111 423 214 499 434 355 462 219 554 418 496 498 493
split_gain=0.167993 0.0249918 0.0215313 0.00447642 0.00363304 0.00262153 0.00235702 0.000554532 0.000454607 0.000438344 0.00041675 0.000416276 0.000315712 0.000295937 0.000176636 0.00017409 0.000156614 0.000114276 0.000107331 9.98879e-05 9.68174e-05 7.8933e-05 7.66954e-05 7.53197e-05 6.97228e-05 6.75074e-05 5.4793e-05 5.4793e-05 5.4793e-05 5.37845e-05 5.05485e-05 5.01205e-05 4.94547e-05 4.77907e-05 4.13224e-05 4.00003e-05 3.72806e-05 3.65359e-05 5.56114e-05 3.65287e-05 3.63512e-05 3.192e-05 3.00855e-05 2.90495e-05 2.40968e-05 2.34143e-05 2.25733e-05 2.16289e-05 2.0947e-05 2.02131e-05 1.40678e-05 1.3975e-05 1.3411e-05 1.28287e-05 1.0732e-05 1.0346e-05 9.48843e-06 8.49197e-06 7.26195e-06 5.77649e-06 4.60166e-06 6.01461e-06
threshold=16.530500000000004 22.405000000000005 28.697000000000003 1.7081686497498068 0.011950000000000002 16.077000000000002 27.915250000000004 29.143249999999998 12.789645148263878 0.014150000000000001 0.67441226922756625 27.146750000000001 0.010300000000000002 42.805000000000007 42.635000000000012 23.010000000000002 50.650000000000013 0.26340000000000002 28.193000000000001 0.21735000000000002 38.45000000000001 39.195000000000007 1815.8550000000002 92.25500000000001 49.750000000000007 0.24246417834367937 0.0091500000000000019 0.013050000000000001 0.015300000000000001 0.99125845811648017 9.9976177579803416 31.145000000000003 19.052376577741416 13.34975 29.56025 1.7950000000000002 19.238000000000003 0.48143591520791651 102.74000000000002 0.011400000000000002 3.308970540442258 13.431193573318099 27.745000000000001 36.45000000000001 0.35155000000000008 80.905000000000015 93.535000000000011 101.90913269710337 43.885000000000012 0.080808415403343603 1.2251495599343849 0.056297363539161795 16.294628956576627 2.5113741258521691 96.785000000000011 -4.1099999999999985 0.059200000000000093 0.29873350000000004 29.737500000000004 5.3450000000000006 21.165500000000005 3.8550000000000004
decision_type=2 2 2 2 2 2 2 2 2 2 2 2 2 2 2 2 2 2 2 2 2 2 2 2 2 2 2 2 2 2 2 2 2 2 2 2 2 2 2 2 2 2 2 2 2 2 2 2 2 2 2 2 2 2 2 2 2 2 2 2 2 2
left_child=1 4 6 7 12 8 11 14 30 27 36 23 26 17 19 -5 35 46 34 21 29 22 42 -2 48 -20 -1 -6 -11 -9 -3 -16 -17 52 -15 -13 59 38 53 -14 -40 -12 -4 -19 -27 -21 54 -36 -18 -47 -46 -42 -10 -31 -8 -50 -39 -35 -58 -7 61 -38
right_child=2 5 3 15 9 10 13 20 33 28 41 16 39 18 31 32 24 43 25 45 -22 -23 -24 -25 -26 44 -28 -29 -30 37 -32 -33 -34 57 47 -37 60 56 40 -41 51 -43 -44 -45 50 49 -48 -49 55 -51 -52 -53 -54 -55 -56 -57 58 -59 -60 -61 -62 -63
leaf_value=-0.00024523574858903885 0.00079693558670225592 -0.00020955974367302909 0.00035563126368367155 7.03628540886983e-05 -0.00038679350167512892 -6.3865718363625257e-05 0.00045016100968826904 0.00030195762911303477 -0.00014028662738791846 -0.00045757237821817401 2.9204937706722311e-06 0.00058445930866331893 -0.00031601462513208389 0.00049710668268657869 0.00035250283495494815 0.00010860747657716274 0.00058313979922483365 0.00034951659747295909 0.00053000205421242222 0.00025394281568495854 0.00032438972145318985 0.00028620687068292973 0.00031078458630612917 0.0007011137317333903 0.00068053190811322292 0.00048799842729100158 -0.00028062518686056137 -0.00042218293994665144 -0.00049296181648969648 0.00024781321701796159 -0.00016860278769817254 0.00042333324830378261 0.00014613180710323928 -8.4780409725175972e-05 0.00053850737764783534 0.00051382265337135478 -3.4839756485513029e-05 0.00023568322675095662 0.00030721922134680136 -0.00035140406340360641 0.00027374883834272622 3.7090673443647879e-05 0.00041902187913656237 0.00040717234642341222 0.00042132357135415076 0.00032406686805188658 0.00042047161236405373 0.00059465475735210238 0.00065075179003179083 0.00027098599588498473 0.00046426933420741045 0.00022702885082080251 -0.00011710351554765588 0.00021080272748719817 0.00048779716094334924 0.00061006564460694792 0.00019925541803240778 -0.00010724661051671006 0.0002252896670252085 -8.4378921271612245e-05 -3.3196809314442481e-05 -5.8299428201280537e-05
leaf_weight=140 21 142 23 134 140 82 22 22 109 140 67 29 140 21 33 109 24 27 29 38 25 38 35 35 39 28 140 140 140 23 73 31 116 45 23 23 34 36 31 70 20 126 25 29 26 22 20 21 20 24 23 21 63 43 27 20 40 67 30 30 89 36
leaf_count=140 21 142 23 134 140 82 22 22 109 140 67 29 140 21 33 109 24 27 29 38 25 38 35 35 39 28 140 140 140 23 73 31 116 45 23 23 34 36 31 70 20 126 25 29 26 22 20 21 20 24 23 21 63 43 27 20 40 67 30 30 89 36
internal_value=2.48798e-12 -0.000235303 0.000332163 0.000216716 -0.000370278 -8.81329e-05 0.000541424 0.0002874 -0.000151773 -0.000439878 -1.9692e-05 0.000643575 -0.000290736 0.000468607 0.0003288 0.000106457 0.000609804 0.000421828 0.000502803 0.00031069 0.00024913 0.000333954 0.000355814 0.000737047 0.000638373 0.000477987 -0.00026293 -0.000404488 -0.000475267 0.000242057 -0.000195653 0.000386811 0.000127953 -0.000118554 0.000543272 0.000553216 -5.16834e-05 0.000236656 0.000250222 -0.000327811 0.000274533 2.52285e-05 0.000388647 0.000379374 0.000458397 0.000277178 0.000456283 0.000565305 0.000612683 0.000296372 0.000441482 0.000249819 -0.000131795 0.0002237 0.000470899 0.000630409 0.000218995 -9.822e-05 0.000210413 -6.93603e-05 -3.92317e-05 -4.69047e-05
internal_weight=3439 2013 1426 919 1050 963 507 560 499 560 464 211 490 296 269 359 155 125 171 205 291 121 83 56 103 106 280 280 280 266 215 64 225 284 65 52 271 244 138 210 72 193 48 56 77 84 69 44 64 46 49 41 172 66 49 40 106 112 70 112 159 70
internal_count=3439 2013 1426 919 1050 963 507 560 499 560 464 211 490 296 269 359 155 125 171 205 291 121 83 56 103 106 280 280 280 266 215 64 225 284 65 52 271 244 138 210 72 193 48 56 77 84 69 44 64 46 49 41 172 66 49 40 106 112 70 112 159 70
is_linear=0
shrinkage=0.04


Tree=4
num_leaves=63
num_cat=0
split_feature=494 507 441 381 5 441 498 441 499 5 441 381 5 441 266 396 425 418 506 418 533 193 329 329 416 5 5 5 492 499 420 514 498 462 368 520 490 498 5 402 473 359 461 379 414 414 494 514 176 64 261 144 283 499 263 213 35 400 503 554 253 498
split_gain=0.154822 0.0230325 0.0199243 0.00358149 0.00334821 0.00269442 0.002416 0.000556778 0.000418966 0.000403978 0.000393211 0.000381337 0.000290961 0.000268244 0.000183133 0.00014852 0.000133978 0.000108259 0.000104409 9.79997e-05 9.42337e-05 7.62396e-05 5.80991e-05 5.76668e-05 5.34086e-05 5.04973e-05 5.04973e-05 5.04973e-05 4.85684e-05 4.65855e-05 4.45988e-05 4.42235e-05 4.40439e-05 4.07237e-05 3.97244e-05 3.96801e-05 3.80592e-05 3.62064e-05 3.36649e-05 3.26056e-05 3.13061e-05 2.86112e-05 2.75633e-05 2.57599e-05 2.233e-05 1.99827e-05 1.96488e-05 1.95434e-05 1.92029e-05 2.00613e-05 1.81882e-05 1.6044e-05 1.46558e-05 1.23596e-05 1.07377e-05 8.96977e-06 8.57285e-06 8.41651e-06 8.34489e-06 7.8262e-06 5.71414e-06 5.49583e-06
threshold=16.530500000000004 22.405000000000005 43.060000000000009 4.1697123482839595 0.011950000000000002 44.667500000000011 16.077000000000002 46.38750000000001 12.789645148263878 0.014150000000000001 42.157500000000006 4.4872214000929835 0.010300000000000002 43.807500000000012 81.38600000000001 2.5966694940090522 30.315000000000001 28.773500000000002 0.90000000000000313 28.450000000000006 2.2385152797389898 0.41115000000000007 86.060000000000016 85.220000000000013 27.030000000000005 0.015300000000000001 0.0091500000000000019 0.013050000000000001 39.385000000000012 9.9976177579803416 26.695000000000004 0.27324575529521627 13.34975 -4.504999999999999 1689.4000000000003 2.7100000000000004 24.539000000000005 19.868750000000002 0.011400000000000002 55.930000000000007 24.470000000000002 1761.2500000000002 3.980395580827075 75.390000000000015 29.690000000000005 28.025000000000002 10.202500000000001 0.32471953482341026 0.5128780878071425 201.94391428879428 0.3131385302857061 24.19027831894542 83.705000000000013 16.294628956576627 0.98034679247644119 0.34351000000000004 0.072564644264002734 3.5584426795808013 3.1150000000000007 0.29873350000000004 0.25005000000000005 18.676250000000007
decision_type=2 2 2 2 2 2 2 2 2 2 2 2 2 2 2 2 2 2 2 2 2 2 2 2 2 2 2 2 2 2 2 2 2 2 2 2 2 2 2 2 2 2 2 2 2 2 2 2 2 2 2 2 2 2 2 2 2 2 2 2 2 2
left_child=1 4 3 10 12 13 8 16 29 27 22 37 26 20 17 -5 23 -12 45 -15 28 35 -2 -7 56 -11 -1 -6 -4 -3 50 42 53 -23 -24 44 -17 58 -14 47 -30 -42 -21 48 -19 -9 57 -16 -36 -50 -18 -26 -33 -10 -45 -41 -25 -13 61 -34 -56 -8
right_child=2 6 5 15 9 7 11 18 32 25 14 46 38 19 39 36 30 21 -20 31 -22 33 34 24 51 -27 -28 -29 40 -31 -32 52 59 -35 43 -37 -38 -39 -40 55 41 -43 -44 54 -46 -47 -48 -49 49 -51 -52 -53 -54 -55 60 -57 -58 -59 -60 -61 -62 -63
leaf_value=-0.00023542631417512895 0.00027712529223110225 -0.00020117735568906219 0.00046072025783360003 6.7548337184003928e-05 -0.00037132177501916888 0.00065031191955010098 -6.3630063216098479e-05 0.00067892241545698857 -0.00013467516305796598 -0.00043926950544118885 0.00041143713962464107 2.7426854764584391e-06 -0.00030337404459714892 0.00051858156331275641 0.00024978872202336788 0.00010486239888828941 0.00057101502675901755 0.00029408291993396622 0.0007469247607514262 0.00044566227881996721 0.00032566274486241806 0.00023878273410865897 0.00027384876527569512 0.00062353965866824852 0.00056777097816978182 -0.0004732433706521988 -0.00026940017938613891 -0.00040529564023017884 0.00035897911195793462 -0.0001618586725568118 0.00048072931489774162 0.00043721002168380297 -8.1389192284809212e-05 0.00031470359209924935 0.0002588343055083834 0.00036837156329836161 0.00013822960667312146 -3.4290182794167673e-05 -0.00033734790980815887 0.00025185075871970341 0.00043033937326608564 0.00038013779886943454 0.00050597797740589484 0.00022621704751382701 0.00034302115297088259 0.00062500981613993649 3.6182954057809324e-05 0.00030118647834350326 0.00023921673401043966 0.0001961069524047836 0.000518971307291871 0.00051771180331707 0.0003974820114672184 -0.00011241937854460308 0.00020865999033738828 0.00021723790764808655 0.00058861328458244147 3.0578876167055572e-05 -7.2656623276605e-05 -0.0001029567467743781 0.00018578970254483549 -4.0448812845473489e-05
leaf_weight=140 37 142 20 134 140 21 36 22 109 140 21 63 140 38 20 113 22 35 32 27 31 26 22 23 21 140 140 140 31 73 28 39 45 20 29 35 106 133 70 23 39 34 22 23 26 22 104 29 39 31 21 20 24 63 29 25 22 24 74 67 44 30
leaf_count=140 37 142 20 134 140 21 36 22 109 140 21 63 140 38 20 113 22 35 32 27 31 26 22 23 21 140 140 140 31 73 28 39 45 20 29 35 106 133 70 23 39 34 22 23 26 22 104 29 39 31 21 20 24 63 29 25 22 24 74 67 44 30
internal_value=-1.05098e-12 -0.000225891 0.000318876 0.000198819 -0.000355467 0.000505083 -8.46076e-05 0.000601315 -0.000145702 -0.000422283 0.000266192 -1.89044e-05 -0.000279107 0.000424943 0.000300772 0.000100717 0.000562618 0.000326669 0.000691949 0.000463075 0.00038804 0.000314133 0.000230796 0.000590887 0.000576376 -0.000456256 -0.000252413 -0.000388309 0.000403635 -0.000187827 0.000520016 0.000444242 -0.000113812 0.000271792 0.000222896 0.000334421 0.000121013 -4.92356e-05 -0.000314699 0.000257255 0.000392656 0.000406958 0.000472743 0.000217148 0.000314942 0.000651966 2.44487e-05 0.000280208 0.000231464 0.000220125 0.000545598 0.000543352 0.000422076 -0.000126523 0.000202384 0.000233823 0.000606465 1.04216e-05 -6.34338e-05 -9.42912e-05 0.000194875 -5.30931e-05
internal_weight=3439 2013 1426 867 1050 559 963 254 499 560 514 464 490 305 260 353 178 163 76 150 155 142 254 107 86 280 280 280 124 215 71 112 284 46 217 96 219 273 210 97 104 73 49 195 61 44 191 49 99 70 43 41 63 172 96 48 45 87 140 112 73 66
internal_count=3439 2013 1426 867 1050 559 963 254 499 560 514 464 490 305 260 353 178 163 76 150 155 142 254 107 86 280 280 280 124 215 71 112 284 46 217 96 219 273 210 97 104 73 49 195 61 44 191 49 99 70 43 41 63 172 96 48 45 87 140 112 73 66
is_linear=0
shrinkage=0.04


Tree=5
num_leaves=63
num_cat=0
split_feature=494 507 441 341 5 422 498 422 441 495 5 422 498 5 441 493 441 441 309 511 533 422 498 248 5 5 5 81 516 498 385 508 188 155 431 536 197 417 5 495 462 283 544 151 115 472 212 362 268 435 391 497 503 434 195 321 475 447 493 498 70 498
split_gain=0.142684 0.0212267 0.0183642 0.00340321 0.00308571 0.0025177 0.00222699 0.000496133 0.000430679 0.000424936 0.000372306 0.000339292 0.000274835 0.000268149 0.00014371 0.000140223 0.000119334 0.000103811 9.27801e-05 7.93086e-05 6.7946e-05 5.65682e-05 5.4948e-05 5.25275e-05 4.65383e-05 4.65383e-05 4.65382e-05 4.40873e-05 4.30762e-05 3.86359e-05 3.77764e-05 3.72121e-05 3.63236e-05 3.32903e-05 3.32344e-05 3.30179e-05 3.10385e-05 3.7413e-05 3.10256e-05 2.73469e-05 2.44869e-05 2.44214e-05 2.36241e-05 2.02655e-05 1.93225e-05 1.88568e-05 1.8338e-05 1.82153e-05 1.79951e-05 1.73625e-05 1.56846e-05 1.18247e-05 1.1564e-05 1.07407e-05 1.11624e-05 9.92172e-06 9.73635e-06 8.39545e-06 8.22095e-06 8.10042e-06 7.62244e-06 7.01894e-06
threshold=16.530500000000004 22.405000000000005 43.13750000000001 113.92000000000002 0.011950000000000002 27.992250000000006 15.237250000000001 28.829499999999999 46.38750000000001 0.67441226922756625 0.014150000000000001 28.580750000000005 8.2765000000000022 0.010300000000000002 42.470000000000006 23.010000000000002 44.727500000000013 44.342500000000008 2.1721090185473191 2.1150000000000007 0.96353542350603005 29.118000000000002 18.676250000000007 0.030498580997559092 0.013050000000000001 0.0091500000000000019 0.015300000000000001 0.065805734217332365 2.4450000000000007 10.522750000000002 5.4596454912867625 19.052376577741416 0.28395000000000004 28.745000000000001 28.485000000000003 99.071750000000023 0.41685000000000005 31.465000000000003 0.011400000000000002 14.029562659496312 -5.6649999999999991 81.790000000000006 -2.6649999999999987 29.125000000000004 0.079011249001497377 3.9123004294940507 0.41155000000000003 39.754972408528751 77.975000000000009 39.750000000000007 71.575000000000003 3.8400000000000003 5.080000000000001 3.4932076062337871 0.045453450094577776 96.660000000000011 29.015000000000004 -1.1499999999999984 3.8550000000000004 13.34975 198.49837610232944 20.493500000000001
decision_type=2 2 2 2 2 2 2 2 2 2 2 2 2 2 2 2 2 2 2 2 2 2 2 2 2 2 2 2 2 2 2 2 2 2 2 2 2 2 2 2 2 2 2 2 2 2 2 2 2 2 2 2 2 2 2 2 2 2 2 2 2 2
left_child=1 4 3 7 13 8 12 20 16 22 24 17 30 25 21 -5 35 28 41 33 -2 34 58 42 -6 -1 -12 -18 -7 52 -3 -17 -22 48 -9 -4 37 53 -15 -11 -19 -10 -16 -39 -25 57 -30 -36 -13 -35 -42 -31 -14 54 -23 60 -47 -29 -8 -53 -38 -24
right_child=2 6 5 15 10 11 9 14 18 39 26 19 29 38 23 31 27 40 -20 -21 32 36 61 44 -26 -27 -28 45 46 51 -32 -33 -34 49 47 -37 55 43 -40 -41 50 -43 -44 -45 -46 56 -48 -49 -50 -51 -52 59 -54 -55 -56 -57 -58 -59 -60 -61 -62 -63
leaf_value=-0.00022600926458835602 0.00038578139858380439 -0.00018976125480166001 0.00046063149517232722 6.4846402756981e-05 -0.00035646889358758926 0.0004655592114879535 -6.1728692913459523e-05 0.00028057331722733137 0.00066277160279212463 4.17192452693377e-06 -0.00042169872671365738 0.00043107167271704509 -0.00012974064134187619 -0.00029123907908797266 0.00027265799739821392 0.00010006868280470372 0.00062613804265856748 0.00051966387312859293 0.0007399245798587799 0.00031811917459385262 0.00034108645163285426 0.00019820288242772223 -4.8461054884163392e-05 0.00027875064827856562 -0.00038908381015062332 -0.0002586241625249386 -0.00045431360602378847 0.00055875073224306111 0.00041955550666898487 -9.4777631501738845e-05 -0.00015054309336503722 0.00013289907647828973 0.00028406587570454139 0.00034694016600648558 0.0002605374259874225 0.0005278211563825607 0.00021458691884098307 0.00028186514585589367 -0.00032385401427745822 3.5139214435294896e-05 0.00048840064993676017 0.00060902630444616081 0.00032585421138826539 0.00022871547463265332 0.00022905678097759525 0.00059731582260650143 0.00037264532409608364 0.00021157447849550555 0.00038245177339939847 0.00038936367708033526 0.00044505561447956345 -0.00012585436459630728 -0.0001622013244777918 0.00018583202601543496 0.00023829512856900694 0.00018015014997217806 0.0005600947412577542 0.00052487024868076498 -8.2204583337280296e-05 -0.0001013588364649978 0.00018764352658763529 -3.2447982404349198e-05
leaf_weight=140 31 152 22 134 140 26 59 37 31 74 140 29 59 140 22 109 20 24 20 36 39 20 70 21 140 140 140 25 40 78 53 112 33 33 20 25 56 24 70 119 34 24 34 22 31 23 20 31 21 29 22 54 25 21 25 32 22 22 67 36 24 117
leaf_count=140 31 152 22 134 140 26 59 37 31 74 140 29 59 140 22 109 20 24 20 36 39 20 70 21 140 140 140 25 40 78 53 112 33 33 20 25 56 24 70 119 34 24 34 22 31 23 20 31 21 29 22 54 25 21 25 32 22 22 67 36 24 117
internal_value=5.40672e-13 -0.000216855 0.000306121 0.000192717 -0.000341249 0.000487816 -8.12233e-05 0.000257599 0.000587135 -2.34152e-05 -0.000405391 0.000413802 -0.00014523 -0.000267943 0.000238306 9.71313e-05 0.000549864 0.000453063 0.000666147 0.000369766 0.00033627 0.000224539 -5.21993e-05 0.000278074 -0.000372776 -0.000242317 -0.000438006 0.000572313 0.000422554 -0.000117252 -0.000179622 0.000116707 0.000314952 0.000386367 0.000251713 0.000496371 0.000213864 0.000228754 -0.000302111 2.32657e-05 0.00048586 0.000639319 0.000304956 0.000256446 0.000249125 0.000560612 0.000403919 0.000230776 0.000410651 0.000366783 0.000471372 -0.000106177 -0.000139402 0.000209453 0.000220476 0.000198974 0.000579119 0.000542892 -7.26167e-05 -0.000116056 0.000206504 -3.84422e-05
internal_weight=3439 2013 1426 878 1050 548 963 523 234 506 560 314 457 490 420 355 159 166 75 148 103 312 313 108 280 280 280 112 86 252 205 221 72 112 88 47 224 112 210 193 80 55 56 46 52 92 60 51 50 62 56 168 84 66 45 112 45 47 126 90 80 187
internal_count=3439 2013 1426 878 1050 548 963 523 234 506 560 314 457 490 420 355 159 166 75 148 103 312 313 108 280 280 280 112 86 252 205 221 72 112 88 47 224 112 210 193 80 55 56 46 52 92 60 51 50 62 56 168 84 66 45 112 45 47 126 90 80 187
is_linear=0
shrinkage=0.04


Tree=6
num_leaves=63
num_cat=0
split_feature=494 507 441 341 489 422 498 422 441 499 485 495 422 489 441 490 506 441 441 511 290 422 471 489 489 248 499 516 498 512 490 81 463 423 188 498 369 346 425 440 495 549 347 54 518 150 72 118 0 422 431 416 321 98 499 456 357 503 554 395 504 434
split_gain=0.131498 0.0195626 0.0169244 0.0031364 0.00284379 0.00232032 0.00205403 0.000457236 0.000397866 0.00035735 0.000343117 0.000325968 0.000312692 0.000247126 0.000132681 0.000129229 0.000108207 9.56721e-05 9.06892e-05 7.30908e-05 6.782e-05 6.40014e-05 4.28897e-05 4.28897e-05 4.28896e-05 4.03507e-05 4.01452e-05 3.9699e-05 3.69948e-05 3.6928e-05 3.43623e-05 3.37147e-05 3.14662e-05 3.12325e-05 3.00385e-05 2.92054e-05 2.85931e-05 2.60166e-05 2.57761e-05 2.56217e-05 2.52825e-05 2.39484e-05 2.37743e-05 2.33584e-05 2.19243e-05 2.12092e-05 1.84076e-05 1.74933e-05 1.69442e-05 1.5731e-05 1.4863e-05 1.39106e-05 1.37722e-05 1.37986e-05 1.01793e-05 8.2535e-06 7.78542e-06 7.30003e-06 6.90867e-06 6.61882e-06 6.43427e-06 5.78082e-06
threshold=16.530500000000004 22.405000000000005 43.13750000000001 113.92000000000002 5.9185692893165518 27.992250000000006 16.077000000000002 28.829499999999999 46.167500000000011 12.789645148263878 -1.0000000180025095e-35 0.67441226922756625 28.580750000000005 13.424400260398114 42.552500000000002 6.9210000000000003 1.3499999999999974 44.342500000000008 44.727500000000013 2.1150000000000007 1.1909628039517719 29.228750000000002 30.629000000000005 2.461015758318803 3.9200989517651093 0.034031309840168868 9.9976177579803416 2.4450000000000007 13.34975 2.4650000000000003 24.539000000000005 0.07330182727497965 9.9500000000000011 1.2638809799602089 0.28395000000000004 19.868750000000002 -96.850000000000009 97.974250000000012 29.605000000000004 46.050000000000004 13.431193573318099 25.024360184457784 2.7707653142384352 4.6066421340255737 0.33919990971749014 28.265000000000004 3.9850000000000008 5.5492500000000007 104.06500000000001 28.747000000000003 27.605000000000004 27.030000000000005 96.660000000000011 6.5750000000000011 16.294628956576627 3.0135000000000005 1815.5400000000002 3.1450000000000005 0.29873350000000004 53.033000000000008 0.099999999999999825 2.7863955153208591
decision_type=2 2 2 2 2 2 2 2 2 2 2 2 2 2 2 2 2 2 2 2 2 2 2 2 2 2 2 2 2 2 2 2 2 2 2 2 2 2 2 2 2 2 2 2 2 2 2 2 2 2 2 2 2 2 2 2 2 2 2 2 2 2
left_child=1 4 3 7 10 8 9 20 18 26 24 35 17 36 21 -5 38 27 29 33 -2 32 -15 -12 -1 46 -3 -7 54 -4 -17 -20 43 50 44 57 -6 39 -10 -34 -13 -23 -19 -9 -22 -44 -16 -45 60 -35 -14 -33 53 55 -11 61 -57 -8 -30 -53 -29 -43
right_child=2 6 5 15 13 12 11 14 16 28 23 40 19 22 25 30 -18 42 31 -21 34 41 -24 -25 -26 -27 -28 48 58 -31 -32 51 37 49 -36 -37 -38 -39 -40 -41 -42 52 45 47 -46 -47 -48 -49 -50 -51 -52 59 -54 -55 -56 56 -58 -59 -60 -61 -62 -63
leaf_value=-0.00037352044135332109 0.00037867600456453288 -0.00018560401190229704 0.0005097764909267426 6.2252548106237141e-05 -0.00027958951890468599 0.00044693683918852075 -4.8853893687865181e-05 0.00028455101552286318 0.00062530560701182388 -0.00012390242231616734 -0.00043614108115434645 2.4815234336081142e-06 0.00037301930022381601 -0.00024827919900417329 0.00031960632574434079 9.6618672997682501e-05 0.00069618724838451111 0.00043670925045652051 0.00058538782875984909 0.00030539440611998243 0.0002983726337552071 0.00023099731886759402 -0.00021696887910366058 -0.0004048307612538338 -0.00034221015870571135 0.00023787463686483748 -0.0001491042181900511 0.0003867499865591526 -7.4841925046510173e-05 0.00043871967968615617 0.00012817208810398975 0.00055030145915225149 0.00027067392709709351 0.00041208409438175817 0.00027798130856575195 -3.2111019454185514e-05 -0.0003108998388051987 0.00019168924132827669 0.00057451062985966288 0.00020741364033892751 3.2892185219448973e-05 0.00019871275406330825 0.00050430248677730562 0.0002138141749183769 0.00035760003607720136 0.00045259517532857981 0.00027294535670549638 0.000264964846894145 0.00035770053789019584 0.00037159714135615268 0.00032883274401056359 0.00053118969127535819 0.00017269907918359553 0.00022984362588348716 -0.00010370479098388128 0.0002237685371867635 0.00019143721160407248 -6.7138584547561322e-05 -9.5105805475987617e-05 0.0004986472465097904 0.00041883555427193645 0.00017010842055942003
leaf_weight=140 26 142 25 134 140 26 67 28 33 109 140 67 21 140 24 113 27 28 24 36 20 36 140 140 140 34 73 20 45 22 108 32 21 28 37 131 70 32 31 20 126 20 30 23 20 22 31 20 20 34 29 20 35 22 63 22 26 73 67 20 20 26
leaf_count=140 26 142 25 134 140 26 67 28 33 109 140 67 21 140 24 113 27 28 24 36 20 36 140 140 140 34 73 20 45 22 108 32 21 28 37 131 70 32 31 20 126 20 30 23 20 22 31 20 20 34 29 20 35 22 63 22 26 73 67 20 20 26
internal_value=8.30695e-13 -0.000208181 0.000293877 0.000185009 -0.000327599 0.000468304 -7.79744e-05 0.000247295 0.000563649 -0.000134307 -0.000389176 -1.73927e-05 0.00039725 -0.000257225 0.000228773 9.3246e-05 0.000629033 0.00043494 0.000522042 0.000354976 0.000322819 0.000217115 -0.000232624 -0.000420486 -0.000357865 0.00027213 -0.000173211 0.000405652 -0.000104855 0.000476516 0.000112038 0.00054433 0.000237159 0.000370913 0.000303958 -4.56859e-05 -0.000290026 0.000218719 0.000600702 0.000239815 2.23351e-05 0.000201681 0.000466425 0.000256119 0.000327986 0.000482426 0.000293307 0.000237605 0.000387762 0.000389882 0.000347391 0.000530644 0.000194691 0.000201327 -0.000116504 0.000194653 0.000206256 -5.83881e-05 -8.69641e-05 0.000514918 0.000402793 0.000182545
internal_weight=3439 2013 1426 878 1050 548 963 523 234 499 560 464 314 490 420 355 91 166 143 148 103 331 280 280 280 89 215 86 284 47 221 96 144 112 77 271 210 73 64 41 193 187 80 71 40 52 55 43 60 62 50 72 151 116 172 94 48 140 112 40 40 46
internal_count=3439 2013 1426 878 1050 548 963 523 234 499 560 464 314 490 420 355 91 166 143 148 103 331 280 280 280 89 215 86 284 47 221 96 144 112 77 271 210 73 64 41 193 187 80 71 40 52 55 43 60 62 50 72 151 116 172 94 48 140 112 40 40 46
is_linear=0
shrinkage=0.04


Tree=7
num_leaves=63
num_cat=0
split_feature=494 507 422 347 5 498 441 441 441 495 5 498 5 441 508 422 441 349 422 516 385 207 422 81 5 5 5 422 434 377 514 297 498 119 150 5 495 438 498 4 193 441 283 322 254 191 498 194 461 212 422 422 495 214 453 554 476 519 498 554 498 390
split_gain=0.12119 0.0183912 0.0153055 0.00306966 0.00262084 0.00197504 0.00174976 0.000582564 0.000396581 0.0003243 0.000316217 0.00029456 0.000227752 0.000174121 0.000122176 0.000121891 0.000117512 8.39466e-05 8.197e-05 7.99472e-05 6.6395e-05 6.09049e-05 5.6249e-05 4.15584e-05 3.95272e-05 3.95272e-05 3.95272e-05 3.54772e-05 3.49682e-05 3.33587e-05 2.8227e-05 2.90239e-05 2.75037e-05 2.724e-05 3.35029e-05 2.63514e-05 2.58799e-05 2.47701e-05 2.31545e-05 2.20085e-05 2.11281e-05 2.11251e-05 2.07906e-05 2.05211e-05 2.03045e-05 2.01969e-05 1.95904e-05 1.95161e-05 1.86191e-05 1.78848e-05 1.6396e-05 1.44071e-05 1.30881e-05 1.14198e-05 1.0289e-05 1.00544e-05 9.65639e-06 8.63638e-06 7.77041e-06 7.71394e-06 7.59561e-06 6.65305e-06
threshold=17.249000000000006 22.405000000000005 28.697000000000003 4.4275939343670494 0.011950000000000002 16.077000000000002 44.667500000000011 42.552500000000002 46.38750000000001 0.67441226922756625 0.014150000000000001 10.149000000000003 0.010300000000000002 43.607500000000009 19.052376577741416 27.992250000000006 43.530000000000008 105.72500000000001 29.181250000000002 2.5150000000000001 5.4199882219559425 0.26340000000000002 29.188750000000002 0.065805734217332365 0.015300000000000001 0.0091500000000000019 0.013050000000000001 28.388250000000003 3.551408170718231 4.4406550632461661 0.41188045472026763 2.755000000000003 18.676250000000007 0.096566024197954681 27.965000000000003 0.011400000000000002 14.029562659496312 3.0614539023094625 42.183750000000003 5455.3150000000014 0.40540000000000004 45.402500000000011 81.790000000000006 92.345000000000013 0.34630000000000005 0.051264415313823843 14.272750000000004 0.30355000000000004 4.1038487601285523 0.37580000000000008 29.379750000000005 27.6615 0.37893489108164341 0.051329285525197534 3.850941428539246 0.43118135000000007 3.6185651697947883 1.405 7.0742500000000019 0.29873350000000004 8.2765000000000022 -10.535000000000002
decision_type=2 2 2 2 2 2 2 2 2 2 2 2 2 2 2 2 2 2 2 2 2 2 2 2 2 2 2 2 2 2 2 2 2 2 2 2 2 2 2 2 2 2 2 2 2 2 2 2 2 2 2 2 2 2 2 2 2 2 2 2 2 2
left_child=1 4 6 7 12 11 13 18 15 32 26 20 25 21 29 23 22 42 30 27 60 43 28 -8 -12 -1 -6 37 39 -5 31 44 -7 34 -20 -14 -11 -15 -18 49 -23 -25 -10 -2 -4 -24 55 -33 -17 -9 53 -43 56 -36 -32 -13 -21 -35 -22 -48 -3 -16
right_child=2 5 3 14 10 9 8 16 17 36 24 46 35 19 61 48 38 -19 33 52 58 40 45 41 -26 -27 -28 -29 -30 -31 54 47 -34 57 50 -37 -38 -39 -40 -41 -42 51 -44 -45 -46 -47 59 -49 -50 -51 -52 -53 -54 -55 -56 -57 -58 -59 -60 -61 -62 -63
leaf_value=-0.00020829012617468835 0.00040009930129012751 -0.00017492984176466342 0.00019669509315419767 6.1692563924661354e-05 -0.00032852172851562502 -6.2871506129990202e-05 0.00057499914684078907 0.00029522270048883825 0.00060991753389437995 3.7907191732744187e-06 -0.00038863752037286757 -9.4006874979558325e-05 -0.00026840593665838241 0.000499611483886838 0.0001216305985973023 0.00043338082847185435 0.00036705570351896864 0.00068269634619355201 0.00025522217154502871 0.00038267605654571367 -0.00014763785875402391 0.00034116211843987303 0.00026802919283509254 0.00048870928695096693 -0.00041869543492794036 -0.00023834804072976113 -0.0003585796430706978 0.00040899464062282018 0.00025910506685895309 9.2201186344027523e-05 0.00019109424527572548 0.00029264822464298321 -3.5317806703820431e-05 0.00020399265270680189 0.00019518650276586412 -0.0002984638512134552 3.334170210908986e-05 0.00044087930134049165 0.00031602111756801602 0.00027386582642793654 0.00029080963383118312 0.00054487863076584683 0.00056104775804739727 0.00035023234136726547 0.00025004760511219504 0.00021665745414793493 -6.1074470036796166e-05 0.00024123370470035646 0.00048118323595686396 0.00034207304182928057 0.000182494735142783 0.00050598949745849322 0.00036696109862532466 0.00023694905283098871 0.00022981994874065833 -0.00011465993187757153 0.00042019237365041465 0.00017445066563883109 -0.00012389700479385719 -8.8179101502256738e-05 -0.00014870766922831535 0.00014688210282474756
leaf_weight=140 31 152 21 121 140 84 22 22 30 74 140 88 140 20 101 32 33 20 21 23 32 30 25 34 140 140 140 28 31 109 23 27 187 20 20 70 132 27 25 20 24 35 26 23 25 24 28 21 22 32 46 27 32 22 21 66 21 76 71 42 20 20
leaf_count=140 31 152 21 121 140 84 22 22 30 74 140 88 140 20 101 32 33 20 21 23 32 30 25 34 140 140 140 28 31 109 23 27 187 20 20 70 132 27 25 20 24 35 26 23 25 24 28 21 22 32 46 27 32 22 21 66 21 76 71 42 20 20
internal_value=7.38365e-13 -0.000198303 0.000284333 0.000185852 -0.000314495 -7.33016e-05 0.000460316 0.000244404 0.000536256 -1.51028e-05 -0.000373609 -0.000128935 -0.000246936 0.000387602 9.3268e-05 0.000502632 0.000296532 0.000612351 0.000212186 0.000415339 -0.000156671 0.000348821 0.000278255 0.000525412 -0.000403666 -0.000223319 -0.000343551 0.000444638 0.00029477 7.6151e-05 0.000236019 0.000248396 -4.38584e-05 0.000196142 0.000209826 -0.000278425 2.27263e-05 0.000465872 0.000345058 0.00030971 0.000318783 0.000514048 0.000587228 0.00037886 0.000225691 0.000242868 -9.48829e-05 0.000270154 0.000452856 0.000322986 0.000198993 0.000527943 0.000386426 0.000217062 0.000209577 -0.000102858 0.000400582 0.000180605 -0.000131273 -7.73372e-05 -0.000171881 0.000125804
internal_weight=3439 2026 1413 906 1050 976 507 555 248 477 560 499 490 259 351 172 212 76 343 151 275 108 154 118 280 280 280 75 105 230 138 94 271 205 109 210 206 47 58 74 54 96 56 54 46 49 224 48 54 54 88 62 76 42 44 154 44 96 103 70 172 121
internal_count=3439 2026 1413 906 1050 976 507 555 248 477 560 499 490 259 351 172 212 76 343 151 275 108 154 118 280 280 280 75 105 230 138 94 271 205 109 210 206 47 58 74 54 96 56 54 46 49 224 48 54 54 88 62 76 42 44 154 44 96 103 70 172 121
is_linear=0
shrinkage=0.04


Tree=8
num_leaves=63
num_cat=0
split_feature=494 507 422 404 5 479 441 441 441 495 499 5 5 441 490 422 441 506 422 516 207 422 499 81 5 5 5 420 490 434 499 537 417 442 215 5 479 423 495 503 290 193 322 290 191 138 514 554 499 511 276 422 495 287 441 353 328 533 305 286 506 475
split_gain=0.11169 0.0166147 0.0143883 0.00296433 0.00241536 0.00167975 0.00161257 0.000547737 0.000365489 0.000312397 0.000301977 0.000291426 0.000209896 0.00016047 0.000115004 0.000112334 0.000108299 7.7974e-05 7.54937e-05 7.36794e-05 5.61299e-05 5.1839e-05 3.84223e-05 3.83003e-05 3.64282e-05 3.64282e-05 3.64282e-05 3.31573e-05 3.27692e-05 3.22267e-05 2.92184e-05 2.78954e-05 2.6936e-05 2.57737e-05 2.66632e-05 2.42855e-05 2.38715e-05 2.38583e-05 2.15524e-05 2.13392e-05 2.05717e-05 1.94717e-05 1.89123e-05 1.8903e-05 1.86134e-05 1.85749e-05 1.81231e-05 1.64808e-05 1.61927e-05 1.57269e-05 1.56787e-05 1.42655e-05 1.2062e-05 1.06879e-05 1.19489e-05 8.87808e-06 8.76148e-06 7.79501e-06 7.41393e-06 7.18538e-06 6.6546e-06 5.56476e-06
threshold=16.530500000000004 22.405000000000005 28.697000000000003 1.7081686497498068 0.011950000000000002 38.027000000000008 44.667500000000011 42.552500000000002 46.38750000000001 0.67441226922756625 12.970509860552371 0.014150000000000001 0.010300000000000002 43.607500000000009 6.9210000000000003 27.992250000000006 43.530000000000008 0.90000000000000313 29.118000000000002 2.5150000000000001 0.26340000000000002 29.188750000000002 9.9976177579803416 0.065805734217332365 0.0091500000000000019 0.013050000000000001 0.015300000000000001 26.315000000000001 24.539000000000005 3.551408170718231 16.743831084029498 3.383409869077822 31.465000000000003 3.1106438597070949 0.21015000000000003 0.011400000000000002 37.18075000000001 1.112510378056164 13.431193573318099 41.775000000000013 1.2806708114435426 0.40540000000000004 92.345000000000013 1.2495257251905787 0.051264415313823843 0.18386118109197594 0.24246417834367937 4.2387471000000003 0.41240995825476578 2.0550000000000002 1.5649999999999979 27.6615 0.37893489108164341 81.875000000000014 42.032500000000006 117.11500000000001 3.515420503551248 1.4830710644284888 1.5493346257858658 1.4564975108550453 -35.564999999999991 42.45600000000001
decision_type=2 2 2 2 2 2 2 2 2 2 2 2 2 2 2 2 2 2 2 2 2 2 2 2 2 2 2 2 2 2 2 2 2 2 2 2 2 2 2 2 2 2 2 2 2 2 2 2 2 2 2 2 2 2 2 2 2 2 2 2 2 2
left_child=1 4 6 7 12 9 13 18 15 36 22 25 24 20 -5 23 21 48 33 27 42 29 -7 -8 -1 -6 -13 -15 -16 37 60 32 53 47 -35 -14 55 -9 -11 -18 51 -22 -2 -29 -23 -34 -17 -4 -10 -36 -39 -25 57 -20 58 -3 -32 -21 -55 -42 -12 -38
right_child=2 5 3 14 11 10 8 16 17 38 30 26 35 19 28 46 39 -19 31 52 41 44 -24 40 -26 -27 -28 43 -30 -31 56 -33 45 34 49 -37 61 50 -40 -41 59 -43 -44 -45 -46 -47 -48 -49 -50 -51 -52 -53 -54 54 -56 -57 -58 -59 -60 -61 -62 -63
leaf_value=-0.00019995853304862976 0.0003840953195768018 -2.7701652888731842e-05 0.00018160087860782039 5.7404763638667432e-05 -0.00031538087874650957 -0.00017123527706823716 0.00055199918591163381 0.0002600014079362154 0.00052790990542797816 2.2306336980893403e-06 -0.00011115701018093989 -0.00037309203296899797 -0.00025766970589756965 0.00047095682844519615 8.9015271020146606e-05 0.00046495536342263223 0.00035237347424933404 0.00063536659115925431 0.00016438468247652053 0.00040300135128200056 0.00032751563501854736 0.0002573080264031887 -0.00013657443260308355 0.00052610617921207891 -0.00022881411015987396 -0.00034423645585775377 -0.00040194761008024218 0.00043222089981039365 0.00011954589356069588 0.00024874086401635603 -6.0733688840021694e-05 0.00017032064485375756 0.00020164717412130399 0.00027928567957133057 0.00020402189182198568 -0.00028652528300881385 -6.7681252449028077e-05 0.00033816285697477205 3.0308497505122058e-05 0.00030338027551770209 0.000454880902543664 0.00027917724801227454 0.00033622304706469824 0.00038512578308582307 0.00020799115843450028 0.00024735708832740786 0.00041696886915494413 0.00022907059416174891 0.00057649163610261421 0.00025189973502641634 0.00029395038995778922 0.00048452309925447811 0.000352282656240277 0.00016972246047641551 0.00021711173281073571 -4.5195895501594878e-05 -8.6310830463965735e-05 0.00036918911306808389 0.00020160924736410381 0.00048838146740481968 -9.2409235629730099e-05 -4.7613958277824252e-05
leaf_weight=140 31 89 22 134 140 142 22 20 21 67 116 140 140 20 113 20 33 32 25 20 30 25 80 33 140 140 140 30 112 31 30 77 33 24 23 70 67 21 126 25 20 24 23 25 24 25 34 25 23 21 33 22 32 28 25 97 75 24 20 21 41 33
leaf_count=140 31 89 22 134 140 142 22 20 21 67 116 140 140 20 113 20 33 32 25 20 30 25 80 33 140 140 140 30 112 31 30 77 33 24 23 70 67 21 126 25 20 24 23 25 24 25 34 25 23 21 33 22 32 28 25 97 75 24 20 21 41 33
internal_value=-3.62486e-13 -0.000191862 0.00027084 0.000176466 -0.000301915 -7.18657e-05 0.000441904 0.000233986 0.000514806 -1.87621e-05 -0.000124421 -0.000358664 -0.000237059 0.000372098 8.67412e-05 0.000482527 0.00028467 0.000587857 0.000203109 0.000398725 0.000334869 0.000267125 -0.000158745 0.000504395 -0.000214386 -0.000329809 -0.00038752 0.000426852 0.000104213 0.000282979 -9.53371e-05 0.000190021 0.000199744 0.000229628 0.000245371 -0.000267288 -4.52984e-05 0.000297322 2.05613e-05 0.000331256 0.000493486 0.000306032 0.000363705 0.000410814 0.000233153 0.00022135 0.000434742 0.000206851 0.000553305 0.000226873 0.000311144 0.000509473 0.000370969 0.000186957 0.000194688 -3.6825e-05 -7.90031e-05 0.000384558 0.000183009 0.00047204 -0.000106261 -6.1059e-05
internal_weight=3439 2013 1426 919 1050 963 507 560 248 479 484 560 490 259 359 172 212 76 348 151 108 154 222 118 280 280 280 75 225 105 262 233 156 115 68 210 286 74 193 58 96 54 54 55 49 58 54 47 44 44 54 55 76 98 73 186 105 44 48 41 157 100
internal_count=3439 2013 1426 919 1050 963 507 560 248 479 484 560 490 259 359 172 212 76 348 151 108 154 222 118 280 280 280 75 225 105 262 233 156 115 68 210 286 74 193 58 96 54 54 55 49 58 54 47 44 44 54 55 76 98 73 186 105 44 48 41 157 100
is_linear=0
shrinkage=0.04


Tree=9
num_leaves=63
num_cat=0
split_feature=494 507 422 341 5 498 441 441 441 497 5 498 5 441 441 490 422 309 422 245 516 385 422 5 5 5 81 422 342 434 537 150 508 431 498 425 423 5 412 498 167 498 191 498 276 272 422 441 444 494 449 528 133 424 91 244 434 554 385 240 554 497
split_gain=0.102937 0.0156192 0.0129987 0.00260784 0.002226 0.0016826 0.0014877 0.000512803 0.000294756 0.000273626 0.000268578 0.00025057 0.00019344 0.000190327 9.98082e-05 8.66644e-05 8.58887e-05 7.37119e-05 6.74841e-05 5.81921e-05 5.78989e-05 5.62689e-05 4.77752e-05 3.35723e-05 3.35723e-05 3.35722e-05 3.19045e-05 3.1159e-05 3.02628e-05 3.02359e-05 2.76622e-05 2.76991e-05 2.66797e-05 2.51984e-05 2.38229e-05 2.35791e-05 2.27385e-05 2.23815e-05 2.13752e-05 1.96662e-05 1.79037e-05 1.78569e-05 1.75091e-05 1.6938e-05 1.667e-05 1.65106e-05 1.62547e-05 1.96181e-05 1.59312e-05 1.59164e-05 1.52891e-05 1.26919e-05 1.19615e-05 1.29534e-05 1.04806e-05 1.01961e-05 8.72345e-06 8.22339e-06 8.03795e-06 7.47172e-06 6.71202e-06 6.49378e-06
threshold=17.249000000000006 22.405000000000005 28.697000000000003 113.92000000000002 0.011950000000000002 16.077000000000002 44.795000000000009 42.552500000000002 46.38750000000001 22.415000000000003 0.014150000000000001 10.149000000000003 0.010300000000000002 43.885000000000012 43.530000000000008 6.9210000000000003 27.992250000000006 2.1721090185473191 29.118000000000002 0.31315000000000004 2.5150000000000001 5.7002385256435497 29.181250000000002 0.013050000000000001 0.0091500000000000019 0.015300000000000001 0.065805734217332365 27.952000000000002 99.034000000000006 3.551408170718231 3.383409869077822 27.875000000000004 19.052376577741416 28.375000000000004 19.868750000000002 29.655000000000005 1.112510378056164 0.011400000000000002 53.685000000000009 42.183750000000003 25.539000000000005 40.772750000000009 0.051264415313823843 13.845000000000004 1.5649999999999979 77.320000000000007 29.379750000000005 41.45000000000001 50.650000000000013 10.202500000000001 -1.9000000000000019 98.63000000000001 24.053764306401227 26.685000000000006 6.3890000000000011 0.024344906048662105 3.4462298171534402 0.51922905000000019 4.9695906913679631 0.02590000000000001 0.29873350000000004 3.8400000000000003
decision_type=2 2 2 2 2 2 2 2 2 2 2 2 2 2 2 2 2 2 2 2 2 2 2 2 2 2 2 2 2 2 2 2 2 2 2 2 2 2 2 2 2 2 2 2 2 2 2 2 2 2 2 2 2 2 2 2 2 2 2 2 2 2
left_child=1 4 6 7 12 11 13 18 16 34 23 21 24 19 22 -5 26 35 33 28 27 58 29 -6 -1 -12 -8 -15 50 36 31 -20 -17 38 61 -10 -9 -14 -4 -16 -29 -21 -24 57 -38 -18 47 -33 -28 -11 59 -50 -35 -54 -49 -22 -48 -13 -3 -2 -45 -7
right_child=2 5 3 15 10 9 8 14 17 49 25 43 37 20 39 32 45 -19 30 41 55 -23 42 -25 -26 -27 48 40 -30 -31 -32 46 -34 52 -36 -37 44 -39 -40 -41 -42 -43 -44 60 -46 -47 56 54 51 -51 -52 -53 53 -55 -56 -57 -58 -59 -60 -61 -62 -63
leaf_value=-0.00019196018576622009 0.00035784998908638954 -0.00016226018651981246 0.00021891658855301721 5.6928671908002992e-05 -0.00030276563018560409 -4.2739783052299453e-05 0.00053240107558667662 0.00024960134923458099 0.00056014701620572143 8.1536636522348478e-06 -0.00035816837102174758 -8.9354630118530039e-05 -0.00024736290797591212 0.00045868812128901481 0.00033827853360862443 8.4952525794506075e-05 0.00044420817020264541 0.00063026042282581321 0.00023584927059710028 0.0002636349089443684 0.00035167678321401284 -0.00011811898597939448 0.00024705030955374241 -0.00033046700060367583 -0.00021966155618429186 -0.00038586970418691635 0.0004460378381468001 0.00037396270688623188 0.0003862900581831733 0.00023879122830206348 0.00016283496683817123 0.00016474909681294644 0.00011275121875639473 0.00018026569702972968 -2.7999608450434134e-05 0.00050597796589136126 0.00032847239077091217 -0.00027506427839398386 0.00027118346166043057 0.0002912450648844242 0.00042351439462176392 0.00031644661511693684 0.00019967151107266545 -5.9250152077187198e-05 0.00028219237472071795 0.00039462265514192131 0.00018067045973088497 0.00019539262983016671 0.00046460081029821326 3.0599091783226625e-05 0.00030756279907148817 0.00049991940943206229 0.00023896329663693907 0.00019448482897132635 0.0002307920805785967 0.00038493846639476979 0.00014817797485738992 -0.00011011243404613601 -0.00014405960674312982 0.00032921863496303559 -8.240192836406184e-05 -5.9985208822643919e-05
leaf_weight=140 35 132 31 121 140 67 20 20 36 89 140 95 140 24 33 109 22 20 20 20 30 88 26 140 140 140 21 20 24 31 79 21 112 24 131 20 20 70 21 25 28 21 24 33 33 21 39 32 27 117 23 41 20 22 23 29 20 45 55 25 51 73
leaf_count=140 35 132 31 121 140 67 20 20 36 89 140 95 140 24 33 109 22 20 20 20 30 88 26 140 140 140 21 20 24 31 79 21 112 24 131 20 20 70 21 25 28 21 24 33 33 21 39 32 27 117 23 41 20 22 23 29 20 45 55 25 51 73
internal_value=-6.75613e-13 -0.00018276 0.000262047 0.00017129 -0.000289838 -6.75638e-05 0.000424227 0.000224136 0.000500024 -1.38463e-05 -0.000344318 -0.000118913 -0.000227576 0.000362286 0.000273283 8.41413e-05 0.000467864 0.000564343 0.000194536 0.000331204 0.000397402 -0.000144495 0.00025644 -0.000316616 -0.000205811 -0.000372019 0.00048675 0.000421475 0.00034673 0.000271888 0.000182099 0.000191917 9.90406e-05 0.0002192 -4.02599e-05 0.000540801 0.000285943 -0.000256597 0.000240024 0.000318005 0.000402868 0.000290685 0.000224308 -8.75067e-05 0.000299657 0.000419992 0.000185409 0.000197638 0.000476491 2.09018e-05 0.000335291 0.000485896 0.000202793 0.000215665 0.000210196 0.000368026 0.000169656 -9.60268e-05 -0.000156907 0.00034592 -7.33066e-05 -5.1732e-05
internal_weight=3439 2026 1413 906 1050 976 507 564 228 477 560 499 490 279 212 342 152 76 352 148 131 275 154 280 280 280 109 72 107 104 234 155 221 118 271 56 73 210 52 58 48 41 50 224 53 43 135 76 89 206 83 68 66 42 55 59 59 140 187 60 84 140
internal_count=3439 2026 1413 906 1050 976 507 564 228 477 560 499 490 279 212 342 152 76 352 148 131 275 154 280 280 280 109 72 107 104 234 155 221 118 271 56 73 210 52 58 48 41 50 224 53 43 135 76 89 206 83 68 66 42 55 59 59 140 187 60 84 140
is_linear=0
shrinkage=0.04


Tree=10
num_leaves=63
num_cat=0
split_feature=494 506 422 347 5 498 441 441 499 441 5 495 317 5 508 422 417 441 216 422 441 322 532 499 498 459 5 5 5 423 190 405 497 348 377 290 150 495 264 5 498 347 359 47 344 441 476 134 345 230 498 434 417 499 493 454 474 176 498 409 554 553
split_gain=0.0948672 0.01437 0.0119796 0.00240556 0.00205266 0.00156204 0.00137393 0.000457598 0.000317143 0.000290601 0.000247521 0.000201089 0.000192041 0.00017717 9.48107e-05 8.60686e-05 8.55974e-05 7.48425e-05 6.95188e-05 4.95489e-05 4.4165e-05 4.32981e-05 3.81067e-05 3.78369e-05 3.6744e-05 3.59186e-05 3.09402e-05 3.09402e-05 3.09402e-05 2.8557e-05 5.31354e-05 2.68356e-05 2.98143e-05 2.64692e-05 2.59395e-05 2.2862e-05 2.31097e-05 2.09111e-05 2.07389e-05 2.04294e-05 1.81244e-05 1.74225e-05 1.6405e-05 1.63001e-05 1.59996e-05 1.5551e-05 1.46256e-05 1.44114e-05 1.34443e-05 1.11754e-05 1.08289e-05 1.05221e-05 9.82211e-06 9.69758e-06 7.68949e-06 7.59268e-06 7.2388e-06 6.90618e-06 5.35737e-06 5.14968e-06 4.58827e-06 3.93433e-06
threshold=17.249000000000006 -1.7550000000000023 28.697000000000003 4.4275939343670494 0.011950000000000002 17.443750000000005 45.300000000000011 42.682500000000012 13.242112156111242 44.227500000000013 0.014150000000000001 0.67441226922756625 92.685000000000016 0.010300000000000002 19.052376577741416 29.157250000000001 29.225000000000005 43.530000000000008 0.43315000000000003 28.193000000000001 43.345000000000006 95.995000000000019 99.090500000000006 9.9976177579803416 14.272750000000004 8.0550000000000015 0.013050000000000001 0.015300000000000001 0.0091500000000000019 1.141703127705205 0.31639500000000004 49.705000000000005 43.605000000000011 92.085000000000008 4.4406550632461661 2.2017093837443222 27.875000000000004 14.029562659496312 78.185000000000016 0.011400000000000002 42.183750000000003 2.7842614656613787 1754.7500000000002 3.9288466539366369 91.405000000000015 46.847500000000004 3.8874545248529437 0.14634322854989043 102.74000000000002 0.23475000000000004 19.868750000000002 2.8828804204666665 31.515000000000004 17.162929420408059 3.8550000000000004 -1.6399999999999997 34.565000000000005 0.69957345094005696 9.4900000000000038 -5.5650000000000004 0.26481385000000007 0.38359026613009412
decision_type=2 2 2 2 2 2 2 2 2 2 2 2 2 2 2 2 2 2 2 2 2 2 2 2 2 2 2 2 2 2 2 2 2 2 2 2 2 2 2 2 2 2 2 2 2 2 2 2 2 2 2 2 2 2 2 2 2 2 2 2 2 2
left_child=1 5 6 7 13 8 9 15 23 18 26 50 -8 28 34 29 45 21 20 22 42 31 -11 -1 53 38 -6 -12 -3 46 -31 -9 47 44 -5 36 -17 -13 -18 -15 -19 -21 -2 -32 -22 -14 -4 -33 51 -35 60 -38 -50 -10 -26 -24 -27 -37 -25 -16 -7 -59
right_child=2 4 3 14 10 11 12 17 24 19 27 37 16 39 59 35 25 40 -20 41 33 -23 55 58 54 56 -28 -29 -30 30 43 32 -34 49 -36 57 48 -39 -40 -41 -42 -43 -44 -45 -46 -47 -48 -49 52 -51 -52 -53 -54 -55 -56 -57 -58 61 -60 -61 -62 -63
leaf_value=-0.00015875712401800223 0.00032953232188116419 -0.00018428178504109382 0.00021182197179379209 5.4651523155183341e-05 -0.00029065500944852829 -3.2585033400477297e-05 0.0005887275698284308 0.00022272916954188123 -0.00010009814303001049 0.0003976773069455074 -0.00034384161233901977 3.0446820204127327e-06 0.0005013594403862953 -0.00023746840655803681 0.00010746976120932268 0.0002224572989242998 0.00045275420916301236 0.00032474739477038382 0.00027055013326129744 0.00034673246244589488 0.00035639615400749093 0.00020652757758008583 0.00047067083604633814 -0.0001323030817142704 -5.4982300433847643e-05 0.00049607207490639257 -0.00031724832952022551 -0.00037043493241071699 -0.00021087508648633956 0.00026894972744313155 0.00018883345829736855 0.00026795072735033256 0.000240624310847904 0.00035610615721215369 8.1554427742958077e-05 0.00017423762075070823 0.00018544144342067065 2.9607822829293033e-05 0.0003990133721381426 -0.00026406170800328258 0.00027959526255726813 0.00039615374356508255 0.0002874902283979787 0.00023317710186044377 0.0003175909713129787 0.00054557461105287069 0.00017015914862545637 0.0003112127891342555 0.0001798718036817653 0.00039512476107726491 -2.6879624627132452e-05 0.00015328325785514787 0.000215011237654835 -8.0804264220267038e-05 -7.5957539635871e-05 0.0004358164481818676 0.00046461192369461057 0.00015959332632864344 -0.00011118527469706947 0.00012968583218753336 -5.0768133733072318e-05 0.00013769913930445911
leaf_weight=143 33 140 28 121 140 34 30 21 142 39 140 74 35 140 101 22 27 33 28 21 34 28 20 57 54 22 140 140 140 33 36 22 28 23 109 28 27 132 20 69 25 25 27 21 34 20 26 28 35 24 131 41 20 59 58 20 25 29 29 20 64 24
leaf_count=143 33 140 28 121 140 34 30 21 142 39 140 74 35 140 101 22 27 33 28 21 34 28 20 57 54 22 140 140 140 33 36 22 28 23 109 28 27 132 20 69 25 25 27 21 34 20 26 28 35 24 131 41 20 59 58 20 25 29 29 20 64 24
